{"hidden_weights": [[-0.44494096355820445, 0.0031011722732250183, -0.7677831677978676, 0.9679373531032134, -1.3209088586679496, 0.1797378019250968, -0.1911929396818998, 0.6962244655309565, -0.10680547109843187, 0.7743886471905885, -0.9093374341414987, 0.14356725349705984], [0.13254898220502262, 0.051805731833828916, 0.1043366142510973, -0.8932216692821937, 0.35343144905182755, 0.6684915336631744, 1.4422543514312358, -1.0428984198184508, -0.5191587513944154, -0.8168331327723712, 0.9817498053572971, -1.2294135910520714], [-0.20422979880170966, 0.6594640725724579, 0.3150837946623714, -0.3268127342439975, -0.7378779149757138, 0.6280823376465798, 0.3575352792092586, -0.5282344657533308, -0.5498580149392194, -0.06068259589239533, 0.709047638490055, -0.6646641254910832], [0.5983070425582704, 0.17608986643392743, 0.4981371348000639, 0.880265978189986, 0.36333434297100076, 0.02867362518444374, -0.004003511214988605, 0.8008835431224575, -1.1535014814632736, 0.045981330458504666, -0.7017135747548173, -1.0112838768711576], [0.09047344978008878, 0.6277605122353416, 0.676139884391566, -0.3629283744407971, 0.47887059203671806, -0.5281078118223208, -1.006781436136556, -0.7843929230281836, -0.6791834442310861, 0.807070693947483, 0.5718237938734541, 0.16868931458063668], [-0.06007879414886609, 0.22526348196032958, -0.24450850081898984, -0.23777566455343163, -0.6494445801843698, -0.18410178440671082, 0.5378044339610976, -0.9800494948579115, -1.0042340275986161, 0.15026994775894242, -0.06015858493310339, -0.38308090862572464], [-0.1912635240528728, -0.6762328493914112, -0.10862474316998384, -0.05559562073324975, 0.9981013497155188, -0.5582139822284914, -0.15424767103273535, 0.14165753923437335, -0.313122135495705, -0.014273674777631001, -0.8071989161044006, 0.24787363177190702], [0.3775051906712997, 0.4441326960004365, 0.36143652544283644, 0.2955996416736346, 0.7492226967045901, -0.3434665247338749, -0.21765410607855898, 0.5872796552036694, -0.6557713734462516, 1.0801550290626758, 0.5506484904172071, -0.6694749216633993]], "output_weights": [[0.23777964301029633, 0.8985699639210725, 0.06336591833153052, 0.979136593563886], [0.15400023949088526, -1.0793242619063692, 0.15693153599641366, -0.8031503451524583], [0.4472702545803692, -0.27400841282287175, 0.6643918263301148, 0.9023432985096265], [0.3649762349341233, -0.20902417884496022, -0.9892332156297785, 0.07601849744477526], [-0.6762042358369554, 0.6931123657188616, -0.6468331820491637, 0.6606546259248561], [-0.487000007395598, -0.41559953698036206, 0.8311128874113641, -0.3643506562792407], [-0.3067266974324084, -0.49293613553780213, 0.42137535091582873, -0.5322576303263581], [-0.28369296103007685, -0.5896041214271963, 0.7688272204066742, -0.31687254372988716], [0.6837204964822764, -0.7497120224398323, -0.0005692828070317374, -0.7002734033124569], [-0.006620472730753413, -0.20999598990476076, 0.06898024784856252, -0.605794942085992], [-0.6491865350390816, 0.2924484920290485, 0.65791054214303, -0.6362622344839135], [0.2787115185671282, -0.1037582572755646, 0.614140823474365, -0.5423200037821991]]}