{"hidden_weights": [[-0.6658009023552109, -0.15711070853838954, -0.9371944389892206, 0.9974993326257131, -0.9267830976693314, 0.46874977454664224, -0.25053609541980193, 1.0338473739486134, -0.18162744864422953, 0.733498591326203, -0.9557240622211076, 0.00676985130307696], [0.0732780706677941, 0.036131629595770556, 0.00848143808414327, -0.8094926202368855, 0.331146009335503, 0.25465869467853564, 0.9890368355886898, -1.0428984198184508, -0.5958853614071469, -1.0139351178618954, 0.6880098683533507, -0.7359014577256761], [-0.11629736356456294, 0.7744060911632075, 0.1654851998039346, -0.2314579617741736, -0.7378779149757138, 0.697244946086397, 0.09470558542870627, -0.6516026829724408, -0.5498580149392194, 0.9287306981738075, 0.9902996385793625, -0.6671073506633678], [0.6427076574043555, -0.03695886369451551, 0.7382536461053263, 0.7100030107640884, 0.3458156024559782, -0.06336533351227591, -0.03864786174944168, 0.15879853691175283, -0.9143049243479033, 0.14360349481195642, -0.6206789744246213, -1.084554619737584], [-0.25368285106778055, 0.6277605122353416, 0.7795140551693865, -0.6939956901719495, 0.5752998281235473, -0.5738261433394372, -1.006781436136556, -0.8490225938591386, -0.7063342674228261, 0.8165861124378553, 0.5718237938734541, 0.16868931458063668], [-0.06007879414886609, 0.11307945328147329, -0.055563787861943825, -0.4963573812551774, -0.8218090178582605, -0.29916424366433736, 0.5181035848124955, -0.8332364110321976, -0.9307202690797669, 0.15026994775894242, -0.06015858493310339, -0.38308090862572464], [-0.1912635240528728, -0.667141904200039, -0.08817225940076345, 0.15517036757415903, 0.7254066067572991, -0.47207083325450605, -0.38457432287469273, 0.0049005444446489615, -0.321759333051171, -0.34789319703608507, -0.785434939038949, 0.4025253253126928], [0.8034760759999082, 0.5478609174999339, 0.06359889237780192, 0.24800281123502912, 0.7614725698641147, -0.3400294118599274, 0.04391844252499075, 0.47424741104872636, -0.5399479095953318, 0.7761927199912468, 0.47692126560189374, -0.7322607728992385]], "output_weights": [[0.02359523220981896, 0.43591673081430693, 0.1536440191349711, 0.910437166007827], [0.20458031148188427, -0.843912137312723, 0.030593102625025653, -0.8275985786735855], [0.613403129480436, -0.2883417310086226, 0.6776409190383549, 0.9716478616990886], [0.49146779931146317, -0.3097606236702154, -0.88754726913226, -0.007335785025423022], [-0.5533530189576847, 0.8703395427534546, -0.5044962424054718, 0.4698718434376412], [-0.46985952714866414, -0.33560402548346513, 0.9517447310786509, -0.48728608347335245], [-0.4615720540841884, -0.49293613553780213, 0.4661605697147176, -0.6369276304086833], [-0.28648089810903765, -0.6955021365114926, 0.7491664731929345, -0.245656632871608], [0.8426079454789785, -0.6528684791744925, 0.14271891934112052, -0.8109985744247186], [-0.012326044392079679, -0.3426038561553453, -0.1008937983377951, -0.603139233068557], [-0.6369978595519993, 0.2446729713267471, 0.8080832353316498, -0.7413961792200836], [0.3838526849601154, -0.25037054653595375, 0.6087533293394805, -0.29807313921840717]]}