{"hidden_weights": [[-0.6730221580453151, -0.15711070853838954, -0.9371944389892206, 0.9679373531032134, -0.9541306910138608, 0.46874977454664224, -0.4110955784935566, 0.9662548749926352, -0.22709465668071838, 0.7710481458072802, -0.9557240622211076, 0.10768121009761566], [0.0732780706677941, 0.036131629595770556, 0.00848143808414327, -0.8094926202368855, 0.331146009335503, 0.25465869467853564, 0.9890368355886898, -1.0428984198184508, -0.5958853614071469, -0.9627259592976203, 0.9817498053572971, -0.7587156793027472], [-0.2926609005290712, 0.7744060911632075, 0.1654851998039346, -0.20006285826655446, -0.7915112918867236, 0.697244946086397, 0.16986928018583214, -0.531110031319467, -0.5498580149392194, 0.9287306981738075, 0.9902996385793625, -0.6671073506633678], [0.5983070425582704, -0.03695886369451551, 0.5751837753642698, 0.7100030107640884, 0.42121342671471784, -0.06336533351227591, -0.03864786174944168, 0.7118891330744395, -0.9143049243479033, 0.14360349481195642, -0.5792941787759622, -1.0823971695779322], [-0.2404962905108896, 0.6277605122353416, 0.9130802995492113, -0.6939956901719495, 0.5244155509913391, -0.5738261433394372, -0.8626919616356815, -0.9175812791257975, -0.7063342674228261, 0.8630939726055493, 0.6495142484144972, 0.18237517055817554], [0.01444646675850467, 0.061460474292681644, -0.08080490434617182, -0.42923473464196715, -0.9866924460927463, -0.19807211730985202, 0.5181035848124955, -0.880522528001576, -1.0112945678790533, 0.1772112725399988, -0.12114026452195491, -0.3033443260366431], [-0.20394135997877072, -0.667141904200039, -0.27011539547079577, 0.24988645145142496, 0.7254066067572991, -0.4231051140482224, -0.38457432287469273, 0.01138211781292292, -0.321759333051171, -0.2538090964044324, -0.7512251168924748, 0.10283115118629774], [0.7589730032404989, 0.593504022120427, -0.03475648497313581, 0.03250731541233268, 0.8214129663522792, -0.32744598588478646, -0.08235114282415301, 0.5881277066283823, -0.5399479095953318, 0.7761927199912468, 0.47692126560189374, -0.6282364103860635]], "output_weights": [[-0.15919124948569616, 0.6998112102703584, 0.2399520059569664, 0.979136593563886], [0.20458031148188427, -0.843912137312723, 0.14852273048159792, -0.8275985786735855], [0.47041218617510794, -0.3656332117770713, 0.6863914638127888, 0.9023432985096265], [0.4566181007539043, -0.13950148894320025, -0.8918023101043423, 0.08377899916653547], [-0.5533530189576847, 0.8632052201865836, -0.5645992160619343, 0.4698718434376412], [-0.5546989567244809, -0.33560402548346513, 0.938078128157275, -0.4730799268950219], [-0.4359238067943192, -0.49293613553780213, 0.6151040431678585, -0.5008419840154944], [-0.28648089810903765, -0.4623613736273665, 0.8362632079403871, -0.29181005033421475], [0.8426079454789785, -0.6528684791744925, 0.05550031236999686, -0.8109985744247186], [0.03942538882390023, -0.20999598990476076, -0.1008937983377951, -0.6701521795753057], [-0.675638424479132, 0.47067756383314463, 0.522465575782052, -0.7413961792200836], [0.3838526849601154, -0.1037582572755646, 0.6087533293394805, -0.48146187674083674]]}