{"hidden_weights": [[-0.5859828774615083, 0.18429356257274093, -0.857275549018944, 0.9679373531032134, -1.0538565226938152, 0.11170763756759987, -0.06631185190424846, 0.8185096720145391, -0.25352628838145486, 0.7743886471905885, -0.8884970104551033, 0.17559329030764995], [0.0832120254335574, 0.036131629595770556, 0.00848143808414327, -0.7941374407231209, 0.09829232025372298, 0.2095234905925188, 1.1055175976278897, -0.9799976399703373, -0.6748946055017825, -0.6112143894648585, 0.8670468708731598, -0.6463375908957247], [-0.3223645513974365, 0.6258434205904556, 0.23547510128868526, -0.3722796589428999, -0.6190480229184963, 0.5483080857458966, 0.3312396256324135, -0.49217428598814156, -0.4470653741249463, -0.1934472710788322, 1.025422061404102, -0.8331881369894214], [0.7273393324517784, -0.16823515338032247, 0.8951432443285036, 0.7599059585506545, 0.5563237530020592, -0.08737005467958735, 0.02591953467673902, 0.8374266056936299, -0.9143049243479033, 0.07867993676179752, -0.9251573005292647, -1.2205039082454157], [0.04100991776165397, 0.6277605122353416, 0.7795140551693865, -0.8607845780208604, 0.45094268045097613, -0.6584446163343948, -1.006781436136556, -1.0149843611044158, -0.780312400084133, 1.2966795818060501, 0.5718237938734541, 0.14515355688845358], [-0.036721307709188716, 0.06337604815272935, -0.13087815541150769, -0.531181145600944, -0.8194224446425438, -0.11866464386099629, 0.4537516652499954, -1.0531020414783554, -0.9725943366000034, 0.2254489632217817, -0.025704643100741525, -0.3300666150281477], [-0.3494111417028051, -0.667141904200039, -0.07414125414112968, 0.04158064917032711, 0.7860286211562264, -0.5627429525830352, -0.38457432287469273, -0.05877228027293552, -0.2516027073569138, -0.19719506164373343, -0.785434939038949, 0.04584987286257344], [0.7913494052023398, 0.576246639838113, 0.07776341893831722, 0.35993484751799015, 0.7080376248895343, -0.22741407369370056, -0.2294662463149506, 0.5881277066283823, -0.4842961693715016, 0.8469975409041759, 0.44669439973681196, -0.6694749216633993]], "output_weights": [[-0.09327349069172232, 0.8985699639210725, 0.06470455653403095, 0.979136593563886], [0.15400023949088526, -1.0560065517924035, 0.15693153599641366, -0.8272339360824313], [0.07014950736227693, -0.24118424224071938, 0.610599781917534, 0.9023432985096265], [0.37206257688836064, -0.387247030245277, -1.1468977631987298, -0.28014867926759957], [-0.30141990534474333, 0.7582965211797665, -0.5645992160619343, 0.6523684861516498], [-0.5909030601857077, -0.41559953698036206, 0.8311128874113641, -0.3643506562792407], [-0.3067266974324084, -0.49293613553780213, 0.42137535091582873, -0.6283541723383677], [-0.28369296103007685, -0.5896041214271963, 0.7688272204066742, -0.31687254372988716], [0.5893950267354368, -0.6528684791744925, -0.05376572948864422, -0.4209404798380453], [0.026995551366702893, -0.3382541915437144, -0.05245835458641816, -0.605794942085992], [-0.6378286510679735, 0.3068467185100314, 0.6985579867865002, -0.7023023019407458], [0.3838526849601154, -0.10424804830532565, 0.5624635423156205, -0.5423200037821991]]}