{"hidden_weights": [[-0.6318995374023985, -0.0660931737011334, -0.9647569419242366, 0.9679373531032134, -1.2226098839493462, 0.19713572471840357, -0.06631185190424846, 0.818673506351999, -0.10680547109843187, 0.8901165614380288, -0.9093374341414987, 0.20583251003843075], [-0.030050152338603614, 0.04218857706397465, 0.02107641021203129, -1.012450479046102, 0.395702210856801, 0.25465869467853564, 1.1407071150088894, -1.0428984198184508, -0.6716049774396762, -1.1006080492173673, 1.1923459561268677, -0.8773267817552909], [0.038602817198939515, 0.4615578502121191, -0.0309100971893913, -0.32458305260354275, -0.8684951369090257, 0.5335985471122442, -0.07599526949751209, 0.401235416062516, 0.9791004392318251, -0.1863074539104378, 1.112145686305741, -0.5901723583746791], [0.5983070425582704, 0.20014209790862292, 0.5751837753642698, 0.8886378990775031, 0.6218521886828043, -0.21787790508987348, -0.09642472549926791, 0.6813791556069605, -0.9143049243479033, 0.4435043707256768, -0.8158595102499575, -1.0880247138114556], [-0.023142563985850823, 0.6277605122353416, 1.0414567596300506, -0.6939956901719495, 0.5752998281235473, -0.5516981674084561, -0.8355048613110853, -0.7758512531010773, -0.7063342674228261, 0.8999380504709141, 0.29968300928299935, 0.16858310262315054], [0.0376079852832477, -0.13450354935491896, -0.10108413195951668, -0.619479890795615, -0.8081798415171677, -0.2690018292178957, 0.7354946808770737, -0.880522528001576, -0.9307202690797669, 0.07905659315820818, -0.05533823366729841, -0.401123642480872], [-0.47685071907112986, -0.7883146104110863, -0.2573892976912753, 0.1139132650324978, 0.7860286211562264, -0.5627429525830352, -0.3462813382711796, 0.02886149817368909, -0.321759333051171, -0.25504378023471613, -0.785434939038949, 0.10283115118629774], [0.781402363435407, 0.7485121172075215, 0.26190360558460457, 0.14287252631197567, 0.7622505782550161, -0.30416673458184623, -0.08235114282415301, 0.7857287509037907, -0.6418794209592813, 0.4847390867177458, 0.47692126560189374, -0.6694749216633993]], "output_weights": [[0.02359523220981896, 0.7254726007417195, 0.4437224044446724, 1.087378878624057], [0.175771400380697, -0.843912137312723, 0.17726629659548393, -0.911751743526232], [0.4366528240688563, -0.40343475084023855, 0.714313281004406, 0.7372773317629139], [0.37206257688836064, -0.27290635113713346, -0.9506434047902036, -0.007335785025423022], [-0.5533530189576847, 0.7681634363935469, -0.821392782049231, 0.4698718434376412], [-0.6038028568871364, -0.33560402548346513, 0.938078128157275, -0.3706079131748602], [-0.4541117966495071, -0.5850697376873096, 0.47330773045201435, -0.4007677680748035], [-0.28648089810903765, -0.5596000482866701, 0.8475268829296261, -0.31687254372988716], [0.7523559858596065, -0.4969256900333417, 0.05550031236999686, -0.7697612655468538], [-0.20087550179965874, -0.20999598990476076, 0.02398465665433966, -0.605794942085992], [-0.6378286510679735, 0.5450955140102159, 0.6985579867865002, -0.8021850399695623], [0.35921644501113204, -0.11956513966589344, 0.6087533293394805, -0.45899716087583003]]}