{"hidden_weights": [[-0.4805706499981278, 0.007356952018330115, -0.9371944389892206, 1.017475705393555, -1.166577851949133, 0.23053145564161162, -0.13646755596411952, 0.8051199387620033, -0.23469370666520023, 0.6520662649418675, -0.9904980950960253, 0.16515852274138776], [0.07785044352676596, 0.08850657050687237, 0.00848143808414327, -0.7799612134610736, 0.41166926184067304, 0.2356391899097074, 0.9890368355886898, -0.9848185742523157, -0.6347429190778422, -0.8578702290068041, 0.4378102142465719, -0.6021725190805906], [-0.16395607152367903, 0.7744060911632075, 0.1654851998039346, -0.2314579617741736, -0.5854759823068025, 0.5723662798899836, 0.4010296562849489, -0.34650504884513694, -0.5783781620351877, 1.1246688785908847, 1.026782326830791, 0.49959449018028607], [0.5415832480903631, 0.00957593499725605, 0.5751837753642698, 0.6623452536709981, 0.42121342671471784, -0.10431138933433526, 0.026341358028746417, 0.30839898644571506, -0.7173878729977071, 0.14360349481195642, -0.6321649966388945, -0.9412296786314973], [-0.23116213376233577, 0.6925521130919395, 0.9130802995492113, -0.6939956901719495, 0.4629952506200098, -0.45763614088284715, -1.006781436136556, -0.6252973550042451, -0.6452602747497971, 0.9801691626065694, 0.5718237938734541, 0.14515355688845358], [-0.036721307709188716, 0.11307945328147329, -0.13087815541150769, -0.531181145600944, -0.8194224446425438, -0.22853156055481, 0.5075554715523762, -1.0026680340186456, -1.1381722121456674, 0.36472577653572236, -0.05533823366729841, -0.3033443260366431], [-0.47685071907112986, -0.7883146104110863, -0.08817225940076345, 0.15517036757415903, 0.8211330730315591, -0.5655067752654955, -0.23354705342587365, 0.0049005444446489615, -0.31555365849128375, -0.26212698736902945, -0.7667609917456507, 0.05215951818897785], [0.6656977125410897, 0.704602940937757, 0.08436937534461508, 0.24800281123502912, 0.7614725698641147, -0.40994874276643184, -0.08235114282415301, 0.5222804945366719, -0.4881497100260359, 0.7761927199912468, 0.31426910945014797, -0.6100494737715089]], "output_weights": [[0.05015380209449538, 0.7901752207589853, 0.1709797177099303, 1.2778307967886462], [0.20458031148188427, -0.9015350877987632, 0.331579074007262, -0.8750680150511984], [0.5183377291102212, 0.11905450374120508, 0.6776409190383549, 0.9716478616990886], [0.6273812655088602, -0.387247030245277, -0.88754726913226, -0.19182738149099854], [-0.43206393431488604, 0.6078279700490347, -0.6468331820491637, 0.4698718434376412], [-0.5369549798105547, -0.41559953698036206, 0.8311128874113641, -0.3643506562792407], [-0.3067266974324084, -0.5264071477977711, 0.46515236983268454, -0.6369276304086833], [-0.017402066462959873, -0.8338588043155313, 0.7688272204066742, -0.31687254372988716], [0.9062848064460038, -0.6528684791744925, -0.14111365640919338, -0.4209404798380453], [-0.1869848987811812, -0.20999598990476076, -0.26981637816318155, -0.5557833858459955], [-0.6378286510679735, 0.3382125392664532, 0.8091071757472822, -0.745218346134661], [0.4825179287870741, -0.09470554190752611, 0.7365100303802286, -0.5074651220565435]]}