{"hidden_weights": [[-0.7661266570048562, -0.010740284900937272, -0.7974225934966069, 1.1323925221124116, -0.8930412785867127, 0.5207570006924617, -0.3179607352287307, 0.7518065965845695, -0.16608061917711503, 0.7710481458072802, -0.9557240622211076, -0.0008230563004686942], [0.05921332023660465, 0.08140876370492614, -0.09363000823061296, -0.924192413404332, 0.27253138994299003, 0.5457547227499535, 0.8370683561863128, -0.9509984964838558, -0.5958853614071469, -1.1750328542295025, 0.9817498053572971, -0.6926787454200247], [-0.24332120452531078, 0.6955315857654475, 0.27501930961369436, -0.3216431968713331, -0.8607540594540747, 0.697244946086397, -0.09571669487824894, 0.26844014468646593, 0.8231399416084902, -0.4498118745466469, 0.777782564680459, 0.5216849507696186], [-0.21264861487025438, -0.2747221898879866, 0.791005051184489, 1.0316633909506474, 0.38769145819312256, 0.7398668736873732, 0.3710355280519645, 0.215511395471421, -0.9143049243479033, 0.1051090828714002, -0.7017135747548173, -1.084554619737584], [-0.21967227292291444, 0.6277605122353416, 0.9130802995492113, -0.6939956901719495, 0.7025395237090483, -0.5854162569183233, -1.006781436136556, -0.971500271915833, -0.780312400084133, 0.807070693947483, 0.6206022617548725, 0.18237517055817554], [0.01444646675850467, 0.20946467593988186, -0.08080490434617182, -0.38287339429346023, -1.0105679743385552, -0.2581427318768934, 0.5181035848124955, -0.7759393737395591, -0.9307202690797669, 0.15026994775894242, -0.12114026452195491, -0.3387834626755425], [-0.20394135997877072, -0.667141904200039, -0.08817225940076345, 0.24988645145142496, 0.7254066067572991, -0.6387736683728413, -0.3462813382711796, 0.01138211781292292, -0.321759333051171, -0.2538090964044324, -0.785434939038949, 0.10283115118629774], [0.6741780429376308, 0.5851108093385374, 0.18897824924706497, 0.18157496579562132, 0.790956814773805, -0.27932168637739074, -0.13111911759707826, 0.7457574673921669, -0.5399479095953318, 0.7761927199912468, 0.47692126560189374, -0.6694749216633993]], "output_weights": [[0.04831338912455089, 0.6776967850372646, 0.0414580641948004, 1.0790961029210053], [0.24901509328303786, -0.77786270030667, 0.25691731756954095, -1.0482462672043444], [0.5196665459740438, -0.7042112279063475, 0.5519759177295737, 1.0575446798486514], [0.5434088342169014, -0.04968656644778045, -0.9703561289033726, 0.00940482894758854], [-0.5533530189576847, 0.8632052201865836, -0.6650153693385018, 0.4698718434376412], [-0.34878881884562873, -0.33560402548346513, 0.9517447310786509, -0.48728608347335245], [-0.4179047910111466, -0.49293613553780213, 0.5896053459417505, -0.6369276304086833], [-0.3460956556287961, -0.7412008385504789, 0.7727471196334191, -0.245656632871608], [0.8426079454789785, -0.8799580744141762, -0.04824070388968396, -0.7818736268673969], [0.002083215556531466, -0.20999598990476076, 0.0187787464208658, -0.5064941295495232], [-0.8195048303487483, 0.2003374080364455, 0.5933960247425988, -0.7413961792200836], [0.5124712689158959, -0.1037582572755646, 0.5809226593706697, -0.48146187674083674]]}