{"hidden_weights": [[-0.5859828774615083, 0.1743022298844824, -0.8943167459861431, 0.9679373531032134, -1.0555426930840646, 0.11170763756759987, -0.06631185190424846, 0.7633755988639365, -0.10680547109843187, 0.7743886471905885, -0.8884970104551033, 0.2120519469816936], [0.0832120254335574, 0.036131629595770556, 0.00848143808414327, -0.7941374407231209, 0.09829232025372298, 0.2095234905925188, 1.1055175976278897, -0.9799976399703373, -0.6748946055017825, -0.6112143894648585, 0.8670468708731598, -0.6463375908957247], [-0.34703899757308837, 0.6258434205904556, 0.23547510128868526, -0.3722796589428999, -0.6190480229184963, 0.5483080857458966, 0.2037735625915481, -0.49217428598814156, -0.5498580149392194, -0.1934472710788322, 1.025422061404102, -0.8331881369894214], [0.7070301769029366, -0.16823515338032247, 0.8951432443285036, 0.7599059585506545, 0.5563237530020592, -0.04076798951577888, 0.02591953467673902, 0.7118891330744395, -1.1168746157157263, -0.06200846860862441, -0.8300499315855061, -1.2119557077365348], [-0.2404962905108896, 0.6220606366547073, 0.676139884391566, -0.6939956901719495, 0.5695702732548734, -0.5281078118223208, -1.006781436136556, -0.6176486859143474, -0.7063342674228261, 0.7968087174825834, 0.5718237938734541, 0.14515355688845358], [-0.03615596813196853, 0.16634919527055092, -0.3072037916070864, -0.4963573812551774, -0.6667562103283344, -0.2690018292178957, 0.1466286153893413, -1.0026680340186456, -1.1381722121456674, 0.15026994775894242, -0.09847301666730476, -0.37140663311837385], [-0.1873486562459287, -0.667141904200039, -0.08817225940076345, 0.19660886280988354, 0.43787933147196423, -0.5627429525830352, -0.1929361908920247, -0.16463212143053607, -0.321759333051171, -0.383236476395945, -1.102048569000246, 0.3948947818779924], [0.7135935460574402, 0.5579423088396156, 0.1982319050827881, 0.3336724665804857, 0.6138168608007556, -0.32744598588478646, -0.03155778199466768, 0.5065108882613649, -0.5399479095953318, 0.8469975409041759, 0.6215116261724547, -0.6603110342732867]], "output_weights": [[-0.1982612680614423, 0.8985699639210725, 0.06470455653403095, 0.979136593563886], [0.15400023949088526, -1.0425562420563081, 0.15693153599641366, -0.8031503451524583], [0.07014950736227693, -0.24118424224071938, 0.610599781917534, 0.9023432985096265], [0.37206257688836064, -0.387247030245277, -1.1468977631987298, -0.07417983736312075], [-0.30141990534474333, 0.8691126960882741, -0.5645992160619343, 0.6523684861516498], [-0.5909030601857077, -0.41559953698036206, 0.8311128874113641, -0.3643506562792407], [-0.3067266974324084, -0.43453526412660304, 0.39763689300973115, -0.6283541723383677], [0.090824228949519, -0.5896041214271963, 0.7688272204066742, -0.31687254372988716], [0.5893950267354368, -0.6528684791744925, -0.05376572948864422, -0.4209404798380453], [0.026995551366702893, -0.3382541915437144, -0.08750894879987899, -0.603139233068557], [-0.7542912177754008, 0.38582745689159065, 0.7193221667022832, -0.7413961792200836], [0.6076000279041869, -0.14354352131563253, 0.43313330094217334, -0.6153185075244894]]}