{"hidden_weights": [[-0.5859828774615083, -0.08478605210795367, -1.3051299636644642, 0.9606120981776619, -1.244392223624386, 0.21967736043713162, -0.06631185190424846, 0.9183188064486438, 0.12742903019769353, 0.7323270938128874, -0.9093374341414987, 0.246435424131562], [0.017454782833826055, 0.0037754060190635444, -0.030668904524698712, -1.1084156764774162, 0.2195208888026852, 0.46800015194411176, 0.8894030265669326, -0.8770394877879906, -0.5797966442688962, -0.9196157365106585, 0.8670468708731598, -0.6954167742144327], [-0.7078502519641896, 0.6258434205904556, 0.23547510128868526, -0.5009216082870271, -0.9110055021306653, 0.5483080857458966, 0.2037735625915481, -0.49217428598814156, -0.3877151609513131, -0.21262310680735663, 1.025422061404102, -0.8331881369894214], [0.5415832480903631, -0.36882185169635434, 0.8951432443285036, 0.6888654896205714, 0.5606882363756434, -0.019930977940794216, 0.0700694258230302, 0.5061547884966576, -0.9143049243479033, 0.10556822998087545, -1.1674077506615512, -0.9173935242493699], [0.04100991776165397, 0.6277605122353416, 0.5364760338398192, -0.8607845780208604, 0.5829140316699601, -0.42136526237521843, -0.9009532933191912, -0.9164070067455682, -0.780312400084133, 0.9159428339656541, 0.5315413708620935, 0.16858310262315054], [0.0376079852832477, -0.2382732112214939, -0.11907112511458878, -0.5307792460887257, -0.909781359449712, -0.34746296257597664, 0.4873815753030475, -1.0026680340186456, -1.1278939743178453, 0.15026994775894242, -0.09847301666730476, -0.22964195883256122], [-0.5353223021053092, -0.9319828349642524, -0.3741557557934494, 0.22090119387107848, 0.7958957181498552, -0.4221992174762643, -0.38457432287469273, -0.12367999796165877, -0.29434755977734267, -0.023359744947453992, -0.785434939038949, 0.1432899341879141], [0.24912454982226537, 0.576246639838113, -0.3424333125191262, 0.24800281123502912, 0.609713247335693, -0.41906093293543767, 0.09595395125036041, 0.6017159287492947, -0.5399479095953318, 0.8469975409041759, 0.5996289567936108, -0.6603110342732867]], "output_weights": [[-0.02174738065279537, 0.8991044330190124, 0.19447358997110256, 1.047268588509685], [0.15400023949088526, -0.8484877394607021, 0.19851389732167404, -0.7893366940224346], [0.022579844552653744, -0.21528163124219013, 0.610599781917534, 0.8994289774689563], [0.11754403358127885, -0.387247030245277, -1.2024406075069567, -0.19182738149099854], [-0.4847874989674867, 0.8037823904519978, -0.516748342816285, 0.656238170716961], [-0.629051658940204, -0.41559953698036206, 0.8311128874113641, -0.31167756319672435], [-0.44020408349231327, -0.3938873787416481, 0.42137535091582873, -0.6283541723383677], [-0.3548398090132268, -0.619010828302162, 0.7688272204066742, -0.3073856974966544], [0.664932265230295, -0.45167512229423634, -0.03169890066533325, -0.5650867572997685], [-0.006620472730753413, -0.20999598990476076, 0.02398465665433966, -0.5208515978669377], [-0.7542912177754008, 0.38582745689159065, 0.6891207045248589, -0.6362622344839135], [0.1409533596454171, -0.14354352131563253, 0.43313330094217334, -0.7118663570873589]]}