{"hidden_weights": [[-0.6658009023552109, -0.3083023182520648, -1.1337167077020796, 1.017699893774242, -0.8766420473836712, 0.46874977454664224, -0.25053609541980193, 0.7518065965845695, -0.22709465668071838, 0.7356106806898827, -0.9992144269066137, 0.2120519469816936], [0.23507327549960239, 0.036131629595770556, -0.048743765714649355, -0.8222997651870165, 0.33694188423318355, 0.2095234905925188, 1.0971294015072859, -1.0428984198184508, -0.6716049774396762, -0.8948482559524382, 0.9762954007815631, -0.8462796319160504], [0.038602817198939515, 0.7744060911632075, 0.1654851998039346, -0.12288119975941277, -0.7378779149757138, 0.9597310099486338, 0.29262634183860614, -0.5578354719399261, -0.5498580149392194, 0.8884989531644856, 0.9963431609405263, -0.6671073506633678], [0.6530858836797582, -0.03695886369451551, 0.6854725751015935, 0.9004713699480502, 0.4147641204860301, -0.06336533351227591, 0.011963750198554474, 0.7118891330744395, -0.7415894876742325, 0.1800634742463585, -0.7017135747548173, -1.2119557077365348], [-0.2404962905108896, 0.6277605122353416, 0.9130802995492113, -0.6939956901719495, 0.5752998281235473, -0.5516981674084561, -0.8355048613110853, -0.9303967757271229, -0.7063342674228261, 0.8471802466782759, 0.6107112476081709, 0.16858310262315054], [0.0376079852832477, 0.07717140096222583, -0.10108413195951668, -0.2180764877005087, -0.9361377711418333, -0.2690018292178957, 0.8811882649453073, -0.8802758650408072, -0.9307202690797669, 0.15026994775894242, -0.06015858493310339, -0.38308090862572464], [-0.1912635240528728, -0.667141904200039, -0.08817225940076345, 0.15517036757415903, 0.6986609413873557, -0.47207083325450605, -0.2634360717104541, 0.0049005444446489615, -0.191468602175002, -0.259724222207476, -0.8032637245211509, 0.24787363177190702], [0.7753157168464561, 0.5117074811488799, 0.06359889237780192, 0.24800281123502912, 0.7080376248895343, -0.09123930181088535, -0.2294662463149506, 0.5881277066283823, -0.33685358844595925, 0.6782047392509349, 0.44669439973681196, -0.6694749216633993]], "output_weights": [[0.02359523220981896, 0.4849434971027597, 0.1709797177099303, 0.979136593563886], [0.26372483808857217, -0.8600341863157355, 0.12877622322572033, -1.2705574475864112], [0.4761601592109431, -0.2890059087529598, 0.520161887090855, 0.9716478616990886], [0.3888574652280621, -0.39106935933303905, -0.88754726913226, -0.007335785025423022], [-0.5533530189576847, 0.7681634363935469, -0.6468331820491637, 0.4698718434376412], [-0.46985952714866414, -0.41559953698036206, 0.8311128874113641, -0.3643506562792407], [-0.3067266974324084, -0.49293613553780213, 0.42137535091582873, -0.6369276304086833], [-0.28369296103007685, -0.5896041214271963, 0.7688272204066742, -0.31687254372988716], [0.7089614802329145, -0.6528684791744925, -0.05376572948864422, -0.4209404798380453], [0.026995551366702893, -0.3382541915437144, -0.08750894879987899, -0.603139233068557], [-0.7542912177754008, 0.16809100753706951, 0.7193221667022832, -0.6362622344839135], [0.3838526849601154, -0.1037582572755646, 0.5624635423156205, -0.5423200037821991]]}