{"hidden_weights": [[-0.5859828774615083, 0.18429356257274093, -0.8943167459861431, 0.9679373531032134, -1.0538565226938152, 0.11170763756759987, -0.06631185190424846, 1.0122742158235896, -0.10680547109843187, 0.8332553161468976, -0.8884970104551033, 0.2120519469816936], [0.0832120254335574, 0.036131629595770556, 0.00848143808414327, -0.7941374407231209, 0.09829232025372298, 0.2095234905925188, 1.1055175976278897, -0.9799976399703373, -0.6748946055017825, -0.6112143894648585, 0.8670468708731598, -0.6463375908957247], [-0.34703899757308837, 0.5644801923398635, 0.1654851998039346, -0.24206294496089392, -0.7378779149757138, 0.5335985471122442, 0.16986928018583214, 0.45384042892713616, 1.0006683218511705, -0.06068259589239533, 0.7430274150751599, 0.49959449018028607], [0.5415832480903631, -0.290108155437279, 0.8951432443285036, 0.6888654896205714, 0.45893139847649034, -0.019930977940794216, -0.08322344463109385, 0.7118891330744395, -0.9000907866700507, 0.16285855369071978, -0.9251573005292647, -1.200989970154587], [0.04100991776165397, 0.6277605122353416, 0.7795140551693865, -0.8607845780208604, 0.6768136294796341, -0.6584446163343948, -1.0867103167862129, -0.9164070067455682, -0.780312400084133, 1.1340249705706305, 0.6206022617548725, 0.0900366239996525], [-0.11566275498349905, -0.13450354935491896, -0.10108413195951668, -0.4207668953204089, -0.8081798415171677, -0.2690018292178957, 0.5378044339610976, -1.0565963517793606, -1.0697258204039641, 0.15026994775894242, -0.09847301666730476, -0.37140663311837385], [-0.1873486562459287, -0.4884336253946434, -0.08817225940076345, 0.19660886280988354, 0.43787933147196423, -0.6873506929495774, -0.16417756030462557, -0.16463212143053607, -0.321759333051171, -0.19719506164373343, -1.102048569000246, 0.3948947818779924], [0.8013585931046256, 0.576246639838113, -0.04327359283363813, 0.24800281123502912, 0.5213383257815767, -0.397752559230623, -0.03155778199466768, 0.6017159287492947, -0.5399479095953318, 0.705268914096889, 0.6229818582894291, -0.6701930343638226]], "output_weights": [[-0.20642959780118086, 0.8985699639210725, 0.06470455653403095, 0.979136593563886], [0.15400023949088526, -1.0560065517924035, 0.15693153599641366, -0.8435778664386084], [0.07014950736227693, -0.24118424224071938, 0.610599781917534, 0.9023432985096265], [0.10145846030365296, -0.387247030245277, -1.1468977631987298, -0.28014867926759957], [-0.30141990534474333, 0.8691126960882741, -0.5645992160619343, 0.6523684861516498], [-0.5909030601857077, -0.41559953698036206, 0.8311128874113641, -0.3643506562792407], [-0.3067266974324084, -0.49293613553780213, 0.42137535091582873, -0.6283541723383677], [-0.28369296103007685, -0.5896041214271963, 0.7688272204066742, -0.31687254372988716], [0.6837204964822764, -0.5843901645796649, -0.45411370362745407, -0.7002734033124569], [-0.010107821096830347, -0.3382541915437144, 0.026043630484515343, -0.5109183850594448], [-0.7542912177754008, 0.38582745689159065, 0.7193221667022832, -0.7413961792200836], [0.6076000279041869, -0.14354352131563253, 0.43313330094217334, -0.5423200037821991]]}