{"hidden_weights": [[-0.7304423727106861, -0.23682501586166693, -0.954679760423385, 1.0193938906402233, -0.8638068375751069, 0.47017564032555953, -0.29844062922324655, 0.899961520444514, -0.24174707124900371, 0.8476095777269512, -0.8615912829097659, 0.3075477398808401], [-0.07124820000991527, 0.04218857706397465, -0.07753434271538223, -1.012450479046102, 0.395702210856801, 0.25465869467853564, 1.0964887056330168, -1.146398205521332, -0.6716049774396762, -0.8948482559524382, 1.1923459561268677, -0.7281800839726896], [-0.34703899757308837, 0.6258434205904556, 0.23547510128868526, -0.3722796589428999, -0.670354205941422, 0.9463511075085006, 0.12188531172927401, 0.37138762133862335, 1.0006683218511705, -0.13451487354489533, 0.9429889231960297, -0.6671073506633678], [0.6530858836797582, -0.03695886369451551, 0.6854725751015935, 0.6888654896205714, 0.6119342673732041, -0.37216004240781986, -0.06307957854796656, 0.7118891330744395, -1.1254484116116776, 0.071999418023142, -0.9251573005292647, -1.1226426528370517], [-0.19338245059193382, 0.7168696204409893, 0.7795140551693865, -0.6809356615637265, 0.5378792988815327, -0.5643689585771298, -0.8608869566099486, -0.6176486859143474, -0.7063342674228261, 0.8165861124378553, 0.5718237938734541, 0.14515355688845358], [0.040919182676439445, 0.020613088091439302, 0.11272373963204918, -0.5054929928881677, -0.722082996631571, -0.2690018292178957, 0.5075554715523762, -1.0026680340186456, -1.1381722121456674, 0.15026994775894242, -0.09847301666730476, -0.37140663311837385], [-0.28225027753581644, -0.667141904200039, -0.23759915531440928, 0.35096257152624044, 0.7254066067572991, -0.5627429525830352, -0.38457432287469273, -0.16463212143053607, -0.321759333051171, -0.13802776472211753, -0.8032637245211509, 0.5914110083964498], [0.7753157168464561, 0.5117074811488799, 0.06359889237780192, 0.24800281123502912, 0.7080376248895343, -0.22741407369370056, -0.13490657549684176, 0.49230448157486006, -0.5399479095953318, 0.8500126813656247, 0.38202474218967514, -0.6694749216633993]], "output_weights": [[0.02359523220981896, 0.7574052410526034, 0.0414580641948004, 0.7727582797857934], [0.37314141729484684, -0.7419371421567755, 0.14852273048159792, -0.7972281172251091], [0.4598690726928676, -0.5367519015454192, 0.7590364972018894, 0.9023432985096265], [0.5407156496501377, -0.3097606236702154, -0.9031727768148083, -0.23307212666806698], [-0.5533530189576847, 0.6037501884564784, -0.5044962424054718, 0.5263425296920294], [-0.4445085756152765, -0.305806194871129, 0.9937179938078231, -0.6592731338944748], [-0.4359238067943192, -0.49293613553780213, 0.47330773045201435, -0.5800517079104233], [-0.3130809328561566, -0.7342322646991217, 0.5752858555615855, -0.18680194886204204], [0.8426079454789785, -0.7497120224398323, 0.05550031236999686, -0.8060860658660901], [-0.006620472730753413, -0.20999598990476076, -0.21634776248948734, -0.603139233068557], [-0.7542912177754008, 0.16809100753706951, 0.7193221667022832, -0.73425451940348], [0.3838526849601154, -0.1037582572755646, 0.5624635423156205, -0.5423200037821991]]}