{"hidden_weights": [[-0.6015479762809773, 0.10365550445366384, -1.0939583450687569, 1.017475705393555, -1.1193913642564246, 0.4385374722784574, -0.191176281185996, 0.6158900103185931, -0.023361301456099826, 0.7002783119518547, -0.9361582344665275, 0.16638736863428263], [-0.00037250370994290627, 0.0037754060190635444, 0.039541051685673095, -1.012450479046102, 0.345307198367646, 0.26297475913219803, 1.0321865977044804, -0.8770394877879906, -0.5809544102151822, -0.6112143894648585, 0.8670468708731598, -0.6954167742144327], [-0.7078502519641896, 0.6258434205904556, 0.23931893451204525, -0.5009216082870271, -0.9110055021306653, 0.5483080857458966, 0.3412261157003895, -0.49217428598814156, -0.4470653741249463, -0.21262310680735663, 1.025422061404102, -0.8331881369894214], [0.5415832480903631, -0.36882185169635434, 0.8951432443285036, 0.6888654896205714, 0.45893139847649034, -0.019930977940794216, 0.0700694258230302, 0.5061547884966576, -0.9143049243479033, 0.05013767052025683, -0.5845203442303397, -1.1427542555971095], [-0.306760121426809, 0.6277605122353416, 0.6253962720730656, -0.8348191002251417, 0.4931172920914199, -0.5495435067639964, -0.9501172310961573, -0.873976986598551, -0.780312400084133, 1.0457808839640048, 0.6447871966899851, 0.038955322703574866], [0.21939412889375948, 0.053369904725516004, -0.12693975795852258, -0.4309594516113399, -0.7800038766819761, -0.4808988751412149, 0.5378044339610976, -0.9800494948579115, -0.9745459927494815, 0.15026994775894242, -0.09847301666730476, -0.37140663311837385], [-0.4278162693966274, -0.6588742853839078, -0.11610438318473397, 0.19660886280988354, 0.43787933147196423, -0.539099369107917, -0.16417756030462557, 0.18623535675074876, -0.548424256022529, -0.07466926130370742, -0.7539717828153666, 0.17687108096019985], [1.0584610312493015, 0.576246639838113, 0.06340854698597717, 0.2128514142687557, 0.5966891832145402, -0.4485777645410213, -0.17740642769350934, 0.8171197547291347, -0.4842961693715016, 0.8753389818961024, 0.3427707579964927, -0.6714677104268052]], "output_weights": [[-0.046117133719740445, 0.8985699639210725, 0.07296961974786531, 0.8047997725244107], [0.15400023949088526, -1.0560065517924035, 0.15693153599641366, -0.8435778664386084], [0.07014950736227693, -0.24118424224071938, 0.45137202239221463, 0.9023432985096265], [0.19925894817127615, -0.37188888645896107, -1.1468977631987298, -0.28014867926759957], [-0.30141990534474333, 0.8861526155020372, -0.45183254903834075, 0.308220765321595], [-0.5369549798105547, -0.3162087526785411, 1.038592581900359, -0.3643506562792407], [-0.3067266974324084, -0.4381191366631162, 0.6981278085539637, -0.7721876021172912], [-0.017609057280245168, -0.5896041214271963, 0.9615377421438492, -0.4129685598491043], [0.6758094875857268, -0.7497120224398323, -0.0005692828070317374, -0.6807910021168574], [0.23636041661834292, -0.20999598990476076, -0.05245835458641816, -0.7101858777929584], [-0.6378286510679735, 0.2631841678413889, 0.8800363404129, -0.707782236260942], [0.3375055063005016, -0.06584057514335098, 0.5624635423156205, -0.5423200037821991]]}