{"hidden_weights": [[-0.45109523833886095, -0.008279094320286978, -0.6304583660188859, 0.871405289372426, -1.3593135775831293, 0.19713572471840357, 0.20039088556691853, 0.8114422377059725, -0.07185800778816853, 0.48030232965041675, -0.8884970104551033, 0.11304105086921618], [-0.00037250370994290627, 0.16238657087961764, 0.039541051685673095, -1.0641802294394833, 0.345307198367646, 0.2635488812407655, 1.0321865977044804, -0.8770394877879906, -0.5809544102151822, -0.6903346434646722, 0.8670468708731598, -0.6954167742144327], [-0.727311101800131, 0.611223314620271, 0.2135714187799686, -0.5617368463335505, -0.9110055021306653, 0.5483080857458966, 0.2037735625915481, -0.49217428598814156, -0.4470653741249463, -0.3179127866131862, 1.025422061404102, -0.8331881369894214], [0.5415832480903631, -0.36882185169635434, 0.8951432443285036, 0.6888654896205714, 0.45893139847649034, -0.019930977940794216, 0.029790570375480288, 0.5061547884966576, -0.9143049243479033, 0.16285855369071978, -0.7704539710539293, -1.0581100269753974], [-0.1402742528479581, 0.6277605122353416, 0.6253962720730656, -0.8607845780208604, 0.4931172920914199, -0.5495435067639964, -1.006781436136556, -0.873976986598551, -0.780312400084133, 1.0457808839640048, 0.5718237938734541, 0.038955322703574866], [0.21939412889375948, 0.053369904725516004, -0.12693975795852258, -0.4309594516113399, -0.7800038766819761, -0.2690018292178957, 0.5267479461538143, -1.0065641603771414, -0.8946205545109767, -0.006255991659625593, -0.16480204588546082, -0.35447215945886923], [-0.39999227039575813, -0.43926230698762425, -0.2573892976912753, 0.012200161193978862, 0.5757296762392253, -0.4561319158955088, -0.14734369951845996, 0.06269596845096383, -0.1472153013436521, -0.12413617735219372, -0.6997681945968772, 0.24831170450890316], [0.2599137013571574, 0.526242560712756, 0.04659068591382978, 0.24800281123502912, 0.5213383257815767, -0.2879490841811998, 0.038834569067845576, 0.020188739167980474, -0.8113700408077416, 1.08894233322631, 0.5561466668326995, -0.4550222755263802]], "output_weights": [[0.21975206251912296, 0.647995928532134, 0.20302491441730808, 1.026068692956943], [0.19280204414145571, -0.8137862561840337, 0.16226384110554823, -0.7245919725499601], [0.25550329980710695, -0.24118424224071938, 0.7289025955702226, 1.147082147045944], [0.4018869352197542, -0.427206788611401, -0.8489148575983982, 0.07676543464314975], [-0.20144068840707804, 0.9705872627130856, -0.38260076976322555, 0.7931609455074222], [-0.3196978778385362, -0.41559953698036206, 0.8311128874113641, -0.40251850871216327], [-0.5166608196271757, -0.32642264062987664, 0.19114188200679924, -0.7721876021172912], [-0.1069494953107861, -0.5896041214271963, 0.6752854667102678, -0.1977689508533504], [0.6715801288498169, -0.7497120224398323, -0.0005692828070317374, -0.7002734033124569], [-0.006620472730753413, -0.20999598990476076, 0.02398465665433966, -0.5208515978669377], [-0.7542912177754008, 0.38582745689159065, 0.65791054214303, -0.5553082274070603], [0.25450931247703934, -0.1037582572755646, 0.7365100303802286, -0.40424378403044703]]}