{"hidden_weights": [[-0.41750069915796345, 0.007356952018330115, -0.9371944389892206, 1.017475705393555, -1.1429908722233943, 0.323129905284005, -0.13223868993961685, 0.899961520444514, -0.30167578947601753, 0.6180712504524946, -0.9557240622211076, 0.19113892284952413], [0.08902619590386285, 0.08850657050687237, 0.00848143808414327, -0.7799612134610736, 0.32954222146930157, 0.17045200539425648, 0.9890368355886898, -1.0247970039545058, -0.6347429190778422, -0.9627259592976203, 0.4378102142465719, -0.6238916019576828], [-0.2998236636213346, 0.8451245849111556, 0.1654851998039346, -0.18676041139665245, -0.7378779149757138, 0.6458990330765265, 0.03666962494966039, -0.4935790632149939, -0.5498580149392194, 0.9287306981738075, 0.8550362005254621, -0.6495011504276486], [0.5983070425582704, -0.12903677237301803, 0.5751837753642698, 0.6556860393500965, 0.42121342671471784, -0.06336533351227591, -0.03864786174944168, 0.7118891330744395, -0.8202038503460625, 0.16285855369071978, -0.7017135747548173, -1.084554619737584], [0.09047344978008878, 0.6277605122353416, 0.7615035451408623, -0.3893181394052047, 0.5711225401291707, -0.5738261433394372, -1.006781436136556, -0.8976240848198496, -0.780312400084133, 0.807070693947483, 0.8264570804008247, 0.18237517055817554], [0.03320823426954851, 0.061460474292681644, -0.29040722349755776, -0.4207668953204089, -0.8514057785542146, -0.2690018292178957, 0.7354946808770737, -0.880522528001576, -1.000054437941256, 0.15026994775894242, -0.2830238773131531, -0.3033443260366431], [-0.6067602381896237, -0.6619175136469824, -0.08817225940076345, 0.275113414338776, 0.5893756065066416, -0.7060552903505977, -0.6129870562190478, -0.011398157899010351, -0.313122135495705, -0.1851734161983089, -0.785434939038949, 0.2975628021947811], [0.2890449023028647, 0.45565805724603053, -0.09515633420652511, 0.23988652503399382, 0.6598081405850261, -0.35270711856717807, -0.2294662463149506, 0.5881277066283823, -0.5399479095953318, 0.8469975409041759, 0.5506484904172071, -0.6603110342732867]], "output_weights": [[0.020170143563282433, 0.7210605867052117, 0.1709797177099303, 1.2778307967886462], [0.20458031148188427, -0.9015350877987632, 0.16226384110554823, -0.896178321590642], [0.5183377291102212, -0.24118424224071938, 0.6776409190383549, 0.9716478616990886], [0.49146779931146317, -0.3097606236702154, -1.0207581587044503, -0.007335785025423022], [-0.5533530189576847, 0.7681634363935469, -0.6468331820491637, 0.4698718434376412], [-0.46985952714866414, -0.41559953698036206, 0.8311128874113641, -0.3643506562792407], [-0.3067266974324084, -0.49293613553780213, 0.46515236983268454, -0.6369276304086833], [-0.1577550891522585, -0.7412008385504789, 0.7092565473139123, -0.245656632871608], [0.85949193817839, -0.6170049770109802, -0.3798402429505952, -0.6755832036213337], [-0.009810435786949658, -0.4234369732946987, 0.020464299207072024, -0.605794942085992], [-0.6369978595519993, 0.4505285769937945, 0.65791054214303, -0.7413961792200836], [0.4825179287870741, -0.1037582572755646, 0.5624635423156205, -0.5423200037821991]]}