{"hidden_weights": [[-0.4805706499981278, 0.007356952018330115, -0.9371944389892206, 1.017475705393555, -1.166577851949133, 0.4385374722784574, -0.13646755596411952, 0.8051199387620033, -0.23469370666520023, 0.6520662649418675, -0.9904980950960253, 0.16515852274138776], [0.07785044352676596, 0.08850657050687237, 0.00848143808414327, -0.7799612134610736, 0.41166926184067304, 0.17045200539425648, 0.9890368355886898, -0.9848185742523157, -0.6347429190778422, -0.9627259592976203, 0.4378102142465719, -0.6021725190805906], [-0.16395607152367903, 0.7744060911632075, 0.1654851998039346, -0.2314579617741736, -0.5854759823068025, 0.5796432861974683, 0.4010296562849489, -0.34650504884513694, -0.5783781620351877, 1.1246688785908847, 1.026782326830791, 0.49959449018028607], [0.5415832480903631, 0.00957593499725605, 0.5751837753642698, 0.6623452536709981, 0.42121342671471784, -0.10431138933433526, 0.026341358028746417, 0.30839898644571506, -0.7173878729977071, 0.14360349481195642, -0.6321649966388945, -1.084554619737584], [-0.23116213376233577, 0.6925521130919395, 0.9130802995492113, -0.8240765545838372, 0.5547918385346642, -0.6302567862577366, -1.094634044092773, -1.0850877249841036, -0.7063342674228261, 0.6694464943818325, 0.550955849571761, 0.08432528696948063], [0.1693108444812735, 0.03352102289293362, -0.10108413195951668, -0.42923473464196715, -0.9611089645990822, -0.2574631863852171, 0.8811882649453073, -0.880522528001576, -0.9307202690797669, 0.1413637062227964, -0.05533823366729841, -0.3033443260366431], [-0.47685071907112986, -0.7721087422364783, -0.2573892976912753, 0.15517036757415903, 0.7860286211562264, -0.5627429525830352, -0.38457432287469273, 0.0049005444446489615, -0.2516027073569138, -0.19719506164373343, -0.785434939038949, 0.04584987286257344], [0.8034760759999082, 0.576246639838113, 0.07776341893831722, 0.2128514142687557, 0.7080376248895343, -0.22741407369370056, -0.2294662463149506, 0.5881277066283823, -0.4842961693715016, 0.8469975409041759, 0.44669439973681196, -0.6694749216633993]], "output_weights": [[0.022473344244312944, 0.7210605867052117, 0.1709797177099303, 1.2778307967886462], [0.20458031148188427, -0.9015350877987632, 0.16226384110554823, -0.8750680150511984], [0.5183377291102212, 0.11905450374120508, 0.6776409190383549, 0.9716478616990886], [0.6273812655088602, -0.387247030245277, -0.88754726913226, -0.19182738149099854], [-0.43206393431488604, 0.6078279700490347, -0.6468331820491637, 0.4698718434376412], [-0.5369549798105547, -0.41559953698036206, 0.8311128874113641, -0.3643506562792407], [-0.3067266974324084, -0.5264071477977711, 0.46515236983268454, -0.6369276304086833], [-0.017402066462959873, -0.8338588043155313, 0.7688272204066742, -0.31687254372988716], [0.9062848064460038, -0.6528684791744925, -0.1561914326832784, -0.4209404798380453], [0.026995551366702893, -0.3382541915437144, 0.026043630484515343, -0.603139233068557], [-0.7154614945937972, 0.16809100753706951, 0.8139778229875347, -0.7023023019407458], [0.3838526849601154, -0.1037582572755646, 0.5624635423156205, -0.5423200037821991]]}