{"hidden_weights": [[-0.486048394492947, 0.007356952018330115, -0.9371944389892206, 1.0193938906402233, -0.9541306910138608, 0.46874977454664224, -0.4208956325870519, 0.9662548749926352, -0.22709465668071838, 0.7710481458072802, -0.9557240622211076, 0.10768121009761566], [0.009203759960046284, 0.034415864321592306, 0.07618700961219321, -0.911396265538405, 0.34220795181211294, 0.3825128204029098, 1.0971294015072859, -1.0428984198184508, -0.5191587513944154, -0.7657139295284363, 0.9817498053572971, -0.7584855200860241], [-0.04562346839671688, 0.7744060911632075, 0.1654851998039346, -0.29632140149404546, -0.7378779149757138, 0.697244946086397, 0.16986928018583214, 0.26511838124157827, 0.8231399416084902, -0.3526470805462897, 1.0284146086807002, 0.4030530355986529], [-0.22265069211962923, -0.283632438650814, 0.791005051184489, 0.8359260191214206, 0.38769145819312256, 0.5612603067804414, 0.4106680564149501, 0.1481878770467968, -0.6355753372308288, 0.377556406934274, -0.7017135747548173, -1.265636664985099], [-0.2404962905108896, 0.6277605122353416, 0.9130802995492113, -0.6939956901719495, 0.5547918385346642, -0.5738261433394372, -1.1132625982595357, -0.9830982338466685, -0.780312400084133, 0.730253268705468, 0.6206022617548725, 0.25569158913332235], [-0.07556088688872463, 0.0920681945471465, -0.10108413195951668, -0.42923473464196715, -0.9779700419364905, -0.3646510622686065, 0.5181035848124955, -0.6464608847968376, -0.9307202690797669, 0.18234245965569068, -0.013019781729008084, -0.3033443260366431], [-0.33755080361279066, -0.7596389514523942, -0.2822604966153296, 0.24988645145142496, 0.7233128531267776, -0.6053455753704169, -0.28798870484458783, 0.01138211781292292, -0.321759333051171, -0.13802776472211753, -0.9035560236340815, 0.24787363177190702], [0.7753157168464561, 0.7272894096448357, 0.0535401631981824, 0.4245820035228296, 0.6609424991857504, -0.40994874276643184, -0.08235114282415301, 0.5881277066283823, -0.7586378854011926, 0.6974724640571208, 0.4191831863589216, -0.6694749216633993]], "output_weights": [[0.22721167609344153, 0.6840188663150931, 0.1709797177099303, 0.979136593563886], [0.20458031148188427, -0.8600341863157355, 0.12877622322572033, -1.2705574475864112], [0.47041218617510794, -0.2883417310086226, 0.5686085490956723, 0.9716478616990886], [0.49146779931146317, -0.11809374368413589, -0.8918023101043423, 0.08377899916653547], [-0.5533530189576847, 1.0616120091647159, -0.6558968299772281, 0.40542201787198795], [-0.38832036226554495, -0.2529928422404123, 1.052927442693987, -0.4730799268950219], [-0.4359238067943192, -0.49293613553780213, -0.6815913693345366, 0.5722406213995309], [-0.26064704319515225, -0.6048414511856526, 0.7038249221180627, -0.31687254372988716], [0.8426079454789785, -0.5694329879469673, 0.15213230948762801, -0.6727155004858506], [-0.2397577735194957, -0.11586064573032967, -0.07266321727053153, -0.47523396629347253], [-0.6369978595519993, 0.47067756383314463, 0.65791054214303, -0.8577061544161497], [0.4825179287870741, -0.1037582572755646, 0.6087533293394805, -0.48146187674083674]]}