{"hidden_weights": [[-0.5204124957496705, -0.008279094320286978, -0.704546915675698, 0.7740569278431324, -1.3593135775831293, 0.19713572471840357, 0.14579676190800483, 0.8114422377059725, -0.07185800778816853, 0.48030232965041675, -0.7732313253449433, 0.246435424131562], [0.1733151031658562, 0.0037754060190635444, 0.08002651692717574, -1.0889359527640468, 0.5197704234947665, 0.3383571252168059, 0.9550604901237858, -0.8055386661914291, -0.6833780090248288, -1.1231740870085858, 1.0298759604573229, -0.6589393354169687], [-0.10059912985838881, 0.7235025206683469, 0.062228613899362586, -0.2449784522311081, -0.6447977580388436, 0.5572683317118241, 0.13763110697404238, 0.45841425900509486, -0.7225786737383711, 1.1246688785908847, 0.8655215538068831, 0.49959449018028607], [0.5415832480903631, 0.005147782093751857, 0.7830444648622851, 0.7236853938330895, 0.4633657539404804, 0.11344185181555297, -0.20414844178457714, 0.7118891330744395, -1.1168746157157263, 0.15605700212773863, -0.9786476165126465, -0.9660501826319409], [-0.18295315454491945, 0.7729268868752335, 0.9130802995492113, -0.8607845780208604, 0.6302131609489996, -0.5738261433394372, -0.9217563983369822, -1.551882994208614, -0.7449318336848662, 1.1855169963602719, 0.6537342278684781, 0.2571018797565958], [-0.06931881958865399, 0.03352102289293362, -0.026330608935346785, -0.46430105032042046, -0.9288063896685146, -0.3436448131715033, 0.6666753704766657, -0.9800494948579115, -1.1149575110636416, -0.11559045156722138, -0.06015858493310339, -0.5633871375539063], [-0.20394135997877072, -0.667141904200039, -0.20529110310954582, 0.06661924314227044, 0.8843441551554481, -0.36910016351573777, -0.38457432287469273, -0.12367999796165877, -0.29434755977734267, -0.07466926130370742, -0.8759390816692197, 0.24787363177190702], [0.2890449023028647, 0.27067048448205105, 0.04659068591382978, 0.2955996416736346, 0.6614037999436221, -0.32757866483257436, 0.14496030998801282, 0.579985499181731, -0.847200322421159, 0.9029627376385561, 0.5506484904172071, -0.6694749216633993]], "output_weights": [[0.20485549729957636, 0.647995928532134, 0.25974589512036333, 1.4407602112369453], [0.16457048058329354, -0.843912137312723, 0.0068922754702226766, -0.8691762855942204], [0.3594579699978634, -0.20147041521234518, 0.6683818938909574, 1.0022738117026875], [0.5007226163839227, -0.234677632597424, -0.8439196529166539, 0.06695056191494671], [-0.25057435716664284, 0.7674965349960056, -0.5645992160619343, 0.4698718434376412], [-0.5369549798105547, -0.3162087526785411, 1.038592581900359, -0.3643506562792407], [-0.3067266974324084, -0.4381191366631162, 0.6981278085539637, -0.5438070681780562], [-0.11953567496209991, -0.5905238243539103, 0.7688272204066742, -0.31687254372988716], [0.5654544453801289, -0.6039592292126639, -0.05376572948864422, -0.5141351800936413], [0.05528857437020272, -0.3382541915437144, -0.05245835458641816, -0.605794942085992], [-0.6378286510679735, 0.5274597076176673, 0.6985579867865002, -0.6931436174346439], [0.4917032323630792, -0.1037582572755646, 0.5244372929714005, -0.7815156591949706]]}