{"hidden_weights": [[-0.5758704130158959, -0.11681502191597112, -0.9709693456608766, 1.1323925221124116, -0.8930412785867127, 0.6443718887751761, -0.3179607352287307, 0.7518065965845695, -0.22709465668071838, 0.7356106806898827, -0.9992144269066137, 0.2120519469816936], [0.04586172475135042, 0.04887157952587236, -0.053259524701338226, -0.6515292217603678, 0.4502141030508273, 0.25465869467853564, 1.1631062511873054, -1.0392956935192017, -0.5958853614071469, -1.0084170468930274, 0.9817498053572971, -0.9662629977581378], [-0.10059912985838881, 0.5322060511071215, 0.1654851998039346, -0.12663265670047624, -0.7378779149757138, 0.697244946086397, 0.33139354392207554, 0.26511838124157827, 0.8231399416084902, -0.18712181587410773, 1.048915335834505, -0.8186469501343172], [0.676866171921061, -0.2051924333655371, 0.5853873783497091, 0.8446834080773269, 0.42121342671471784, 0.7398668736873732, 0.5792514582359107, 0.15593361725548277, -0.8132840725163601, 0.06932389798760512, -0.7017135747548173, -1.4285652527264792], [-0.2404962905108896, 0.6277605122353416, 0.9130802995492113, -0.6939956901719495, 0.5547918385346642, -0.5738261433394372, -1.038803368615593, -0.9830982338466685, -0.780312400084133, 0.730253268705468, 0.902636409177134, 0.17688900014071884], [0.17363217461647867, 0.061460474292681644, -0.10108413195951668, -0.42923473464196715, -1.0566171238770046, -0.5165278583212902, 0.37851502695609895, -0.6464608847968376, -0.9307202690797669, 0.3054231022596059, -0.06936443146372902, -0.3033443260366431], [-0.20394135997877072, -0.667141904200039, -0.08993339299845408, 0.5038788021623323, 0.7254066067572991, -0.6387736683728413, -0.38457432287469273, 0.11833650797197871, -0.24106702351134357, -0.28540872952272367, -0.785434939038949, 0.11267168743833295], [0.8034760759999082, 0.576246639838113, -0.1913303129851694, 0.4245820035228296, 0.6609424991857504, -0.40994874276643184, -0.08235114282415301, 0.5881277066283823, -0.5399479095953318, 0.7761927199912468, 0.4191831863589216, -0.6694749216633993]], "output_weights": [[-0.02648360525503296, 0.6998112102703584, 0.11647419233360015, 1.0282871429019513], [0.20458031148188427, -0.8316165870834903, 0.1146677761622818, -0.8275985786735855], [0.47041218617510794, -0.3656332117770713, 0.6863914638127888, 0.9305776192540077], [0.5239406524447922, -0.1384230593351952, -0.9892332156297785, 0.09946381280058253], [-0.583855242934072, 0.8657266906424216, -0.5330656715421072, 0.4698718434376412], [-0.4323331086235526, -0.416373377886608, 0.8840945233089798, -0.6006196959984921], [-0.4179047910111466, -0.5712539482921242, 0.4660022646694961, -0.6369276304086833], [-0.28369296103007685, -0.7412008385504789, 0.7092565473139123, -0.245656632871608], [0.8426079454789785, -0.8799580744141762, 0.05550031236999686, -0.7818736268673969], [-0.006620472730753413, -0.20999598990476076, 0.02398465665433966, -0.605794942085992], [-0.6369978595519993, 0.47067756383314463, 0.65791054214303, -0.6362622344839135], [0.4825179287870741, -0.1037582572755646, 0.6087533293394805, -0.48146187674083674]]}