{"hidden_weights": [[-0.3615459131324695, -0.0660931737011334, -0.9068353195950095, 0.8718525866593483, -1.2226098839493462, 0.08368895323798513, -0.06631185190424846, 0.8114422377059725, -0.10680547109843187, 0.4810142713925034, -0.9093374341414987, 0.24603721241802623], [-0.16591660196929794, 0.051805731833828916, -0.27526700027963713, -0.8932216692821937, 0.35343144905182755, 0.5114337015735948, 0.9075950794009631, -1.0428984198184508, -0.5824336770482705, -1.2243574030408977, 0.918887819373348, -0.6120164330854022], [-0.10059912985838881, 0.6460219187544998, 0.1654851998039346, -0.12250377985952207, -0.7378779149757138, 0.5445263614481859, 0.16986928018583214, 0.5647311606054494, 0.8876958436539929, -0.1863074539104378, 0.8646528805312877, -0.715912016674191], [0.5983070425582704, 0.20014209790862292, 0.5751837753642698, 0.7100030107640884, 0.41481932904390223, 0.18721604054561747, -0.03864786174944168, 0.8008835431224575, -0.9143049243479033, 0.045981330458504666, -0.7017135747548173, -1.0880247138114556], [0.0042576102834922525, 0.7835692910829675, 0.9130802995492113, -0.8607845780208604, 0.5570988882171617, -0.5738261433394372, -1.006781436136556, -0.9164070067455682, -0.780312400084133, 1.0363274083789642, 0.6206022617548725, 0.0900366239996525], [0.03320823426954851, -0.13450354935491896, -0.10108413195951668, -0.4207668953204089, -0.8081798415171677, -0.2690018292178957, 0.7354946808770737, -0.880522528001576, -0.8946205545109767, 0.07905659315820818, -0.05533823366729841, -0.2881043517050796], [-0.47685071907112986, -0.7883146104110863, -0.2573892976912753, 0.1139132650324978, 0.7860286211562264, -0.5627429525830352, -0.3462813382711796, 0.02886149817368909, -0.321759333051171, -0.2538090964044324, -0.785434939038949, 0.10283115118629774], [0.781402363435407, 0.7485121172075215, 0.26190360558460457, 0.14287252631197567, 0.7622505782550161, -0.243294169933181, -0.08235114282415301, 0.6709193729378936, -0.6418794209592813, 0.7532880137359635, 0.47692126560189374, -0.6694749216633993]], "output_weights": [[-0.2582542404206737, 0.7428823894625918, 0.25974589512036333, 1.087378878624057], [0.20458031148188427, -0.843912137312723, 0.004264081192177166, -0.8275985786735855], [0.3594579699978634, -0.20147041521234518, 0.6863914638127888, 1.0344319633003047], [0.5007226163839227, -0.234677632597424, -0.9495408905921721, 0.03882555423254812], [-0.6110340604270424, 0.7882726326406675, -0.7544384994172744, 0.4698718434376412], [-0.6657624238809313, -0.43277057393540574, 0.8311128874113641, -0.3643506562792407], [-0.3067266974324084, -0.49293613553780213, 0.46515236983268454, -0.6369276304086833], [-0.1577550891522585, -0.7412008385504789, 0.7092565473139123, -0.245656632871608], [0.8482416157020565, -0.7497120224398323, 0.05550031236999686, -0.7697612655468538], [-0.006620472730753413, -0.20999598990476076, 0.02398465665433966, -0.605794942085992], [-0.6378286510679735, 0.5450955140102159, 0.6985579867865002, -0.8021850399695623], [0.32909986136389807, -0.11956513966589344, 0.6087533293394805, -0.45899716087583003]]}