{"hidden_weights": [[-0.5817774588111473, 0.18429356257274093, -0.6638255688367903, 0.9679373531032134, -1.0538565226938152, 0.11170763756759987, -0.06631185190424846, 0.8185096720145391, -0.10680547109843187, 0.8332553161468976, -0.8884970104551033, 0.2120519469816936], [0.0832120254335574, 0.036131629595770556, 0.00848143808414327, -0.8499413424329233, 0.09829232025372298, 0.2095234905925188, 1.1055175976278897, -0.9799976399703373, -0.6748946055017825, -0.6638928835652949, 0.8670468708731598, -0.5827940419673785], [-0.34703899757308837, 0.5043261131668519, 0.23547510128868526, -0.5009216082870271, -0.6190480229184963, 0.6715853050721089, 0.2037735625915481, -0.49217428598814156, -0.4470653741249463, -0.1934472710788322, 0.8362648214618886, 0.49959449018028607], [0.6046019044975233, -0.36882185169635434, 0.8409882612304368, 0.6888654896205714, 0.45893139847649034, -0.019930977940794216, -0.08322344463109385, 0.5061547884966576, -0.9143049243479033, 0.16285855369071978, -1.1674077506615512, -1.1374478208772318], [0.04100991776165397, 0.6277605122353416, 0.7795140551693865, -0.8607845780208604, 0.5829140316699601, -0.6042082232780053, -0.9009532933191912, -0.9164070067455682, -0.780312400084133, 1.1340249705706305, 0.6206022617548725, 0.0900366239996525], [0.11572077272085715, 0.22526348196032958, -0.3072037916070864, -0.4207668953204089, -0.9357739558289444, -0.192858129025831, 0.8036218999834601, -0.9402312368219727, -0.8946205545109767, 0.07905659315820818, -0.26389909426205305, -0.2472712748098348], [-0.47685071907112986, -0.667141904200039, -0.08817225940076345, 0.19660886280988354, 0.43787933147196423, -0.5627429525830352, -0.294809050603674, -0.10235842280272545, -0.321759333051171, -0.19719506164373343, -0.9319104123866296, 0.2976283281398205], [0.3775051906712997, 0.576246639838113, -0.04327359283363813, 0.24800281123502912, 0.5213383257815767, -0.5157373793169062, -0.08235114282415301, 0.56805143172041, -0.4816658242837477, 0.872870947594761, 0.47692126560189374, -0.47765318557895076]], "output_weights": [[-0.18987057532706705, 0.8985699639210725, 0.1612191227991309, 1.1162375757124627], [0.024529473275961423, -1.0976545893626144, 0.17726629659548393, -0.911751743526232], [0.5658498614581765, -0.4834217780152905, 0.6643918263301148, 0.9023432985096265], [0.49146779931146317, -0.3544949821597239, -0.9349517981158887, -0.2405561460077051], [-0.4214472204077626, 0.8691126960882741, -0.6468331820491637, 0.4698718434376412], [-0.4889853101168906, -0.15164373210858328, 0.9914191443156243, -0.19311235802818022], [-0.3067266974324084, -0.43497857342592705, 0.42137535091582873, -0.6283541723383677], [-0.28369296103007685, -0.5896041214271963, 0.7688272204066742, -0.31687254372988716], [0.5893950267354368, -0.6528684791744925, 0.05550031236999686, -0.7818736268673969], [-0.14050150225210095, -0.3382541915437144, 0.026043630484515343, -0.603139233068557], [-0.7220605804291385, 0.16809100753706951, 0.6555899291128117, -0.6695568005873093], [0.3801820043459908, -0.044878314223299, 0.6087533293394805, -0.48146187674083674]]}