{"hidden_weights": [[-0.6730221580453151, -0.15711070853838954, -0.9371944389892206, 0.9679373531032134, -0.9541306910138608, 0.46874977454664224, -0.4110955784935566, 0.9662548749926352, -0.22709465668071838, 0.7710481458072802, -0.9557240622211076, 0.10768121009761566], [0.0732780706677941, 0.036131629595770556, 0.00848143808414327, -0.8094926202368855, 0.331146009335503, 0.25465869467853564, 0.9890368355886898, -1.0428984198184508, -0.5958853614071469, -0.9627259592976203, 0.9817498053572971, -0.7587156793027472], [-0.2926609005290712, 0.7744060911632075, 0.1654851998039346, -0.2314579617741736, -0.7378779149757138, 0.7790627064377593, 0.2600385960598584, -0.531110031319467, -0.45321986696830796, 0.761735167912392, 0.9902996385793625, -0.8186469501343172], [0.6436233948011737, -0.11664687786683592, 0.791005051184489, 0.7187690753483584, 0.38769145819312256, 0.6796449605167417, 0.5792514582359107, 0.1481878770467968, -0.9143049243479033, 0.14360349481195642, -0.7531811941483114, -1.0940769609333483], [-0.2404962905108896, 0.6277605122353416, 1.071272630353362, -0.6939956901719495, 0.4875938830921671, -0.5738261433394372, -1.006781436136556, -0.9011865453567889, -0.7063342674228261, 0.8157146990653051, 0.6206022617548725, 0.18237517055817554], [0.04221688157916903, 0.061460474292681644, -0.08080490434617182, -0.3260331436141683, -0.9779700419364905, -0.2690018292178957, 0.5181035848124955, -0.880522528001576, -0.9307202690797669, 0.15026994775894242, -0.013019781729008084, -0.3033443260366431], [-0.48115599047060786, -0.667141904200039, -0.08817225940076345, 0.24988645145142496, 0.7254066067572991, -0.6393352022974227, -0.38457432287469273, 0.01138211781292292, -0.24106702351134357, -0.24300851524647493, -0.785434939038949, 0.24787363177190702], [0.8034760759999082, 0.5478609174999339, 0.0535401631981824, 0.04276538294785173, 0.7614725698641147, -0.32744598588478646, -0.08235114282415301, 0.5881277066283823, -0.5399479095953318, 0.767073683298028, 0.44207377779252394, -0.6694749216633993]], "output_weights": [[-0.15919124948569616, 0.6998112102703584, 0.2399520059569664, 0.979136593563886], [0.20458031148188427, -0.8600341863157355, 0.14852273048159792, -1.0421635458275187], [0.4007248065454049, -0.42442885935550545, 0.6863914638127888, 0.9023432985096265], [0.4566181007539043, -0.13950148894320025, -0.968666411926663, 0.00940482894758854], [-0.5533530189576847, 0.8632052201865836, -0.5044962424054718, 0.34701846458289237], [-0.44758169458439695, -0.33560402548346513, 0.938078128157275, -0.4730799268950219], [-0.4359238067943192, -0.49293613553780213, 0.6394665000743657, -0.688532556107377], [-0.28648089810903765, -0.691235417366437, 0.950997166492872, -0.31687254372988716], [0.9182581947684232, -0.5463643477196557, 0.2715019242866393, -0.8109985744247186], [0.002083215556531466, -0.20999598990476076, -0.023303580865415813, -0.7381475216025772], [-0.6369978595519993, 0.38228390725322337, 0.65791054214303, -0.7413961792200836], [0.3838526849601154, -0.1037582572755646, 0.6087533293394805, -0.42331702125097465]]}