{"hidden_weights": [[-0.8271659903186274, -0.23682501586166693, -0.9462941720989018, 1.0302952992517838, -1.192370921322996, 0.4370283457175731, -0.06631185190424846, 0.899961520444514, -0.24174707124900371, 0.7743886471905885, -0.8811411221853611, 0.3075477398808401], [0.0019382850792352135, 0.051805731833828916, -0.050981188254831535, -0.7486147537289052, 0.331146009335503, 0.25465869467853564, 0.9577155312012179, -0.8186854981173063, -0.5958853614071469, -1.1232500547143354, 0.9817498053572971, -0.6589393354169687], [-0.10059912985838881, 0.7523765806290913, 0.1654851998039346, -0.24206294496089392, -0.7378779149757138, 0.697244946086397, 0.16986928018583214, -0.5282344657533308, -0.6883274570226692, -0.1934472710788322, 1.048915335834505, -0.8186469501343172], [0.6810227177880116, -0.2051924333655371, 0.6950993769928788, 0.8446834080773269, 0.42121342671471784, 0.7398668736873732, 0.5792514582359107, 0.2244548714777526, -0.9143049243479033, 0.06932389798760512, -0.7017135747548173, -1.265636664985099], [-0.2404962905108896, 0.6277605122353416, 0.9130802995492113, -0.8029990537710914, 0.5547918385346642, -0.5738261433394372, -1.006781436136556, -0.9830982338466685, -0.780312400084133, 0.730253268705468, 0.6206022617548725, 0.18237517055817554], [0.03320823426954851, 0.061460474292681644, -0.10108413195951668, -0.42923473464196715, -0.8514057785542146, -0.2690018292178957, 0.5860702901965323, -0.880522528001576, -0.9901764486975193, 0.17295039516508115, -0.013019781729008084, -0.4393268534372057], [-0.3104114574535129, -0.8302768483791227, -0.2822604966153296, 0.2717150749130604, 0.7254066067572991, -0.7060552903505977, -0.38457432287469273, -0.1006576253156816, -0.20444979247840167, -0.34789319703608507, -0.785434939038949, 0.4025253253126928], [0.8034760759999082, 0.5478609174999339, 0.06359889237780192, 0.24800281123502912, 0.7614725698641147, -0.3400294118599274, 0.053544406763336896, 0.6374886986439061, -0.5773300010961593, 0.8851117368969935, 0.47692126560189374, -0.5902199627487548]], "output_weights": [[0.02359523220981896, 0.7574052410526034, -0.019120547339995644, 0.979136593563886], [0.20458031148188427, -0.9122506359893477, 0.14852273048159792, -0.8275985786735855], [0.47041218617510794, -0.42442885935550545, 0.6863914638127888, 0.9716478616990886], [0.4566181007539043, -0.1384230593351952, -0.9892332156297785, 0.00940482894758854], [-0.5533530189576847, 0.8632052201865836, -0.6650153693385018, 0.4698718434376412], [-0.34878881884562873, -0.33560402548346513, 0.938078128157275, -0.4730799268950219], [-0.4359238067943192, -0.49293613553780213, 0.6151040431678585, -0.6205137017075097], [-0.28648089810903765, -0.6955021365114926, 0.8362632079403871, -0.31687254372988716], [1.1410127935496384, -0.7502580906904978, 0.05550031236999686, -0.7818736268673969], [-0.006620472730753413, -0.20999598990476076, -0.23386054394442396, -0.603139233068557], [-0.5345265740540472, 0.47067756383314463, 0.6805969691772975, -0.8468762720263247], [0.3838526849601154, -0.1037582572755646, 0.6087533293394805, -0.48146187674083674]]}