{"hidden_weights": [[-0.8271659903186274, -0.23682501586166693, -0.9462941720989018, 0.9679373531032134, -1.192370921322996, 0.46874977454664224, -0.21337069126774044, 0.899961520444514, -0.24174707124900371, 0.7710481458072802, -0.8714843606086289, 0.32594419861074164], [-0.06363601893895286, 0.08140876370492614, -0.10722925427352226, -0.9606015129226237, 0.4704080612451961, 0.569370772643595, 0.8314218331474514, -0.9509984964838558, -0.5958853614071469, -1.040945563773019, 0.9817498053572971, -0.7587156793027472], [-0.2926609005290712, 0.7841450395846222, 0.1654851998039346, -0.2314579617741736, -0.7378779149757138, 0.697244946086397, -0.07424779448616964, -0.7232396771865697, -0.5498580149392194, 0.9867666632789177, 0.8063257494760127, -0.6671073506633678], [0.5983070425582704, -0.033317480290620226, 0.7003123027833421, 0.7100030107640884, 0.42121342671471784, -0.15004183937529114, -0.03864786174944168, 0.7118891330744395, -0.9143049243479033, 0.24431707129382804, -0.4438364368161529, -1.0823971695779322], [-0.2404962905108896, 0.6277605122353416, 0.9130802995492113, -0.6939956901719495, 0.5244155509913391, -0.601119259215186, -0.8626919616356815, -0.9175812791257975, -0.7063342674228261, 0.8630939726055493, 0.6495142484144972, 0.15435673738030997], [0.04057211747514436, 0.061460474292681644, -0.06732779006953005, -0.42923473464196715, -0.9866924460927463, -0.2581427318768934, 0.5181035848124955, -0.9936936624370742, -1.0112945678790533, 0.1772112725399988, -0.12114026452195491, -0.3033443260366431], [-0.20394135997877072, -0.745675729674074, -0.2822604966153296, 0.24988645145142496, 0.6832946000528218, -0.6393352022974227, -0.38457432287469273, 0.01138211781292292, -0.3280936309394051, -0.37950849787665264, -0.878674571601006, 0.10283115118629774], [0.5558173699240717, 0.7366024215771554, 0.06359889237780192, 0.24800281123502912, 0.7899045454100737, -0.40994874276643184, -0.08235114282415301, 0.5297071608190997, -0.5399479095953318, 0.7684457816114569, 0.5017385128349364, -0.6694749216633993]], "output_weights": [[0.02359523220981896, 0.7574052410526034, -0.026200500174510255, 0.979136593563886], [0.20458031148188427, -0.7419371421567755, 0.14852273048159792, -0.8275985786735855], [0.47041218617510794, -0.2567335535843123, 0.6863914638127888, 0.9461839626262935], [0.4566181007539043, -0.11300523458068429, -0.9703561289033726, -0.07325098167163144], [-0.5533530189576847, 0.8632052201865836, -0.5044962424054718, 0.4698718434376412], [-0.5020076337562537, -0.33560402548346513, 0.938078128157275, -0.6592731338944748], [-0.4359238067943192, -0.5142054967693739, 0.6151040431678585, -0.3184168772272812], [-0.28648089810903765, -0.5596000482866701, 0.8475268829296261, -0.31687254372988716], [0.8426079454789785, -0.6170049770109802, -0.1561914326832784, -0.5673541259193987], [0.026995551366702893, -0.4234369732946987, -0.01899830598731085, -0.603139233068557], [-0.6369978595519993, 0.47067756383314463, 0.7905613202115055, -0.7413961792200836], [0.49186345410227694, 0.007575420105239136, 0.41098577578212664, -0.5346646475568232]]}