{"hidden_weights": [[-0.5859828774615083, 0.18429356257274093, -0.699491648997962, 0.9679373531032134, -1.0538565226938152, 0.11170763756759987, -0.06631185190424846, 0.8185096720145391, -0.10680547109843187, 0.8332553161468976, -0.8884970104551033, 0.3355175607855041], [0.1733151031658562, 0.0037754060190635444, 0.08002651692717574, -1.0554936668062107, 0.5197704234947665, 0.3383571252168059, 0.9550604901237858, -0.8055386661914291, -0.6833780090248288, -0.6638928835652949, 0.8670468708731598, -0.5827940419673785], [-0.295862620169315, 0.49518063853997885, 0.23547510128868526, -0.5892745704920557, -0.6190480229184963, 0.5483080857458966, 0.2037735625915481, -0.49217428598814156, -0.4470653741249463, -0.1934472710788322, 0.8362648214618886, 0.49959449018028607], [0.47893663128733166, -0.41934054749808314, 0.8409882612304368, 0.6888654896205714, 0.4491297431922228, -0.019930977940794216, -0.08322344463109385, 0.5101394191660086, -0.9143049243479033, 0.16285855369071978, -1.1674077506615512, -1.1374478208772318], [0.04100991776165397, 0.6277605122353416, 0.7795140551693865, -0.8607845780208604, 0.5228429422483332, -0.6042082232780053, -0.9009532933191912, -0.9133781818263328, -0.780312400084133, 1.1066572851419065, 0.6206022617548725, 0.0900366239996525], [0.04436263892447139, -0.13450354935491896, -0.10108413195951668, -0.4207668953204089, -0.8081798415171677, -0.2690018292178957, 0.883811035764358, -0.9539310975265286, -0.9895641502835705, -0.006255991659625593, -0.21070338891130863, -0.3760113541334682], [-0.47685071907112986, -0.9286778470369886, -0.10862474316998384, -0.08876081468692738, 0.9983792575345268, -0.4447151626457304, -0.16464568858569584, 0.1760906105070925, -0.313122135495705, -0.1481019296080434, -0.7478370020953714, 0.30175912056066595], [0.3775051906712997, 0.6389121733906493, -0.04327359283363813, 0.3475935428325133, 0.5213383257815767, -0.5157373793169062, -0.08235114282415301, 0.46703976703360717, -0.4816658242837477, 0.8347642646926482, 0.24323178983101346, -0.7017734434450582]], "output_weights": [[-0.20642959780118086, 0.8985699639210725, 0.06470455653403095, 0.979136593563886], [0.15400023949088526, -1.0560065517924035, 0.23130349172027032, -0.8435778664386084], [0.07014950736227693, -0.24118424224071938, 0.610599781917534, 0.9023432985096265], [0.33385696370992984, -0.387247030245277, -1.1468977631987298, 0.008629348998411612], [-0.30141990534474333, 0.8691126960882741, -0.5044962424054718, 0.47861472049447495], [-0.34879940222838135, -0.13159359466271167, 1.0281750836396966, -0.3643506562792407], [-0.3067266974324084, -0.6180450305882419, 0.47330773045201435, -0.4511886495024353], [-0.34535701196043456, -0.5558303580444857, 0.8277532418575748, -0.32454660111578415], [0.6837204964822764, -0.6528684791744925, 0.08877439468002056, -0.7818736268673969], [-0.11265607828254166, -0.38221868794545205, -0.06932815949597446, -0.7007423152295111], [-0.7220605804291385, 0.3642125557390804, 0.5722952266125854, -0.7334707229228161], [0.10371980191940658, 0.0068457017790889, 0.6087533293394805, -0.45899716087583003]]}