{"hidden_weights": [[-0.44494096355820445, 0.04643906979305717, -0.7925037131987704, 1.2057955387268986, -1.441327734720521, 0.2511949338677787, -0.27680024308032347, 0.6023330632689274, -0.2630485420788686, 0.6937662407421907, -0.8884970104551033, 0.2120519469816936], [0.0832120254335574, 0.021235502404712746, 0.00848143808414327, -0.7941374407231209, 0.2595568205132842, 0.27462698271283925, 1.1055175976278897, -0.9799976399703373, -0.6748946055017825, -0.6112143894648585, 0.6735840291772653, -0.6463375908957247], [-0.34703899757308837, 0.6258434205904556, -0.01909974495718647, -0.3722796589428999, -0.5579702923601723, 0.6607559017193347, 0.11695551639121404, 0.45384042892713616, 1.0006683218511705, -0.06068259589239533, 0.8362648214618886, 0.49959449018028607], [0.5415832480903631, -0.25408298858757833, 0.7809598004262003, 0.6888654896205714, 0.6330086476817884, -0.019930977940794216, -0.25709211930928844, 0.4948033157391747, -0.9143049243479033, 0.09098097498526315, -0.9030889003477226, -1.200989970154587], [0.04100991776165397, 0.41355767327580395, 0.7795140551693865, -1.1665989167482171, 0.5331643941582769, -0.6584446163343948, -0.9744658395634341, -0.9164070067455682, -0.670024234343109, 1.0937195234096135, 0.632585569763686, 0.0900366239996525], [0.07302498985252126, -0.25394407952868747, -0.05263046051767652, -0.5417836843082147, -0.8081798415171677, -0.4912945589725637, 0.5378044339610976, -0.9800494948579115, -0.9988050345888265, 0.15026994775894242, -0.09847301666730476, -0.37140663311837385], [-0.36443265581440865, -0.6588742853839078, -0.2077402883925823, 0.012200161193978862, 0.7254066067572991, -0.4221992174762643, -0.38457432287469273, -0.12367999796165877, -0.29434755977734267, -0.20303147882096662, -0.785434939038949, 0.24787363177190702], [0.2890449023028647, 0.4441326960004365, 0.04659068591382978, 0.327521989950147, 0.5610913474309137, -0.32989201861002215, 0.14496030998801282, 0.579985499181731, -0.847200322421159, 0.9029627376385561, 0.5506484904172071, -0.47765318557895076]], "output_weights": [[0.28047248259140883, 0.8049435623121474, 0.179055357356689, 1.4683145723749633], [0.32622344603061937, -0.8798750485833752, 0.004686431033253488, -0.8275985786735855], [0.3594579699978634, -0.20147041521234518, 0.6912423198439641, 1.0344319633003047], [0.5007226163839227, -0.33212638816621726, -0.9892332156297785, 0.11854510264300133], [-0.30141990534474333, 0.8691126960882741, -0.5645992160619343, 0.4698718434376412], [-0.5369549798105547, -0.3162087526785411, 0.8311128874113641, -0.3643506562792407], [-0.4211396230432728, -0.28559442972751037, 0.3332833706681751, -0.7721876021172912], [-0.017609057280245168, -0.5896041214271963, 0.8230562118441241, -0.2942914207073729], [0.6715801288498169, -0.8497181322807565, -0.0005692828070317374, -0.7002734033124569], [-0.006620472730753413, -0.20999598990476076, -0.01820537613948789, -0.605794942085992], [-0.7753365550534936, 0.5274597076176673, 0.6758758179114349, -0.6695568005873093], [0.3801820043459908, -0.09421388115114063, 0.6087533293394805, -0.48146187674083674]]}