{"hidden_weights": [[-0.5859828774615083, 0.18429356257274093, -0.8943167459861431, 0.9679373531032134, -1.0538565226938152, 0.11170763756759987, -0.06631185190424846, 0.8185096720145391, -0.10680547109843187, 0.8332553161468976, -0.8884970104551033, 0.2120519469816936], [0.0832120254335574, 0.036131629595770556, 0.00848143808414327, -0.8499413424329233, 0.09829232025372298, 0.2095234905925188, 1.1055175976278897, -0.9799976399703373, -0.6748946055017825, -0.6112143894648585, 0.8670468708731598, -0.5827940419673785], [-0.34703899757308837, 0.6258434205904556, 0.23547510128868526, -0.5009216082870271, -0.6190480229184963, 0.5483080857458966, 0.2037735625915481, -0.49217428598814156, -0.4470653741249463, -0.1934472710788322, 0.9977851099886463, -0.8331881369894214], [0.7070301769029366, -0.47692934927702596, 0.8951432443285036, 0.6888654896205714, 0.45893139847649034, -0.019930977940794216, -0.18653355628955012, 0.5061547884966576, -0.9143049243479033, 0.16285855369071978, -0.9251573005292647, -1.200989970154587], [0.04100991776165397, 0.6277605122353416, 0.7795140551693865, -0.7791827710608853, 0.5735847188285873, -0.6584446163343948, -1.006781436136556, -0.9164070067455682, -0.780312400084133, 1.3488258907603712, 0.6206022617548725, 0.0900366239996525], [0.03320823426954851, -0.17201451969081907, -0.04110519488036827, -0.4207668953204089, -0.7732724696642063, -0.47337853055273493, 0.5378044339610976, -0.9800494948579115, -1.0042340275986161, 0.15026994775894242, -0.09847301666730476, -0.37140663311837385], [-0.4836434881103989, -0.5834808965397043, -0.08248369977029715, 0.32922560212597873, 0.5136953000046681, -0.6873506929495774, -0.15967300581993538, -0.11493193110599749, -0.321759333051171, -0.2834184456314165, -1.102048569000246, 0.3948947818779924], [0.7135935460574402, 0.5579423088396156, 0.1982319050827881, 0.4240508240681714, 0.6138168608007556, -0.32744598588478646, -0.03155778199466768, 0.6017159287492947, -0.5399479095953318, 0.8469975409041759, 0.6229818582894291, -0.6603110342732867]], "output_weights": [[-0.18987057532706705, 0.8985699639210725, 0.06470455653403095, 1.1162375757124627], [0.006070649971975678, -1.0976545893626144, 0.17726629659548393, -0.911751743526232], [0.3594579699978634, -0.20147041521234518, 0.544029065909034, 1.0344319633003047], [0.5806040832740733, -0.234677632597424, -0.9495408905921721, -0.07417983736312075], [-0.21685942655078044, 0.8691126960882741, -0.5996436490757358, 0.579442393225621], [-0.45645704438342877, -0.41559953698036206, 0.8311128874113641, -0.3643506562792407], [-0.3067266974324084, -0.49293613553780213, 0.42137535091582873, -0.6283541723383677], [-0.22942930751785293, -0.5314084353724475, 0.7244980972430973, -0.4258962029767968], [0.5893950267354368, -0.6528684791744925, -0.05376572948864422, -0.5425091855264985], [0.026995551366702893, -0.3382541915437144, -0.08750894879987899, -0.476776975882713], [-0.7542912177754008, 0.38582745689159065, 0.6268989083452812, -0.7413961792200836], [0.6076000279041869, -0.188368778554827, 0.43313330094217334, -0.5423200037821991]]}