{"hidden_weights": [[-0.44494096355820445, 0.08391405651655894, -0.7925037131987704, 1.2057955387268986, -1.3130879086913154, 0.2511949338677787, -0.16295007580664736, 0.6645757052341297, 0.09925320475909057, 0.6820145641863625, -0.8423137608149942, 0.5167203150328765], [0.0003132903174296528, -0.024151410210184063, -0.044691316791288974, -0.5618153607546, 0.489738256041095, 0.48823889096615963, 0.8739098589170461, -0.6404966621774136, -0.6543547636107201, -1.10736550329472, 0.9817498053572971, -0.6463375908957247], [-0.34703899757308837, 0.6258434205904556, 0.23547510128868526, -0.3722796589428999, -0.6190480229184963, 0.5483080857458966, 0.2037735625915481, -0.6428973052292963, -0.5498580149392194, -0.1934472710788322, 1.025422061404102, -0.8331881369894214], [0.806378585219232, -0.16823515338032247, 0.9124670739547557, 0.6008141187349623, 0.5563237530020592, -0.08737005467958735, 0.02591953467673902, 0.7118891330744395, -1.0402812697286692, 0.07867993676179752, -0.9251573005292647, -1.206672264613067], [-0.2404962905108896, 0.6220606366547073, 0.676139884391566, -0.6939956901719495, 0.5695702732548734, -0.5607484885452501, -1.006781436136556, -0.6176486859143474, -0.7063342674228261, 0.7968087174825834, 0.5718237938734541, 0.2699835332520406], [-0.06007879414886609, 0.273705909114627, -0.3072037916070864, -0.47690278894020893, -0.6643161589109996, -0.30950491196120167, 0.4177055985873721, -1.0026680340186456, -1.1381722121456674, 0.2815652653380045, -0.1652303334388765, -0.6009480215665408], [-0.45162007663436365, -0.7883146104110863, -0.08817225940076345, 0.19660886280988354, 0.8067114632413137, -0.3181146326775026, -0.6171335805395791, -0.036071309866053725, -0.3727903812833046, 0.08677785833933471, -0.8032637245211509, 0.3189795749479098], [0.7531791199754186, 0.5117074811488799, 0.15268993707148706, 0.24800281123502912, 0.7614725698641147, -0.32757866483257436, -0.10805307136503886, 0.672977825056341, -0.5399479095953318, 0.8437161010679157, 0.5506484904172071, -0.6694749216633993]], "output_weights": [[0.18180550851319935, 0.8985699639210725, 0.06470455653403095, 0.979136593563886], [0.15400023949088526, -1.0560065517924035, 0.15693153599641366, -0.8272339360824313], [0.07014950736227693, 0.03290149280213105, 0.610599781917534, 0.9023432985096265], [0.37206257688836064, -0.387247030245277, -1.1468977631987298, -0.28014867926759957], [-0.13405013170269459, 0.9340627380275376, -0.5645992160619343, 0.6523684861516498], [-0.5909030601857077, -0.41559953698036206, 0.8311128874113641, -0.3643506562792407], [-0.3067266974324084, -0.7078378440903216, 0.42137535091582873, -0.6283541723383677], [-0.28369296103007685, -0.5896041214271963, 0.7688272204066742, -0.31687254372988716], [0.6837204964822764, -0.7497120224398323, -0.10179684368684738, -0.7002734033124569], [0.024390745714111144, -0.20999598990476076, 0.02398465665433966, -0.605794942085992], [-0.7220605804291385, 0.16809100753706951, 0.7193221667022832, -0.6823664133916941], [0.2502783562878007, -0.044878314223299, 0.5244372929714005, -0.6612970240805291]]}