{"hidden_weights": [[-0.5723441487387079, 0.16690905624346825, -0.9459233339152607, 0.9475798036079814, -1.1748657533565439, 0.12332757893283895, -0.06631185190424846, 0.6104376135514307, -0.09167563708314863, 0.5665738049493851, -0.8884970104551033, 0.2120519469816936], [0.0832120254335574, 0.17026384777963188, 0.00848143808414327, -0.7941374407231209, 0.09829232025372298, 0.2095234905925188, 1.1055175976278897, -0.9799976399703373, -0.6748946055017825, -0.6613839322868743, 0.8670468708731598, -0.6892276973012073], [-0.34703899757308837, 0.6258434205904556, 0.23547510128868526, -0.46438119749094553, -0.6190480229184963, 0.37406224360775764, 0.2037735625915481, -0.3309259198842106, -0.44470737292322043, -0.3432344325921647, 0.9657658841423655, -0.8331881369894214], [0.741538649716698, -0.32591320065829243, 0.9347964301227188, 0.7599059585506545, 0.5464949308791817, -0.04156894887429101, 0.02591953467673902, 0.7118891330744395, -1.1168746157157263, -0.06200846860862441, -1.1674077506615512, -1.1374478208772318], [0.04100991776165397, 0.6277605122353416, 0.7795140551693865, -0.8607845780208604, 0.6800591716152045, -0.6042082232780053, -0.9009532933191912, -0.9164070067455682, -0.8167861682606085, 0.8607492432148675, 0.46509194208139726, 0.16858310262315054], [0.06012259759574199, -0.25927620392509426, -0.2809852000152757, -0.4207668953204089, -0.9812044248058713, -0.24012761896602458, 0.44627959759999547, -1.0026680340186456, -1.1278939743178453, 0.11116700415474871, -0.09847301666730476, -0.22964195883256122], [-0.5353223021053092, -0.6588742853839078, -0.08817225940076345, 0.14801099446286384, 0.43787933147196423, -0.6873506929495774, -0.16417756030462557, -0.27299450386779034, -0.41722440187537346, -0.24462443870670836, -1.102048569000246, 0.39309566053675704], [0.4486994836697487, 0.526242560712756, 0.04659068591382978, 0.3778416967752701, 0.5617681618226905, -0.38222203089846757, -0.08235114282415301, 0.25614678983899364, -0.4816658242837477, 1.0227043349409097, 0.43734520184764897, -0.47765318557895076]], "output_weights": [[-0.122812801492406, 0.8985699639210725, 0.06074369502776483, 0.8804881913491236], [0.16457048058329354, -0.7847491685414673, 0.0068922754702226766, -0.8691762855942204], [0.3594579699978634, -0.24869730921259128, 0.5045877213654816, 0.9023432985096265], [0.19925894817127615, -0.4131287413485065, -1.1584509016723363, -0.28014867926759957], [-0.30141990534474333, 0.8691126960882741, -0.4899104792919794, 0.6248345826084017], [-0.27676276678940404, -0.41559953698036206, 0.8311128874113641, -0.3643506562792407], [-0.35246419213715036, -0.29569468331552573, 0.6152362433346826, -0.7136028576469918], [-0.10498170868021865, -0.5625280113326243, 0.6243736231775859, -0.1977689508533504], [0.6070903988962167, -0.7699373526354379, -0.0005692828070317374, -0.7147735042400364], [-0.006620472730753413, -0.20999598990476076, 0.02398465665433966, -0.4792209193244775], [-0.7542912177754008, 0.1575790343330832, 0.7193221667022832, -0.7413961792200836], [0.12389756606925269, -0.1037582572755646, 0.6209318449336941, -0.6687616575067242]]}