{"hidden_weights": [[-0.6730221580453151, -0.15711070853838954, -0.9371944389892206, 0.9679373531032134, -0.8770831880161329, 0.46874977454664224, -0.4110955784935566, 0.9662548749926352, -0.22709465668071838, 0.7710481458072802, -0.9557240622211076, 0.10768121009761566], [0.0732780706677941, 0.036131629595770556, 0.00848143808414327, -0.8094926202368855, 0.331146009335503, 0.25465869467853564, 0.960286335058497, -1.0428984198184508, -0.5958853614071469, -0.9627259592976203, 0.9817498053572971, -0.7587156793027472], [-0.13130623327242003, 0.7744060911632075, 0.1654851998039346, -0.3216431968713331, -0.7378779149757138, 0.7511929835379295, 0.16986928018583214, 0.37138762133862335, 0.8231399416084902, -0.1934472710788322, 0.8362648214618886, 0.6260531711843436], [-0.20459527506229847, -0.2747221898879866, 0.791005051184489, 0.6513670052670698, 0.42121342671471784, -0.2025158771986708, -0.009145482702140228, 0.09716612298324226, -0.9723855817382554, 0.29330870129517117, -0.7017135747548173, -1.084554619737584], [-0.25074854832224097, 0.6277605122353416, 0.9130802995492113, -0.6939956901719495, 0.41583823303712014, -0.5512031103166434, -0.9547531678357274, -0.8249823534231375, -0.7063342674228261, 0.6694464943818325, 0.6330524710714569, 0.08432528696948063], [0.1693108444812735, 0.061460474292681644, -0.10108413195951668, -0.42923473464196715, -0.9611089645990822, -0.2574631863852171, 0.5378044339610976, -0.9800494948579115, -0.9307202690797669, 0.15026994775894242, -0.10379300880403239, -0.4164512549651647], [-0.20394135997877072, -0.693085690706256, -0.19036579112582241, 0.2326914064751746, 0.7254066067572991, -0.6393352022974227, -0.38457432287469273, 0.01138211781292292, -0.1995065006631613, -0.2538090964044324, -0.785434939038949, 0.10283115118629774], [0.6702162337253803, 0.593504022120427, 0.06359889237780192, 0.24800281123502912, 0.7614725698641147, -0.32744598588478646, -0.08235114282415301, 0.6485348961709038, -0.5399479095953318, 0.7761927199912468, 0.5017385128349364, -0.6694749216633993]], "output_weights": [[-0.15919124948569616, 0.6998112102703584, 0.2399520059569664, 0.979136593563886], [0.20458031148188427, -0.843912137312723, 0.14852273048159792, -0.8275985786735855], [0.47041218617510794, -0.3656332117770713, 0.6863914638127888, 0.8916076461834658], [0.4566181007539043, -0.13950148894320025, -0.8918023101043423, 0.08377899916653547], [-0.5533530189576847, 0.8632052201865836, -0.5645992160619343, 0.4698718434376412], [-0.5546989567244809, -0.33560402548346513, 0.938078128157275, -0.4730799268950219], [-0.5064716742635264, -0.49293613553780213, 0.6151040431678585, -0.5008419840154944], [-0.28648089810903765, -0.37418822799840445, 0.8362632079403871, -0.09804711321829232], [0.720943831641919, -0.6528684791744925, 0.05550031236999686, -0.7818736268673969], [0.002083215556531466, -0.20999598990476076, -0.2771209222965048, -0.603139233068557], [-0.696684287819462, 0.47067756383314463, 0.65791054214303, -0.7162646692699279], [0.3838526849601154, -0.1037582572755646, 0.6087533293394805, -0.48146187674083674]]}