{"hidden_weights": [[-0.8224645437355467, -0.23682501586166693, -0.9462941720989018, 0.9679373531032134, -1.2226098839493462, 0.4370283457175731, 0.03773844644552893, 0.899961520444514, -0.09961111737243908, 0.7743886471905885, -0.8811411221853611, 0.21413115745947292], [0.12587969165814603, 0.051805731833828916, 0.01022223356028936, -0.8367582653035189, 0.35343144905182755, 0.6167298505858865, 0.9890368355886898, -1.0428984198184508, -0.5958853614071469, -0.9627259592976203, 0.9817498053572971, -0.7584855200860241], [-0.3200996071218535, 0.7744060911632075, 0.1654851998039346, -0.3268127342439975, -0.7378779149757138, 0.6280823376465798, 0.37537842100273644, -0.5282344657533308, -0.5498580149392194, 0.9287306981738075, 0.8550362005254621, -0.6495011504276486], [0.5983070425582704, 0.04313965220536606, 0.5751837753642698, 0.7936118573626475, 0.42121342671471784, -0.06336533351227591, -0.03864786174944168, 0.7118891330744395, -0.9143049243479033, 0.16285855369071978, -0.7017135747548173, -1.084554619737584], [0.09047344978008878, 0.6277605122353416, 0.676139884391566, -0.3893181394052047, 0.5547918385346642, -0.5738261433394372, -1.006781436136556, -0.9164070067455682, -0.5318149780298287, 0.807070693947483, 0.8264570804008247, 0.18237517055817554], [0.03320823426954851, 0.061460474292681644, -0.10108413195951668, -0.4207668953204089, -0.8514057785542146, -0.22471638695417037, 0.7354946808770737, -0.880522528001576, -0.9381201475110077, 0.15026994775894242, -0.2830238773131531, -0.3033443260366431], [-0.6067602381896237, -0.6619175136469824, -0.08817225940076345, 0.24988645145142496, 0.7254066067572991, -0.6393352022974227, -0.3462813382711796, 0.01138211781292292, -0.321759333051171, -0.2538090964044324, -0.785434939038949, 0.10283115118629774], [0.6702162337253803, 0.6725814303843003, 0.19468220586986648, 0.14287252631197567, 0.7622505782550161, -0.243294169933181, -0.08235114282415301, 0.5881277066283823, -0.5399479095953318, 0.7684457816114569, 0.47692126560189374, -0.6694749216633993]], "output_weights": [[0.06483888981208624, 0.7574052410526034, -0.019120547339995644, 0.979136593563886], [0.20458031148188427, -0.843912137312723, -0.0705747845191782, -0.8275985786735855], [0.3274351556991003, -0.20535053562212763, 0.6863914638127888, 0.7997328575947065], [0.3649762349341233, -0.13950148894320025, -0.9892332156297785, -0.07417983736312075], [-0.4583868921036501, 0.9601746672933905, -0.7544384994172744, 0.4698718434376412], [-0.6657624238809313, -0.43277057393540574, 0.8311128874113641, -0.3643506562792407], [-0.3067266974324084, -0.49293613553780213, 0.46515236983268454, -0.6369276304086833], [-0.1577550891522585, -0.7412008385504789, 0.7092565473139123, -0.245656632871608], [0.8482416157020565, -0.7497120224398323, 0.05550031236999686, -0.7818736268673969], [-0.006620472730753413, -0.14760001269355172, 0.02398465665433966, -0.605794942085992], [-0.6378286510679735, 0.5450955140102159, 0.6985579867865002, -0.8021850399695623], [0.32909986136389807, -0.1037582572755646, 0.6087533293394805, -0.45899716087583003]]}