{"hidden_weights": [[-0.6730221580453151, -0.15711070853838954, -0.9371944389892206, 0.9679373531032134, -0.9541306910138608, 0.46874977454664224, -0.45222612781837934, 0.9662548749926352, -0.23207459228635802, 0.7710481458072802, -0.9557240622211076, 0.05425133786957452], [0.0732780706677941, 0.12967815567273921, 0.055008078650551975, -0.8802729970355428, 0.331146009335503, 0.30718206548446453, 0.9890368355886898, -1.1948218894524403, -0.5958853614071469, -0.9627259592976203, 0.9108566861524625, -0.7587156793027472], [-0.13130623327242003, 0.7744060911632075, 0.1654851998039346, -0.20006285826655446, -0.7915112918867236, 0.697244946086397, 0.16986928018583214, -0.531110031319467, -0.7095424802681871, 0.9287306981738075, 0.9902996385793625, -0.6671073506633678], [0.5983070425582704, -0.03695886369451551, 0.5751837753642698, 0.7100030107640884, 0.42121342671471784, -0.06336533351227591, -0.03864786174944168, 0.7118891330744395, -0.9143049243479033, 0.16285855369071978, -0.7017135747548173, -1.084554619737584], [-0.2404962905108896, 0.7323038731316394, 0.9130802995492113, -0.6939956901719495, 0.648188760161507, -0.5738261433394372, -1.006781436136556, -0.9164070067455682, -0.780312400084133, 0.807070693947483, 0.6206022617548725, -0.06180715922215896], [0.03320823426954851, 0.061460474292681644, -0.10108413195951668, -0.42923473464196715, -0.8514057785542146, -0.2690018292178957, 0.5181035848124955, -0.880522528001576, -0.9307202690797669, 0.17295039516508115, -0.013019781729008084, -0.4393268534372057], [-0.3207718128388869, -0.9473907744849966, -0.2822604966153296, 0.2717150749130604, 0.7254066067572991, -0.6393352022974227, -0.3462813382711796, 0.01138211781292292, -0.321759333051171, -0.2538090964044324, -0.7891792546908213, 0.10283115118629774], [0.6702162337253803, 0.5851108093385374, 0.14918321062841486, 0.18157496579562132, 0.8424093456100532, -0.32744598588478646, -0.13111911759707826, 0.7457574673921669, -0.5399479095953318, 0.7761927199912468, 0.47692126560189374, -0.6694749216633993]], "output_weights": [[0.02359523220981896, 0.6998112102703584, 0.11647419233360015, 1.075301474608338], [0.20458031148188427, -0.8316165870834903, 0.1146677761622818, -0.8275985786735855], [0.47041218617510794, -0.3656332117770713, 0.6863914638127888, 0.9305776192540077], [0.5239406524447922, -0.014396274268958419, -0.9703561289033726, 0.00940482894758854], [-0.5533530189576847, 0.8632052201865836, -0.5044962424054718, 0.5263425296920294], [-0.4651217648063746, -0.33560402548346513, 0.938078128157275, -0.4730799268950219], [-0.4359238067943192, -0.49293613553780213, 0.6151040431678585, -0.3184168772272812], [-0.28648089810903765, -0.5596000482866701, 0.8475268829296261, -0.31687254372988716], [0.8426079454789785, -0.8799580744141762, -0.04824070388968396, -0.5673541259193987], [0.002083215556531466, -0.3382541915437144, -0.1008937983377951, -0.603139233068557], [-0.7567663287235558, 0.3412440797946151, 0.65791054214303, -0.7413961792200836], [0.41933877679213816, -0.1037582572755646, 0.5809226593706697, -0.4782046972940869]]}