{"hidden_weights": [[-0.6015479762809773, 0.10365550445366384, -1.0939583450687569, 1.017475705393555, -1.1193913642564246, 0.4385374722784574, -0.06631185190424846, 0.6158900103185931, -0.19645658869410682, 0.7743886471905885, -0.7706070886330822, 0.11284115081524132], [0.0832120254335574, 0.036131629595770556, -0.05685860232566679, -0.8499413424329233, 0.345307198367646, 0.38908382520045204, 1.0321865977044804, -1.243340925172416, -0.6183786051741142, -0.7829812727626734, 0.4378102142465719, -0.6021725190805906], [-0.05179630262958497, 0.4780450106788362, 0.09211278425808535, -0.24206294496089392, -0.7378779149757138, 0.40207336025800167, 0.16986928018583214, -0.1097718191557504, -0.5783781620351877, 1.1806529668139931, 1.026782326830791, 0.49959449018028607], [0.5415832480903631, 0.005147782093751857, 0.7830444648622851, 0.7236853938330895, 0.4633657539404804, 0.11344185181555297, -0.24480062095780727, 0.7118891330744395, -1.116702618303764, 0.15605700212773863, -0.9786476165126465, -0.9659570022559159], [-0.18295315454491945, 0.8928297881541334, 0.9130802995492113, -0.8607845780208604, 0.6302131609489996, -0.5738261433394372, -0.9217563983369822, -1.212815463847666, -0.7449318336848662, 1.1340249705706305, 0.6206022617548725, 0.0900366239996525], [0.025116107757328213, -0.13450354935491896, -0.13087815541150769, -0.4309594516113399, -0.7800038766819761, -0.2690018292178957, 0.5267479461538143, -1.0065641603771414, -0.8946205545109767, -0.10277005812748272, -0.1935118422632886, -0.384515888472622], [-0.47685071907112986, -0.5257217498343183, -0.2573892976912753, 0.05406427360581546, 0.5757296762392253, -0.5627429525830352, -0.3635160374232697, -0.03755805319096807, -0.5703320165629386, -0.07466926130370742, -0.7539717828153666, 0.2802192076870257], [0.46989987105700226, 0.576246639838113, 0.08374435897671266, 0.24800281123502912, 0.609713247335693, -0.41906093293543767, 0.018903470626600916, 0.6017159287492947, -0.5097791951849512, 0.8469975409041759, 0.6062691262268285, -0.6603110342732867]], "output_weights": [[-0.046117133719740445, 0.8985699639210725, 0.07296961974786531, 0.9753163347108361], [0.15400023949088526, -1.0560065517924035, 0.15693153599641366, -0.8435778664386084], [0.13245211957990088, -0.21236680753175544, 0.45137202239221463, 0.9023432985096265], [0.19925894817127615, -0.4131287413485065, -1.1468977631987298, -0.28014867926759957], [-0.30141990534474333, 0.8691126960882741, -0.5379173896219943, 0.6463173664812764], [-0.33935877196535424, -0.41559953698036206, 0.8311128874113641, -0.3643506562792407], [-0.35246419213715036, -0.4381191366631162, 0.6981278085539637, -0.6369276304086833], [-0.04054456691013959, -0.6955961816305981, 0.7092565473139123, -0.4129685598491043], [0.6758094875857268, -0.7866604219706942, 0.08877439468002056, -0.7818736268673969], [-0.11265607828254166, -0.3382541915437144, -0.06932815949597446, -0.7007423152295111], [-0.7220605804291385, 0.3642125557390804, 0.7282669175566288, -0.6362622344839135], [0.25373781804077367, -0.251622665509716, 0.43313330094217334, -0.47158317758305285]]}