{"hidden_weights": [[-0.5093120112776472, 0.009930902501941272, -0.9754938084692304, 1.0193938906402233, -1.23969888657418, 0.19713572471840357, 0.008933241361950152, 0.8114422377059725, -0.10680547109843187, 0.7743886471905885, -0.8615912829097659, 0.246435424131562], [-0.00037250370994290627, 0.0037754060190635444, 0.039541051685673095, -1.012450479046102, 0.5267413257600905, 0.486739852160797, 1.0321865977044804, -0.8770394877879906, -0.6543547636107201, -1.2047649591183014, 0.9817498053572971, -0.6589393354169687], [-0.23225200288896639, 0.6460219187544998, 0.1654851998039346, -0.11435076432721458, -0.6355847080951511, 0.5483080857458966, 0.16986928018583214, -0.49217428598814156, -0.5498580149392194, -0.1934472710788322, 1.025422061404102, -0.8331881369894214], [0.7070301769029366, -0.2051924333655371, 0.8951432443285036, 0.671839099102615, 0.45893139847649034, -0.04076798951577888, -0.13628787977033535, 0.7118891330744395, -1.1168746157157263, 0.071999418023142, -0.9786476165126465, -1.1226426528370517], [-0.18295315454491945, 0.7168696204409893, 0.7795140551693865, -0.5905308133355117, 0.5378792988815327, -0.5643689585771298, -1.006781436136556, -0.5432307169284645, -0.7063342674228261, 0.7056135255241565, 0.5610488842472259, 0.16868931458063668], [-0.06007879414886609, 0.11307945328147329, -0.3072037916070864, -0.4963573812551774, -0.6643161589109996, -0.2690018292178957, 0.4177055985873721, -1.0026680340186456, -1.1381722121456674, 0.15026994775894242, -0.09847301666730476, -0.37140663311837385], [-0.1873486562459287, -0.667141904200039, -0.08817225940076345, 0.19660886280988354, 0.43787933147196423, -0.5627429525830352, -0.1929361908920247, -0.16463212143053607, -0.321759333051171, -0.19719506164373343, -1.102048569000246, 0.3948947818779924], [0.7753157168464561, 0.5579423088396156, 0.1982319050827881, 0.3336724665804857, 0.6138168608007556, -0.32744598588478646, -0.03155778199466768, 0.5881277066283823, -0.5399479095953318, 0.8469975409041759, 0.5769658198348808, -0.6603110342732867]], "output_weights": [[-0.11140825858827748, 0.7254726007417195, 0.3716798548696999, 1.087378878624057], [0.20458031148188427, -0.8600364799902487, 0.004264081192177166, -0.8275985786735855], [0.34385408032138703, -0.36145517814062267, 0.7587867112438398, 1.0344319633003047], [0.49146779931146317, -0.3097606236702154, -0.88754726913226, -0.007335785025423022], [-0.5076160489817656, 0.6078279700490347, -0.6468331820491637, 0.4698718434376412], [-0.5369549798105547, -0.41559953698036206, 0.8311128874113641, -0.3643506562792407], [-0.3067266974324084, -0.31028808408278974, 0.5444301849203848, -0.6369276304086833], [-0.28369296103007685, -0.5896041214271963, 0.7688272204066742, -0.31687254372988716], [0.7089614802329145, -0.6528684791744925, -0.05376572948864422, -0.4209404798380453], [0.026995551366702893, -0.3382541915437144, -0.08750894879987899, -0.603139233068557], [-0.7542912177754008, 0.38582745689159065, 0.7193221667022832, -0.7413961792200836], [0.6076000279041869, -0.14354352131563253, 0.43313330094217334, -0.5423200037821991]]}