{"hidden_weights": [[-0.8204747719572658, -0.2238482922050682, -0.9076627471883407, 0.8960509473757587, -0.8832489007330427, 0.47017564032555953, -0.1478700005871425, 0.8016537728685006, -0.24174707124900371, 0.7035627909564514, -1.0232917813312177, 0.40184553913193044], [0.03228723696995371, 0.04218857706397465, 0.13774282325360296, -0.8932216692821937, 0.04530897275877477, 0.25465869467853564, 0.8502228043305443, -0.9356758259783419, -0.4849663100683545, -0.9627259592976203, 0.7386924800596608, -0.6841638860023623], [-0.24332120452531078, 0.5952698557546671, 0.34185764868679297, -0.3722796589428999, -0.7378779149757138, 0.5723662798899836, 0.16986928018583214, 0.4449704410903025, 1.0006683218511705, -0.06068259589239533, 0.8362648214618886, 0.49959449018028607], [0.911589588652951, -0.050951874025600585, 0.9649112393076855, 0.671839099102615, 0.45893139847649034, -0.0035462702539832344, -0.13628787977033535, 0.7118891330744395, -1.1168746157157263, -0.1414016664601843, -0.9786476165126465, -1.068470117005942], [-0.18295315454491945, 0.7168696204409893, 0.8212169564718654, -0.5905308133355117, 0.5238346735682734, -0.49318786831762185, -1.006781436136556, -0.4596583092124804, -0.7063342674228261, 0.7056135255241565, 0.5610488842472259, 0.16868931458063668], [-0.12041631954832838, 0.22526348196032958, -0.34893310422794377, -0.4963573812551774, -0.6154391908777824, -0.2690018292178957, 0.4202743092630211, -1.0026680340186456, -1.1381722121456674, 0.18807591007240793, -0.09847301666730476, -0.37140663311837385], [-0.1873486562459287, -0.43025985020823615, -0.08817225940076345, 0.04158064917032711, 0.7860286211562264, -0.5627429525830352, -0.38457432287469273, 0.15514658663846934, -0.2516027073569138, -0.19719506164373343, -0.785434939038949, 0.16235366547792543], [0.8034760759999082, 0.576246639838113, 0.07776341893831722, 0.2128514142687557, 0.7567999282372821, -0.22741407369370056, -0.2294662463149506, 0.5881277066283823, -0.4842961693715016, 0.8469975409041759, 0.44669439973681196, -0.6694749216633993]], "output_weights": [[0.02359523220981896, 0.6211700713274884, 0.2709650308855873, 0.8387303937751247], [0.17696775255755773, -0.7419371421567755, 0.07816913423791384, -0.8031503451524583], [0.36192777082169797, -0.07338352278204875, 0.8833167016366841, 0.7373490424725258], [0.7282382234007586, -0.4489342343435415, -0.9892332156297785, 0.2328529634370397], [-0.5009368186403178, 0.6931123657188616, -0.6468331820491637, 0.4698718434376412], [-0.5369549798105547, -0.3162087526785411, 1.0000912455068176, -0.3643506562792407], [-0.3067266974324084, -0.5779978996543452, 0.46515236983268454, -0.6369276304086833], [-0.05718132839206094, -0.6955961816305981, 0.7092565473139123, -0.28449752914990334], [0.6837204964822764, -0.7497120224398323, -0.0005692828070317374, -0.4209404798380453], [0.11649075598155317, -0.3382541915437144, 0.026043630484515343, -0.603139233068557], [-0.7154614945937972, 0.16809100753706951, 0.8139778229875347, -0.8492934933324916], [0.3838526849601154, -0.1037582572755646, 0.5624635423156205, -0.5423200037821991]]}