{"hidden_weights": [[-0.5306106654802976, 0.013373883559215382, -0.9371944389892206, 1.017475705393555, -1.166577851949133, 0.13312952285594787, -0.13646755596411952, 0.8848833505985381, -0.23469370666520023, 0.6520662649418675, -1.1249002134610855, 0.16515852274138776], [0.12587969165814603, 0.051805731833828916, -0.07326020303573373, -0.7941374407231209, 0.012676826005493178, 0.2095234905925188, 1.1055175976278897, -0.9799976399703373, -0.6748946055017825, -0.6112143894648585, 0.8670468708731598, -0.6463375908957247], [-0.34703899757308837, 0.6258434205904556, 0.23547510128868526, -0.3722796589428999, -0.6518936012964848, 0.5483080857458966, 0.2037735625915481, -0.49217428598814156, -0.4470653741249463, -0.1934472710788322, 1.025422061404102, -0.8529940985634085], [0.7070301769029366, -0.16823515338032247, 0.9658121045873234, 0.7599059585506545, 0.5563237530020592, -0.08737005467958735, 0.02591953467673902, 0.889082143598561, -0.9143049243479033, 0.32671847672419807, -0.9251573005292647, -1.200989970154587], [0.04100991776165397, 0.5989711245058965, 0.7795140551693865, -0.8607845780208604, 0.5829140316699601, -0.6584446163343948, -0.992625324071806, -0.9164070067455682, -0.6432158473683542, 1.2966795818060501, 0.5718237938734541, 0.14515355688845358], [-0.008247988355227252, 0.11307945328147329, -0.0138975860297844, -0.531181145600944, -0.8194224446425438, -0.41717019746338707, 0.5075554715523762, -1.0531020414783554, -0.9725943366000034, 0.2254489632217817, -0.09847301666730476, -0.3033443260366431], [-0.3802669830398607, -0.8228839960474064, -0.12039742201482428, 0.11753274053852739, 0.7860286211562264, -0.5627429525830352, -0.12907971929335574, 0.06072327404043193, -0.321759333051171, -0.08500284530304467, -1.102048569000246, 0.39347295239157354], [0.7135935460574402, 0.5579423088396156, 0.1982319050827881, 0.4240508240681714, 0.6138168608007556, -0.32744598588478646, -0.11005146870075938, 0.6017159287492947, -0.44935903654259635, 0.8469975409041759, 0.6229818582894291, -0.6603110342732867]], "output_weights": [[0.05015380209449538, 0.7901752207589853, 0.1709797177099303, 1.25070333808366], [0.20458031148188427, -0.8099647187404544, 0.2973053309788389, -0.8750680150511984], [0.5183377291102212, -0.022683765218379948, 0.6227593033187927, 0.9716478616990886], [0.6273812655088602, -0.234677632597424, -0.831396984799088, -0.16703505835253046], [-0.2814454909978359, 0.8726430047425475, -0.5645992160619343, 0.579442393225621], [-0.45645704438342877, -0.33560402548346513, 0.9572035721236146, -0.3643506562792407], [-0.4303308432675062, -0.44657500666840333, 0.46515236983268454, -0.5854383896005154], [-0.05718132839206094, -0.5896041214271963, 0.7688272204066742, -0.31687254372988716], [0.6715801288498169, -0.7497120224398323, -0.0005692828070317374, -0.7002734033124569], [-0.006620472730753413, -0.20999598990476076, 0.02398465665433966, -0.5109183850594448], [-0.7542912177754008, 0.38582745689159065, 0.8257426812976211, -0.7315797921929299], [0.6076000279041869, -0.1501213582842865, 0.43313330094217334, -0.5423200037821991]]}