{"hidden_weights": [[-0.4805706499981278, 0.007356952018330115, -0.9371944389892206, 0.9122527096857457, -0.9541306910138608, 0.46874977454664224, -0.4110955784935566, 0.8550141476097294, -0.36964421542683057, 0.7710481458072802, -0.9557240622211076, 0.10768121009761566], [0.0732780706677941, 0.036131629595770556, 0.00848143808414327, -0.8094926202368855, 0.43186250581756713, 0.40016367412396037, 0.9890368355886898, -0.9462576462638745, -0.5958853614071469, -0.9627259592976203, 0.9817498053572971, -0.7587156793027472], [-0.20598465612194072, 0.7875777387206647, 0.1654851998039346, -0.2314579617741736, -0.7378779149757138, 0.7790627064377593, 0.2600385960598584, -0.531110031319467, -0.39026156166803017, 0.761735167912392, 0.9902996385793625, -0.8186469501343172], [0.6436233948011737, -0.2747221898879866, 0.791005051184489, 0.7187690753483584, 0.42121342671471784, -0.06336533351227591, -0.009145482702140228, 0.09716612298324226, -0.9143049243479033, 0.14360349481195642, -0.7017135747548173, -1.084554619737584], [-0.18704644136239915, 0.42123215425311006, 0.9130802995492113, -0.6939956901719495, 0.4894005533072092, -0.5738261433394372, -1.006781436136556, -0.9011865453567889, -0.776260671630546, 0.8630939726055493, 0.6206022617548725, 0.18237517055817554], [0.04221688157916903, -0.17640888296006874, -0.03963644129036065, -0.42923473464196715, -0.9779700419364905, -0.2690018292178957, 0.5181035848124955, -0.880522528001576, -0.9307202690797669, 0.15026994775894242, -0.013019781729008084, -0.30247979453054186], [-0.20394135997877072, -0.667141904200039, -0.19513107559479517, 0.3462673736708015, 0.7254066067572991, -0.6393352022974227, -0.38457432287469273, 0.01138211781292292, -0.321759333051171, -0.24300851524647493, -0.785434939038949, 0.24787363177190702], [0.8034760759999082, 0.5478609174999339, 0.06359889237780192, 0.24800281123502912, 0.5657777098042605, -0.4480004229911548, -0.08235114282415301, 0.5881277066283823, -0.5399479095953318, 0.7761927199912468, 0.47692126560189374, -0.6694749216633993]], "output_weights": [[0.046829586394513206, 0.6840188663150931, 0.1709797177099303, 0.979136593563886], [0.20458031148188427, -0.8600341863157355, 0.09987149197931686, -1.0421635458275187], [0.47041218617510794, -0.405206049580225, 0.6003204830779709, 0.9305776192540077], [0.5239406524447922, -0.04968656644778045, -0.9703561289033726, 0.00940482894758854], [-0.5533530189576847, 0.8632052201865836, -0.5044962424054718, 0.4698718434376412], [-0.44758169458439695, -0.33560402548346513, 0.938078128157275, -0.4730799268950219], [-0.4179047910111466, -0.6010706599156177, 0.6151040431678585, -0.6369276304086833], [-0.31333103381799604, -0.6955021365114926, 0.8362632079403871, -0.31687254372988716], [0.8426079454789785, -0.6528684791744925, 0.05550031236999686, -0.8109985744247186], [-0.007646491748481116, -0.0764340991452242, -0.0007040134353242244, -0.603139233068557], [-0.6244243550915844, 0.47067756383314463, 0.7905613202115055, -0.8690052131646228], [0.3838526849601154, -0.1037582572755646, 0.6087533293394805, -0.3936841681235794]]}