{"hidden_weights": [[-0.4805706499981278, 0.007356952018330115, -0.9371944389892206, 1.017475705393555, -1.192370921322996, 0.4385374722784574, -0.13646755596411952, 0.8051199387620033, -0.23469370666520023, 0.6180712504524946, -0.9557240622211076, 0.16515852274138776], [0.08902619590386285, 0.08850657050687237, 0.00848143808414327, -0.7799612134610736, 0.43186250581756713, 0.17045200539425648, 0.9890368355886898, -1.0247970039545058, -0.6347429190778422, -0.9627259592976203, 0.4378102142465719, -0.6238916019576828], [-0.2998236636213346, 0.7744060911632075, 0.1654851998039346, -0.19057689140496337, -0.7378779149757138, 0.6712527325306666, 0.03666962494966039, -0.4935790632149939, -0.5498580149392194, 0.9287306981738075, 0.9509905403715337, -0.6495011504276486], [0.5983070425582704, 0.10848085717018505, 0.5751837753642698, 0.7936118573626475, 0.42121342671471784, -0.06336533351227591, -0.006238068650214361, 0.7118891330744395, -0.9143049243479033, 0.16285855369071978, -0.7017135747548173, -1.084554619737584], [0.09047344978008878, 0.6277605122353416, 0.676139884391566, -0.6939956901719495, 0.5752998281235473, -0.5738261433394372, -1.006781436136556, -0.6176486859143474, -0.7063342674228261, 0.8165861124378553, 0.5718237938734541, 0.14515355688845358], [0.040919182676439445, 0.11307945328147329, 0.11272373963204918, -0.49457750592413396, -0.8218090178582605, -0.2690018292178957, 0.5075554715523762, -1.0026680340186456, -1.1381722121456674, 0.15026994775894242, -0.09847301666730476, -0.37140663311837385], [-0.20394135997877072, -0.667141904200039, -0.08817225940076345, 0.19660886280988354, 0.7254066067572991, -0.5627429525830352, -0.38457432287469273, -0.16463212143053607, -0.321759333051171, -0.13802776472211753, -0.8032637245211509, 0.24787363177190702], [0.7753157168464561, 0.5117074811488799, 0.06359889237780192, 0.24800281123502912, 0.7080376248895343, -0.22741407369370056, -0.2294662463149506, 0.5881277066283823, -0.5399479095953318, 0.8469975409041759, 0.44669439973681196, -0.6694749216633993]], "output_weights": [[0.022473344244312944, 0.7210605867052117, 0.1709797177099303, 1.2778307967886462], [0.20458031148188427, -0.9015350877987632, 0.16226384110554823, -0.8750680150511984], [0.5183377291102212, -0.24118424224071938, 0.6776409190383549, 0.9716478616990886], [0.49146779931146317, -0.3097606236702154, -0.88754726913226, -0.007335785025423022], [-0.5533530189576847, 0.7681634363935469, -0.6468331820491637, 0.4698718434376412], [-0.46985952714866414, -0.41559953698036206, 0.8311128874113641, -0.3643506562792407], [-0.3067266974324084, -0.49293613553780213, 0.46515236983268454, -0.6369276304086833], [-0.28369296103007685, -0.5896041214271963, 0.7688272204066742, -0.31687254372988716], [0.9062848064460038, -0.6528684791744925, -0.1561914326832784, -0.4209404798380453], [0.026995551366702893, -0.3382541915437144, -0.08750894879987899, -0.603139233068557], [-0.7542912177754008, 0.16809100753706951, 0.7193221667022832, -0.6362622344839135], [0.3838526849601154, -0.1037582572755646, 0.5624635423156205, -0.5423200037821991]]}