{"hidden_weights": [[-0.608671664006838, -0.10521991789683373, -0.704546915675698, 0.887958822739643, -1.394305675918965, 0.7860680210557452, -0.6060677656010205, 0.8051199387620033, -0.17074977415614484, 0.6520662649418675, -0.9904980950960253, 0.16515852274138776], [-0.10749712210004772, -0.010952468933045148, -0.05607081074634686, -0.7799612134610736, 0.2629099383494179, 0.3228712474407153, 0.9890368355886898, -0.9848185742523157, -0.6347429190778422, -0.8761721865047547, 0.3849347205417896, -0.639963081743085], [-0.22583079459875746, 0.5644801923398635, 0.23733547587881249, -0.24206294496089392, -0.7378779149757138, 0.5483080857458966, 0.2037735625915481, -0.49217428598814156, -0.4470653741249463, -0.1934472710788322, 0.8362648214618886, 0.49959449018028607], [0.6046019044975233, -0.36882185169635434, 0.8694353827779375, 0.6888654896205714, 0.45893139847649034, 0.11078690006079091, -0.08322344463109385, 0.5061547884966576, -0.9143049243479033, 0.16285855369071978, -1.120220913633154, -1.1374478208772318], [0.04100991776165397, 0.4998376519231279, 0.6026777463582378, -0.8607845780208604, 0.5829140316699601, -0.6042082232780053, -0.7689222707488341, -0.49920079046813287, -0.780312400084133, 1.1340249705706305, 0.5537783826433027, 0.14515355688845358], [-0.3081844369329103, 0.06173314568604009, -0.32818829341971256, -0.5417836843082147, -0.8081798415171677, -0.4808988751412149, 0.5378044339610976, -0.9800494948579115, -0.9745459927494815, 0.1899821428809833, -0.09847301666730476, -0.37140663311837385], [-0.484481443396255, -0.6588742853839078, -0.08817225940076345, 0.19660886280988354, 0.43787933147196423, -0.7367472211103939, -0.16417756030462557, 0.13866757736547297, -0.4255807240881305, -0.014273674777631001, -0.9319104123866296, 0.4465265506811511], [0.32712730269194995, 0.5831052894140549, -0.04327359283363813, 0.1828503406645709, 0.4614587986181439, -0.4997255748102778, -0.18859529978966677, 0.5881277066283823, -0.7501930501059866, 0.9128876819759896, 0.5506484904172071, -0.6136134574948849]], "output_weights": [[0.1148706674910784, 0.647995928532134, 0.05538145314421246, 0.9616903435150994], [-0.09071424096160335, -0.9912522032314739, 0.03059805264826812, -0.7245919725499601], [0.25550329980710695, -0.24118424224071938, 0.7102096072055528, 0.9716478616990886], [0.4018869352197542, -0.28449899265974377, -0.7831974922952722, -0.07417983736312075], [-0.3524009183630101, 0.7293989199146524, -0.4312877395135093, 0.49938397021002356], [-0.45645704438342877, -0.41559953698036206, 0.9234042726475804, -0.44982972297943935], [-0.35246419213715036, -0.5092421120576069, 0.6666544386122573, -0.6283541723383677], [-0.28369296103007685, -0.5774249653837676, 0.7688272204066742, -0.31687254372988716], [0.5893950267354368, -0.6528684791744925, -0.05376572948864422, -0.5650867572997685], [0.026995551366702893, -0.3365663445179138, 0.02398465665433966, -0.605794942085992], [-0.6491865350390816, 0.2924484920290485, 0.7282669175566288, -0.6786067020594699], [0.22258815376092073, -0.14354352131563253, 0.43313330094217334, -0.47158317758305285]]}