{"hidden_weights": [[-0.6730221580453151, -0.15711070853838954, -0.9371944389892206, 0.9679373531032134, -0.9541306910138608, 0.46874977454664224, -0.4110955784935566, 0.9662548749926352, -0.22709465668071838, 0.7710481458072802, -1.0858457694650931, 0.10768121009761566], [0.04586172475135042, 0.08140876370492614, -0.10722925427352226, -0.8094926202368855, 0.35343144905182755, 0.569370772643595, 0.8370683561863128, -0.9509984964838558, -0.5958853614071469, -1.040945563773019, 0.9817498053572971, -0.6841638860023623], [-0.24332120452531078, 0.5990775469088704, 0.1654851998039346, -0.3216431968713331, -0.7378779149757138, 0.697244946086397, 0.060905817140804425, 0.37138762133862335, 0.8231399416084902, -0.04960618892917794, 0.7501198943016536, 0.49959449018028607], [-0.20459527506229847, -0.2747221898879866, 0.7115758682713201, 0.6665800897894673, 0.42121342671471784, -0.38709392915301977, -0.009145482702140228, 0.04508360575653292, -0.9143049243479033, 0.2642614977161145, -0.7017135747548173, -1.084554619737584], [-0.25074854832224097, 0.6277605122353416, 0.9130802995492113, -0.6939956901719495, 0.4894005533072092, -0.5512031103166434, -0.9547531678357274, -0.8249823534231375, -0.7063342674228261, 0.6694464943818325, 0.6330524710714569, 0.08432528696948063], [0.1693108444812735, 0.061460474292681644, -0.10108413195951668, -0.42923473464196715, -0.9779700419364905, -0.2690018292178957, 0.571111598082922, -0.880522528001576, -0.9307202690797669, 0.15026994775894242, -0.013019781729008084, -0.4164512549651647], [-0.20394135997877072, -0.667141904200039, -0.19036579112582241, 0.24988645145142496, 0.7254066067572991, -0.6393352022974227, -0.3443457980184197, 0.01138211781292292, -0.321759333051171, -0.24300851524647493, -0.7835279652110715, 0.06218965993345679], [0.8034760759999082, 0.6725814303843003, 0.19468220586986648, 0.24800281123502912, 0.7614725698641147, -0.4152062403953892, -0.08235114282415301, 0.6167867033864821, -0.5399479095953318, 0.7761927199912468, 0.47692126560189374, -0.618114767390889]], "output_weights": [[0.02359523220981896, 0.6998112102703584, 0.2612620238558761, 0.9504703280949603], [0.18543445197760133, -0.843912137312723, 0.14852273048159792, -0.8275985786735855], [0.47041218617510794, -0.2567335535843123, 0.6863914638127888, 0.9461839626262935], [0.4566181007539043, -0.11300523458068429, -0.9703561289033726, -0.07325098167163144], [-0.5533530189576847, 0.8632052201865836, -0.5319283869769436, 0.4698718434376412], [-0.5503719975768645, -0.32211143542563836, 0.8756427761154721, -0.4730799268950219], [-0.4179047910111466, -0.49293613553780213, 0.6151040431678585, -0.6369276304086833], [-0.2884616202313052, -0.6048414511856526, 0.8362632079403871, -0.31687254372988716], [0.8426079454789785, -0.6347810714466566, 0.03639189405858931, -0.6727155004858506], [0.002083215556531466, -0.0004831060258940756, -0.1008937983377951, -0.617991716614988], [-0.6369978595519993, 0.46778783851953015, 0.65791054214303, -0.6675621415527654], [0.3838526849601154, 0.06623886090902857, 0.6087533293394805, -0.587187550285875]]}