{"hidden_weights": [[-0.5758704130158959, -0.0660931737011334, -1.014610451582668, 0.9080503471053779, -1.1657130671602807, 0.45264812977882546, -0.143704671781407, 0.899961520444514, -0.6363128419484518, 0.4810142713925034, -0.9093374341414987, 0.24603721241802623], [-0.16591660196929794, 0.04218857706397465, 0.027454175948113172, -1.012450479046102, 0.395702210856801, 0.25465869467853564, 1.0899882154081177, -1.0428984198184508, -0.6781659077459924, -0.8948482559524382, 1.1923459561268677, -0.8773267817552909], [0.038602817198939515, 0.8306485464373672, 0.10587329312907294, -0.12288119975941277, -0.6782229313995517, 0.5260740125294074, 0.1351335975503972, -0.43109427611161255, -0.5498580149392194, 0.8706952082942724, 0.9509905403715337, -0.6495011504276486], [0.5983070425582704, 0.15781717214415786, 0.4981371348000639, 0.8122925147917357, 0.415465533096033, 0.027808145634923676, -0.02986750477341723, 0.9778202977153426, -0.9143049243479033, 0.3259447427542737, -0.7017135747548173, -1.0880247138114556], [0.0042576102834922525, 0.7835692910829675, 0.9493128114466033, -0.8607845780208604, 0.5570988882171617, -0.5738261433394372, -0.9400899476549579, -0.9500711664422306, -0.780312400084133, 0.8837759615110071, 0.6206022617548725, 0.18237517055817554], [0.1972737312862624, -0.13450354935491896, -0.10108413195951668, -0.4207668953204089, -0.8081798415171677, -0.26601629833669965, 0.48983023703345147, -0.9800494948579115, -1.00328924272063, 0.04456274711407686, -0.06015858493310339, -0.6120114575924456], [-0.1384656997952472, -0.750242858166252, -0.10862474316998384, -0.02828123601170679, 0.9981013497155188, -0.5367232317686652, -0.15424767103273535, 0.20344541065186084, -0.31555365849128375, -0.1851734161983089, -0.785434939038949, 0.2975628021947811], [0.33914046818202387, 0.4441326960004365, -0.09515633420652511, 0.23988652503399382, 0.6598081405850261, -0.320188981976411, -0.46540172939155605, 0.5881277066283823, -0.5399479095953318, 0.8469975409041759, 0.5470343485628414, -0.6603110342732867]], "output_weights": [[-0.122812801492406, 0.7254726007417195, 0.3716798548696999, 0.979136593563886], [0.20458031148188427, -0.7419371421567755, 0.14852273048159792, -0.8031503451524583], [0.23920619348318478, -0.20147041521234518, 0.833155666910257, 0.8711599499653819], [0.6273812655088602, -0.387247030245277, -1.1135989164366675, -0.0746685192193351], [-0.3524009183630101, 0.8691126960882741, -0.7237687555329572, 0.4698718434376412], [-0.5171921991853646, -0.33560402548346513, 0.938078128157275, -0.3366781233760752], [-0.4359238067943192, -0.49293613553780213, 0.5601955288847327, -0.6369276304086833], [-0.28369296103007685, -0.5896041214271963, 0.7688272204066742, -0.31687254372988716], [0.9062848064460038, -0.47905836110630595, -0.1561914326832784, -0.4209404798380453], [0.026995551366702893, -0.44137877159394484, -0.08750894879987899, -0.5679116426170555], [-0.6348471681612216, 0.4505285769937945, 0.65791054214303, -0.7413961792200836], [0.5880203113666824, -0.1037582572755646, 0.5624635423156205, -0.5423200037821991]]}