{"hidden_weights": [[-0.6730221580453151, -0.1630949044046116, -0.9371944389892206, 1.1323925221124116, -0.9267830976693314, 0.46874977454664224, -0.4110955784935566, 0.9662548749926352, -0.22709465668071838, 0.7710481458072802, -0.9557240622211076, 0.10768121009761566], [0.04586172475135042, 0.08140876370492614, 0.00848143808414327, -0.8094926202368855, 0.35343144905182755, 0.569370772643595, 0.8370683561863128, -0.9509984964838558, -0.5958853614071469, -1.040945563773019, 0.9817498053572971, -0.7416518649371732], [-0.10059912985838881, 0.5990775469088704, 0.22605673143345098, -0.2314579617741736, -0.7378779149757138, 0.697244946086397, 0.11398122680304795, 0.37138762133862335, 0.8231399416084902, -0.1934472710788322, 0.8362648214618886, 0.49959449018028607], [-0.17677496224946745, -0.22015193343300518, 0.791005051184489, 0.7187690753483584, 0.38769145819312256, 0.7398668736873732, 0.5792514582359107, 0.2244548714777526, -0.9143049243479033, 0.06932389798760512, -0.7017135747548173, -1.084554619737584], [-0.2404962905108896, 0.6277605122353416, 0.9130802995492113, -0.6939956901719495, 0.5547918385346642, -0.5738261433394372, -1.006781436136556, -0.8957212252782902, -0.7063342674228261, 0.807070693947483, 0.6206022617548725, 0.18237517055817554], [0.03320823426954851, 0.061460474292681644, -0.10108413195951668, -0.42923473464196715, -0.9779700419364905, -0.2690018292178957, 0.5181035848124955, -0.880522528001576, -0.9307202690797669, 0.17295039516508115, -0.013019781729008084, -0.4393268534372057], [-0.20394135997877072, -0.8302768483791227, -0.2822604966153296, 0.2717150749130604, 0.7254066067572991, -0.7060552903505977, -0.38457432287469273, 0.01138211781292292, -0.321759333051171, -0.34789319703608507, -0.785434939038949, 0.24787363177190702], [0.8034760759999082, 0.5478609174999339, 0.06359889237780192, 0.24800281123502912, 0.7614725698641147, -0.3400294118599274, -0.08235114282415301, 0.47424741104872636, -0.5399479095953318, 0.7761927199912468, 0.47692126560189374, -0.6694749216633993]], "output_weights": [[0.02359523220981896, 0.6998112102703584, 0.2612620238558761, 0.979136593563886], [0.20458031148188427, -0.843912137312723, 0.14852273048159792, -0.8275985786735855], [0.47041218617510794, -0.2567335535843123, 0.6863914638127888, 0.9023432985096265], [0.4566181007539043, -0.13950148894320025, -0.9494857245600674, 0.00940482894758854], [-0.5533530189576847, 0.8632052201865836, -0.5044962424054718, 0.4698718434376412], [-0.44758169458439695, -0.33560402548346513, 0.938078128157275, -0.4730799268950219], [-0.4359238067943192, -0.49293613553780213, 0.6151040431678585, -0.6804930576363268], [-0.28648089810903765, -0.6955021365114926, 0.8362632079403871, -0.31687254372988716], [0.8426079454789785, -0.6528684791744925, -0.11551558494595227, -0.5673541259193987], [0.002083215556531466, -0.3382541915437144, -0.1008937983377951, -0.603139233068557], [-0.6369978595519993, 0.38228390725322337, 0.65791054214303, -0.7413961792200836], [0.3838526849601154, -0.1037582572755646, 0.6087533293394805, -0.48146187674083674]]}