{"hidden_weights": [[-0.602576587122687, 0.18429356257274093, -0.8943167459861431, 0.9739887990461421, -1.0538565226938152, 0.11170763756759987, -0.06631185190424846, 0.8185096720145391, -0.19645658869410682, 0.7743886471905885, -0.9093374341414987, 0.2628688309648479], [-0.0071999712339444605, -0.0004909062757793431, 0.08176846107431635, -0.7791533376527882, 0.35343144905182755, 0.34955829516461745, 0.9326669976600274, -0.976783201784957, -0.6543547636107201, -1.1231740870085858, 0.9817498053572971, -0.6469021530753806], [-0.10202459071032094, 0.5731332210157207, 0.19669624502551458, -0.2314579617741736, -0.5854759823068025, 0.7347611992152792, 0.3407448680989677, 0.6823562948225844, 1.0006683218511705, -0.06068259589239533, 1.0219306459553954, 0.49959449018028607], [0.9142907483384349, -0.16823515338032247, 0.839764476379598, 0.5174589101112527, 0.36755272872861533, -0.04076798951577888, -0.13628787977033535, 0.7118891330744395, -0.9143049243479033, 0.16285855369071978, -1.1674077506615512, -1.1374478208772318], [-0.04339491018927247, 0.6277605122353416, 0.7795140551693865, -0.8607845780208604, 0.5799266437694985, -0.6042082232780053, -0.9009532933191912, -0.9164070067455682, -0.780312400084133, 0.8607492432148675, 0.5315413708620935, 0.16858310262315054], [0.0376079852832477, -0.23354471938518606, -0.10108413195951668, -0.4207668953204089, -0.909781359449712, -0.2690018292178957, 0.4873815753030475, -1.0026680340186456, -1.1278939743178453, 0.15026994775894242, -0.09847301666730476, -0.22964195883256122], [-0.5353223021053092, -0.9319828349642524, -0.3116637806640027, 0.17645922050455987, 0.7254066067572991, -0.4221992174762643, -0.38457432287469273, -0.12367999796165877, -0.29434755977734267, -0.20303147882096662, -0.785434939038949, 0.24787363177190702], [0.2890449023028647, 0.4441326960004365, 0.04659068591382978, 0.327521989950147, 0.5610913474309137, -0.32989201861002215, 0.14496030998801282, 0.579985499181731, -0.847200322421159, 0.9029627376385561, 0.5506484904172071, -0.47765318557895076]], "output_weights": [[-0.16655664686764468, 0.8985699639210725, 0.07296961974786531, 0.979136593563886], [0.15400023949088526, -1.0560065517924035, 0.15693153599641366, -0.8435778664386084], [0.3594579699978634, -0.20147041521234518, 0.6863914638127888, 1.2114733638390114], [0.5007226163839227, -0.5773057980829129, -0.831396984799088, 0.07676543464314975], [-0.47198520097663865, 0.9705872627130856, -0.6043458635201157, 0.579442393225621], [-0.37790151940272615, -0.41559953698036206, 0.8311128874113641, -0.39922645482004265], [-0.3067266974324084, -0.49293613553780213, 0.42137535091582873, -0.6283541723383677], [-0.28369296103007685, -0.6144037087171813, 0.7688272204066742, -0.31687254372988716], [0.5893950267354368, -0.6528684791744925, 0.05550031236999686, -0.7818736268673969], [-0.018028932474858275, -0.3382541915437144, -0.05235536915368835, -0.6644548418963789], [-0.7220605804291385, 0.16809100753706951, 0.6555899291128117, -0.6695568005873093], [0.3801820043459908, -0.09421388115114063, 0.6087533293394805, -0.48146187674083674]]}