{"hidden_weights": [[-0.44494096355820445, -0.1768099397249599, -0.7925037131987704, 1.2057955387268986, -1.441327734720521, 0.2511949338677787, -0.27680024308032347, 0.6023330632689274, -0.10680547109843187, 0.48030232965041675, -0.9361582344665275, 0.16638736863428263], [-0.00037250370994290627, 0.013650327843773132, 0.039541051685673095, -1.012450479046102, 0.345307198367646, 0.26297475913219803, 1.0321865977044804, -0.8770394877879906, -0.5809544102151822, -0.6112143894648585, 0.8670468708731598, -0.6954167742144327], [-0.7078502519641896, 0.678699517358972, 0.23547510128868526, -0.5009216082870271, -0.9110055021306653, 0.5483080857458966, 0.2037735625915481, -0.49217428598814156, -0.4470653741249463, -0.21262310680735663, 1.025422061404102, -0.8339960575190086], [0.5415832480903631, -0.36882185169635434, 0.8951432443285036, 0.6888654896205714, 0.45893139847649034, -0.019930977940794216, 0.0700694258230302, 0.5061547884966576, -0.9143049243479033, 0.05013767052025683, -0.8058456065883796, -1.1535617679511643], [-0.306760121426809, 0.6277605122353416, 0.6253962720730656, -0.8607845780208604, 0.4931172920914199, -0.5495435067639964, -0.9730016976114734, -0.7702223674261484, -0.780312400084133, 1.0457808839640048, 0.5718237938734541, 0.038955322703574866], [0.21939412889375948, 0.014855919452514556, -0.12693975795852258, -0.3076817119884012, -0.7800038766819761, -0.18577218698337772, 0.5267479461538143, -0.9333045866710379, -1.1278939743178453, -0.11559045156722138, 0.20128441529346483, -0.37140663311837385], [-0.4836434881103989, -0.750671011855008, -0.08817225940076345, 0.14801099446286384, 0.43787933147196423, -0.6873506929495774, -0.16417756030462557, -0.27299450386779034, -0.41722440187537346, -0.24462443870670836, -1.102048569000246, 0.39309566053675704], [0.2890449023028647, 0.526242560712756, 0.04659068591382978, 0.1828503406645709, 0.5763857776414949, -0.5295257512559166, -0.15913712549732095, 0.5881277066283823, -0.8840606763283435, 0.9003131743884366, 0.544107518040476, -0.7487193560574354]], "output_weights": [[0.46090551174789574, 0.8049435623121474, 0.179055357356689, 1.4683145723749633], [0.32622344603061937, -0.8798750485833752, 0.11974368576029452, -0.8275985786735855], [0.3594579699978634, -0.4308914069649312, 0.21779253700351153, 1.0044374982092057], [0.3649762349341233, -0.5291727503904935, -1.1135989164366675, -0.047779655931522], [-0.3524009183630101, 0.7319954364102964, -0.5435296540660971, 0.4250941284947601], [-0.4889853101168906, -0.15164373210858328, 0.8326922327138326, -0.3418732513113035], [-0.4359238067943192, -0.5092421120576069, 0.6152362433346826, -0.7721876021172912], [-0.10498170868021865, -0.5896041214271963, 0.6243736231775859, -0.1977689508533504], [0.7021096647519539, -0.7699373526354379, -0.0005692828070317374, -0.7147735042400364], [-0.006620472730753413, -0.45481627908240835, -0.05245835458641816, -0.605794942085992], [-0.620143744665023, 0.4343504208397748, 0.5667358230403348, -0.7413961792200836], [0.5371243818837657, -0.031781437998927374, 0.5244372929714005, -0.7815156591949706]]}