{"hidden_weights": [[-0.5093120112776472, 0.007356952018330115, -0.8419833427978833, 0.787985246773405, -0.8044430863719783, 0.73775065974665, -0.3179607352287307, 0.7518065965845695, -0.22709465668071838, 0.7356106806898827, -0.8884970104551033, 0.2120519469816936], [0.16195499355997978, 0.036131629595770556, 0.00848143808414327, -0.8222997651870165, 0.2741616239089039, 0.2095234905925188, 1.1055175976278897, -0.931700124990637, -0.5809544102151822, -0.7672167747697051, 0.8670468708731598, -0.7281800839726896], [-0.34703899757308837, 0.592355132653793, 0.23547510128868526, -0.3722796589428999, -0.6849768436140333, 0.9463511075085006, 0.21395077401913373, -0.42289875071532695, -0.8272523093367019, 0.9946841099222739, 0.996202909585465, -0.8463729071986492], [0.7507638243810623, -0.1733544023357577, 0.7304938089451668, 0.7359315930924141, 0.37896449057064985, -0.39158611668325205, 0.12164234249714802, 0.27919562460103475, -1.0104069031010847, 0.2642614977161145, -0.9293912533071029, -1.0675607331672046], [-0.20047283959312762, 0.6277605122353416, 0.6998535531162999, -0.7317249424957346, 0.5547918385346642, -0.6302567862577366, -1.1233475630897314, -1.0850877249841036, -0.7063342674228261, 0.6694464943818325, 0.550955849571761, 0.11128464261151287], [0.12474282959325891, 0.03352102289293362, -0.10108413195951668, -0.42923473464196715, -0.9611089645990822, -0.2574631863852171, 0.5378044339610976, -1.0026680340186456, -1.1381722121456674, 0.36472577653572236, -0.008355985710074093, -0.37140663311837385], [-0.20394135997877072, -0.743050072443412, -0.08817225940076345, 0.19660886280988354, 0.7254066067572991, -0.5627429525830352, -0.3858278311773342, -0.16463212143053607, -0.321759333051171, -0.19719506164373343, -1.0026546176495827, 0.15412662155674853], [0.8034760759999082, 0.6185848637832014, -0.04327359283363813, 0.30851586830881794, 0.7614725698641147, -0.18797453331476055, -0.12719901951427645, 0.5663845495462678, -0.6346684694212563, 0.7761927199912468, 0.47692126560189374, -0.6341536313372709]], "output_weights": [[-0.11140825858827748, 0.7254726007417195, 0.25974589512036333, 1.11499188160388], [0.10113081391360816, -0.8527704801743897, 0.004264081192177166, -0.8275985786735855], [0.41694670463991135, -0.20147041521234518, 0.6863914638127888, 1.0344319633003047], [0.5007226163839227, -0.234677632597424, -0.9495408905921721, 0.02011039662623708], [-0.6383636147935452, 0.7882726326406675, -0.5319217802335253, 0.4588909837561174], [-0.5546989567244809, -0.33560402548346513, 0.873077107559974, -0.4730799268950219], [-0.4193358227152453, -0.6429626951090652, 0.5686514600377928, -0.6480996676015405], [-0.017402066462959873, -0.8338588043155313, 0.7688272204066742, -0.31687254372988716], [0.9062848064460038, -0.5900551122795272, -0.1561914326832784, -0.4209404798380453], [-0.004237249160921656, -0.20999598990476076, -0.17385723424446764, -0.5597960794996912], [-0.6378286510679735, 0.3382125392664532, 0.7662984647912612, -0.7129085716034806], [0.4245735806565434, -0.1037582572755646, 0.6087533293394805, -0.5406640882652333]]}