{"hidden_weights": [[-0.4770378154789617, 0.060125400247839134, -0.660661508664101, 0.8092325479553677, -0.9889959715067852, 0.7860680210557452, -0.5811336364920902, 0.8051199387620033, -0.17074977415614484, 0.6520662649418675, -0.9904980950960253, 0.16515852274138776], [0.07785044352676596, -0.010952468933045148, -0.05607081074634686, -0.7799612134610736, 0.2949725947768881, 0.2356391899097074, 0.9890368355886898, -0.9848185742523157, -0.6347429190778422, -1.056656700523881, 0.4378102142465719, -0.639963081743085], [-0.22583079459875746, 0.5644801923398635, 0.23733547587881249, -0.24206294496089392, -0.7378779149757138, 0.47892240150011434, 0.16986928018583214, 0.48755898635327594, 1.0006683218511705, -0.021791590790312572, 0.7430274150751599, 0.49959449018028607], [0.5415832480903631, -0.290108155437279, 0.8951432443285036, 0.6888654896205714, 0.45893139847649034, -0.019930977940794216, 0.0035935314231611004, 0.7118891330744395, -0.9143049243479033, 0.0586444896865437, -0.9251573005292647, -1.200989970154587], [0.04100991776165397, 0.6277605122353416, 0.8024003449327076, -0.874029999809471, 0.7008010437370716, -0.7039989490659582, -1.0867103167862129, -0.9164070067455682, -0.780312400084133, 1.1340249705706305, 0.7043833049690605, 0.0900366239996525], [0.11299686033938089, -0.1741099772587744, -0.10108413195951668, -0.4207668953204089, -0.909781359449712, -0.2690018292178957, 0.4873815753030475, -1.0026680340186456, -1.1278939743178453, 0.15026994775894242, -0.09847301666730476, -0.2881043517050796], [-0.5353223021053092, -0.8971771364662795, -0.36922310185637347, 0.20897498631840428, 0.6068291135051488, -0.6195625715495453, -0.15424767103273535, 0.14165753923437335, -0.1472153013436521, -0.014273674777631001, -0.785434939038949, 0.2802192076870257], [0.3470747256778263, 0.6145411947190037, -0.04327359283363813, 0.24800281123502912, 0.5213383257815767, -0.41906093293543767, -0.08235114282415301, 0.36264691204177335, -0.4816658242837477, 0.872870947594761, 0.560403974628305, -0.6450256229160425]], "output_weights": [[-0.09305600065170051, 0.5682585058381153, 0.25974589512036333, 0.8804881913491236], [0.20458031148188427, -0.7419371421567755, 0.14852273048159792, -0.7245919725499601], [0.2938349401063258, -0.20147041521234518, 0.6863914638127888, 1.0344319633003047], [0.5007226163839227, -0.2303273262087707, -0.9892332156297785, 0.11854510264300133], [-0.30141990534474333, 0.8691126960882741, -0.5645992160619343, 0.4698718434376412], [-0.5369549798105547, -0.3162087526785411, 1.038592581900359, -0.3643506562792407], [-0.3067266974324084, -0.5092421120576069, 0.6992934417962289, -0.6283541723383677], [-0.28369296103007685, -0.5896041214271963, 0.7405081529504204, -0.31687254372988716], [0.6837204964822764, -0.8740613395264094, -0.0005692828070317374, -0.7002734033124569], [-0.006620472730753413, -0.20999598990476076, 0.02398465665433966, -0.4895158192927655], [-0.6452980873756936, 0.2924484920290485, 0.65791054214303, -0.8994963525874337], [0.2894920444469921, -0.12432270916555449, 0.7365100303802286, -0.48146187674083674]]}