{"hidden_weights": [[0.549422602563673, 0.3988339698844392, 0.5687889514180653, -0.545506700227427, -0.07092060500943898, 0.24072768596430238, -0.2572694137710958, 0.6937196143950533, -0.27109360837166285, 0.017946010733516538, -0.11197288511382064, 0.06849914558226233], [-0.7526103049329804, 0.07137989155074043, -0.21469987968004411, -0.7529003530525722, 0.3779554135814689, 0.15828898663149982, 0.31566130030029305, 0.3683522736846192, 0.1016192479902267, 0.8017268899381542, 0.31633141656195685, -0.8473486291617105], [0.5939283727836162, 0.5094318517774536, 0.4298710234801144, -0.09556616625021785, -0.7138720658669735, 0.028168550190682318, -0.8531631081883893, -0.531110031319467, -0.5498580149392194, 0.9287306981738075, 0.9902996385793625, -0.8186469501343172], [0.5983070425582704, -0.11664687786683592, 0.6950993769928788, 0.7100030107640884, 0.42121342671471784, -0.06336533351227591, -0.03864786174944168, 0.7118891330744395, 0.06472803842923813, -0.9979475056033613, -0.7611546105984779, 0.6034632471019942], [-0.45855210574098626, -0.29533122890334784, 0.19275779315378938, -0.4863230329973287, -0.038283341901053536, 0.6929645546140188, -0.4572400551905017, 0.17720857201746232, 0.5494652278248806, -1.025929614193369, -0.5598115675507365, 0.7971577285684042], [-0.8315573309012321, 0.8928527605482233, -0.6822748415289173, -0.06167036216772215, -0.0876162415107884, -0.23330056037422442, -0.1160291713015682, -0.6657416475487272, 0.3424303098529784, 0.3154779378923189, -0.14344324739034686, -0.1250600069961707], [0.7111591999033016, -0.2195247479881317, 0.6744289069387537, 0.9381120118477109, 0.2406374443704804, -0.7695899033933367, 0.5171681881059014, -0.3867465608116387, 0.5440225785779833, 0.7310747759988256, -0.800109396480275, -0.2142334493330047], [0.8737266868735309, -0.20323479016829094, 0.3478334504894822, 0.9368567423357803, 0.5503361334869215, 0.6925837037384419, -0.10596816072170712, 0.2870481433809644, -0.8536780441613205, -0.006680919638126781, 0.5155142499130818, 0.8010610328889587]], "output_weights": [[-0.7026466546991335, -0.7180977561165842, 0.557600633214947, 0.5062156575228587], [0.9365300683199593, 0.33712379400025494, -0.07493082883490709, -0.9279825738743654], [0.915398830155538, 0.16616906327613812, 0.01875593474570203, -0.34029742536307017], [0.6524611583573163, 0.40636628052204227, 0.7312190684395936, 0.10365221337530017], [-0.5803801622516596, -0.6314735987586018, 0.14464342692813403, -0.24129366316044498], [0.9637386323113426, -0.19255602462592747, 0.9999686153156622, -0.662594875974333], [0.6961039284126103, 0.48796629476158415, 0.030028181375147067, 0.6042925681590527], [-0.9925176447345709, 0.610560220019253, -0.587273852715527, 0.741871003412401], [0.8426079454789785, -0.6528684791744925, 0.05550031236999686, -0.8109985744247186], [0.03942538882390023, -0.20999598990476076, -0.1008937983377951, -0.603139233068557], [-0.675638424479132, 0.47067756383314463, 0.65791054214303, -0.7413961792200836], [0.3838526849601154, -0.18346457449409503, 0.6087533293394805, 0.9925134127810711]]}