{"hidden_weights": [[-0.5859828774615083, 0.009284767250427053, -0.8943167459861431, 0.9679373531032134, -1.0555426930840646, 0.12332757893283895, -0.06631185190424846, 0.6229889571352553, -0.07356188702715155, 0.7743886471905885, -0.8884970104551033, 0.2120519469816936], [0.0832120254335574, 0.036131629595770556, 0.00848143808414327, -0.7490200588434316, 0.09829232025372298, 0.19694824703172503, 1.1055175976278897, -0.9799976399703373, -0.5809544102151822, -1.1231740870085858, 0.9817498053572971, -0.6589393354169687], [-0.14055101108979562, 0.7106059269843981, 0.03051062962818596, -0.2449784522311081, -0.6447977580388436, 0.6607559017193347, 0.16986928018583214, 0.4449704410903025, 1.0006683218511705, -0.06068259589239533, 0.8362648214618886, 0.49959449018028607], [0.7070301769029366, -0.2051924333655371, 0.8951432443285036, 0.671839099102615, 0.45893139847649034, -0.04076798951577888, -0.13628787977033535, 0.757323377066865, -1.0786202963689264, -0.02186955360015959, -0.982644147079701, -1.1226426528370517], [-0.3379584744068093, 0.7168479752260337, 0.9998626074214269, -0.5905308133355117, 0.783530437400852, -0.49318786831762185, -0.903360160126284, -0.5708625739550381, -0.7063342674228261, 0.7056135255241565, 0.5610488842472259, 0.16868931458063668], [-0.197470325725882, 0.18657976694215644, -0.3166949067147188, -0.4963573812551774, -0.909781359449712, -0.1594101121614373, 0.7354946808770737, -0.961077273472414, -0.7072939051570469, 0.07905659315820818, -0.21070338891130863, -0.37140663311837385], [-0.1873486562459287, -0.6588742853839078, -0.08817225940076345, 0.2652708553438499, 0.5734079643568912, -0.7505301233614342, -0.18908527936655364, -0.16463212143053607, -0.321759333051171, -0.19719506164373343, -1.102048569000246, 0.39309566053675704], [0.7298026019456395, 0.5579423088396156, 0.1982319050827881, 0.23212621570047895, 0.6138168608007556, -0.4350706771158168, -0.03155778199466768, 0.6017159287492947, -0.5399479095953318, 0.7775698033295, 0.6592301604318893, -0.6701930343638226]], "output_weights": [[-0.0867333301008881, 0.7210605867052117, 0.27278926297888034, 1.2778307967886462], [0.15400023949088526, -0.843912137312723, 0.004264081192177166, -0.8275985786735855], [0.3594579699978634, -0.20147041521234518, 0.6863914638127888, 1.0344319633003047], [0.5007226163839227, -0.234677632597424, -0.9495408905921721, -0.07417983736312075], [-0.26839218754595234, 0.8691126960882741, -0.5645992160619343, 0.579442393225621], [-0.45645704438342877, -0.41559953698036206, 0.8311128874113641, -0.3643506562792407], [-0.3067266974324084, -0.49293613553780213, 0.5394069081678501, -0.6283541723383677], [-0.2697032192425257, -0.5896041214271963, 0.7688272204066742, -0.31687254372988716], [0.6715801288498169, -0.7497120224398323, -0.0005692828070317374, -0.7002734033124569], [-0.006620472730753413, -0.20999598990476076, 0.02398465665433966, -0.605794942085992], [-0.6491865350390816, 0.2924484920290485, 0.65791054214303, -0.6362622344839135], [0.2787115185671282, -0.3069044817113377, 0.43313330094217334, -0.5423200037821991]]}