{"hidden_weights": [[-0.44494096355820445, 0.17119302761004127, -0.7956526072735011, 1.1126459124116959, -1.441327734720521, 0.7860680210557452, -0.5811336364920902, 0.7737566515836846, -0.2256438642306567, 0.7593174886023747, -0.9904980950960253, 0.16515852274138776], [0.3173740680368933, -0.010952468933045148, -0.05607081074634686, -0.7918404275193311, 0.2695713444715413, 0.2356391899097074, 0.9890368355886898, -1.0736296344789742, -0.8436032228033263, -0.7320783870800227, 0.4378102142465719, -0.639963081743085], [-0.22583079459875746, 0.7085247511757741, 0.4545634243729729, -0.3206849151861652, -0.6723024433479018, 0.47892240150011434, 0.16986928018583214, 0.37363395520006215, 1.2231179028541526, -0.06068259589239533, 0.7595521366042203, 0.5297542051664339], [0.7070301769029366, -0.16823515338032247, 0.839764476379598, 0.7011290754316107, 0.36642820986200353, -0.1313404657613763, -0.441197806475065, 0.7118891330744395, -1.2416701617421722, -0.15961004183667096, -1.0156943178354638, -1.2205039082454157], [0.04100991776165397, 0.7239061972106812, 0.7795140551693865, -0.8607845780208604, 0.5829140316699601, -0.42136526237521843, -0.9009532933191912, -0.9164070067455682, -0.780312400084133, 0.9159428339656541, 0.5315413708620935, 0.05314621835035918], [0.0376079852832477, 0.06173314568604009, -0.3176567948233857, -0.5417836843082147, -0.9357739558289444, -0.1448064736423046, 0.8036218999834601, -1.1003490583093387, -1.2009353281778792, 0.11116700415474871, -0.0014799972470489614, -0.22964195883256122], [-0.5353223021053092, -0.6500110383572975, -0.08817225940076345, 0.19660886280988354, 0.7509373604150081, -0.5557124638789824, -0.16417756030462557, -0.4159277777043639, -0.37417993291699486, -0.24462443870670836, -0.9793705904053596, 0.39309566053675704], [0.2890449023028647, 0.6293956056267938, 0.04659068591382978, 0.2654668801741109, 0.3843697554194901, -0.34052838414771747, -0.08235114282415301, 0.25614678983899364, -0.4816658242837477, 0.9008979560462521, 0.509789033812978, -0.6603110342732867]], "output_weights": [[0.18180550851319935, 0.5789521692405456, 0.2979098094190763, 0.8492032247284915], [0.1571795508933635, -0.8137862561840337, 0.16226384110554823, -0.7245919725499601], [0.418752014453597, -0.47583684005492577, 0.8840539559660252, 0.9666506235455988], [0.4151332114485071, -0.5773057980829129, -0.8984042945537252, 0.07676543464314975], [-0.20144068840707804, 0.9227579432495472, -0.6980076326767504, 0.7931609455074222], [-0.3196978778385362, -0.41559953698036206, 0.8311128874113641, -0.5256050296825767], [-0.6526009456118035, -0.29569468331552573, 0.38559830301657805, -0.7721876021172912], [-0.03565706859796952, -0.6955961816305981, 0.7092565473139123, -0.3139116653623704], [0.4696425916379804, -0.6990811246432325, -0.33544887580777805, -0.7290659934769187], [0.02159576549778583, -0.4746582834201637, -0.02640846938994313, -0.722758914742508], [-0.7490706076850191, 0.36067700375070977, 0.5722952266125854, -0.634340391907361], [0.4917032323630792, -0.21545653731886621, 0.43313330094217334, -0.7118663570873589]]}