{"hidden_weights": [[-0.44494096355820445, 0.08391405651655894, -0.8872366897124473, 1.0953036360751145, -1.262214040519675, 0.24360964952413186, 0.168955369741019, 0.8114422377059725, -0.10680547109843187, 0.7002783119518547, -0.8408754457654495, 0.1592314212244895], [-0.07482000477024611, 0.04468536266341248, 0.08176846107431635, -0.7791533376527882, 0.35343144905182755, 0.34955829516461745, 0.9326669976600274, -1.0171699341058789, -0.6543547636107201, -0.9618121695332998, 0.8034089299868343, -0.6469021530753806], [-0.10202459071032094, 0.7744060911632075, 0.022809596060607673, -0.2314579617741736, -0.5854759823068025, 0.7347611992152792, 0.23053376979467124, 0.6823562948225844, 1.0006683218511705, -0.06068259589239533, 1.0219306459553954, 0.49959449018028607], [0.9142907483384349, -0.16823515338032247, 0.839764476379598, 0.5174589101112527, 0.36755272872861533, -0.04076798951577888, -0.13628787977033535, 0.7118891330744395, -0.9170666402820821, 0.19931075116229624, -1.1674077506615512, -1.1535850544562936], [0.04100991776165397, 0.6277605122353416, 0.8127114375024501, -0.863186284705261, 0.5829140316699601, -0.6042082232780053, -0.9009532933191912, -1.0871018205542609, -0.6989725374489314, 0.9159428339656541, 0.47950169799209286, 0.16858310262315054], [0.0376079852832477, -0.10839979906775782, -0.11907112511458878, -0.4792515187918415, -0.8194224446425438, -0.05144541257350657, 0.6603348279616631, -0.8635875174691339, -0.9725943366000034, 0.2254489632217817, -0.10461488492396395, -0.37140663311837385], [-0.28225027753581644, -0.7883146104110863, -0.2573892976912753, 0.1139132650324978, 0.5321889833214004, -0.5627429525830352, -0.42977583955653803, -0.03755805319096807, -0.4830531008327382, -0.0373833391898201, -0.7539717828153666, 0.2802192076870257], [0.24912454982226537, 0.576246639838113, 0.027435585703527287, 0.24800281123502912, 0.5213383257815767, -0.2879490841811998, -0.08235114282415301, 0.13645847960937987, -0.8113700408077416, 0.7521978358571192, 0.6711683208219572, -0.7219432145134794]], "output_weights": [[0.18180550851319935, 0.5789521692405456, 0.20302491441730808, 1.2778307967886462], [0.08914911442912733, -0.7851660188918882, 0.15693153599641366, -0.8272339360824313], [0.08555118626585156, -0.24118424224071938, 0.6240059469790721, 0.9856180167203732], [0.37206257688836064, -0.16901170513148125, -1.1270310042747853, -0.28014867926759957], [-0.06156655820662177, 0.7293989199146524, -0.4312877395135093, 0.49938397021002356], [-0.45645704438342877, -0.41559953698036206, 0.9234042726475804, -0.44982972297943935], [-0.35246419213715036, -0.33259273870209777, 0.6981278085539637, -0.5321548609404825], [-0.04054456691013959, -0.6955961816305981, 0.7905694758397426, -0.31687254372988716], [0.5893950267354368, -0.8771434009281667, 0.1612230767430637, -0.36685740374424536], [0.11649075598155317, -0.3382541915437144, -0.05245835458641816, -0.7101858777929584], [-0.6378286510679735, 0.2631841678413889, 0.8886456467780693, -0.7924328669376661], [0.3375055063005016, -0.02391431973013429, 0.426626115815009, -0.24711599280732788]]}