{"hidden_weights": [[-0.33885379736661947, -0.008279094320286978, -0.6304583660188859, 0.871405289372426, -1.502303789020615, 0.19713572471840357, 0.32697604833345917, 0.8114422377059725, -0.07185800778816853, 0.48030232965041675, -0.8884970104551033, 0.2120519469816936], [-0.06869784578701398, 0.0037754060190635444, 0.039541051685673095, -1.0290076190411983, 0.2195208888026852, 0.39654894196386603, 0.9819738327196401, -0.8769316719991743, -0.5797966442688962, -0.9644217409255518, 0.9443812833769323, -0.639963081743085], [-0.22583079459875746, 0.5258472795091075, 0.23733547587881249, -0.24206294496089392, -0.7378779149757138, 0.6136803369806829, 0.2037735625915481, -0.5003283538364963, -0.3591624958144288, -0.08340498172050205, 0.8362648214618886, 0.7011366564700812], [0.6046019044975233, -0.36882185169635434, 0.7409043040931258, 0.6888654896205714, 0.535944360598642, -0.019930977940794216, -0.18711211750761877, 0.5584592481000248, -0.9143049243479033, -0.15961004183667096, -0.8672101381983977, -1.2205039082454157], [0.04100991776165397, 0.7239061972106812, 0.7795140551693865, -0.7287880175931023, 0.5108553576543432, -0.42136526237521843, -0.9009532933191912, -0.9754828381867443, -0.780312400084133, 0.9159428339656541, 0.5315413708620935, 0.16858310262315054], [-0.017460425964363743, 0.36773984695405226, 0.14111169408466878, -0.41779086511968655, -0.909781359449712, -0.2690018292178957, 0.4873815753030475, -1.0963051100505568, -1.142338590227558, 0.15026994775894242, 0.22717060194408217, -0.2709981426110778], [-0.42785986138534915, -0.6500110383572975, -0.08817225940076345, 0.19660886280988354, 0.762792428441873, -0.5557124638789824, -0.16417756030462557, -0.4159277777043639, -0.46533646152396646, -0.24462443870670836, -0.8381196550904022, 0.39309566053675704], [0.2890449023028647, 0.526242560712756, 0.04659068591382978, 0.2654668801741109, 0.3843697554194901, -0.34052838414771747, -0.08235114282415301, 0.25614678983899364, -0.4816658242837477, 0.9008979560462521, 0.6062691262268285, -0.6603110342732867]], "output_weights": [[0.12337438970735091, 0.5789521692405456, 0.20302491441730808, 0.9984281292090852], [0.15400023949088526, -0.843912137312723, 0.004264081192177166, -0.6851232380593126], [0.17568932392297065, -0.18476628906190995, 0.45137202239221463, 0.9023432985096265], [0.07834968414644726, -0.22038531906346034, -1.2626110520687308, -0.28014867926759957], [-0.30141990534474333, 0.819953010132805, -0.4256023088615477, 0.6721849956450006], [-0.5369549798105547, -0.3162087526785411, 1.038592581900359, -0.47432934841851593], [-0.2955132902447907, -0.5496031200053977, 0.6981278085539637, -0.5321548609404825], [-0.04054456691013959, -0.6955961816305981, 0.7905694758397426, -0.31687254372988716], [0.5737809535469348, -0.8771434009281667, 0.1612230767430637, -0.36685740374424536], [0.11649075598155317, -0.3382541915437144, -0.05245835458641816, -0.7101858777929584], [-0.6378286510679735, 0.21544243144098288, 0.8955457245149284, -0.6362622344839135], [0.1409533596454171, -0.14354352131563253, 0.43313330094217334, -0.7211919251977675]]}