{"hidden_weights": [[0.5639161026605239, 0.9454758379176573, 0.06878395237315016, 0.342844025898156, -0.7406786254219735, -0.8724660106597815, -0.5942486143775954, -0.8550014231274445, -0.09194392007632213, -0.7559926134919128, 0.6606581589561764, 0.210843222679844], [-0.5975332921950292, 0.3873963357681378, 0.37111852716871896, -0.522119469021298, -0.1613951398600919, 0.1832097658823697, -0.037755793648521774, -0.6137394438053074, -0.6723978652345997, -0.809912992456147, 0.5054243898980597, 0.12829955220017442], [-0.38512124313870055, -0.5493859039727012, -0.597308274813388, 0.49726923885273977, -0.39421532311780827, 0.4326698467428569, 0.2978236141514834, -0.21673804308739353, 0.8611994977339172, -0.23117155766996622, -0.6246471132435887, 0.8509306515331656], [0.04376796584753628, 0.6266794316679689, 0.7927620083057751, -0.87332298144289, -0.338760377738456, -0.25665376206262214, -0.266806900008121, -0.18852763508464676, 0.1857469433705059, -0.7198637694073757, 0.9360785306130424, -0.31519800578644586], [-0.8352818507835906, -0.38629929218292536, 0.8743853473256762, -0.3184112323278936, 0.8341250317008231, 0.22419520273324545, 0.9627543282284581, -0.6443719782719988, 0.0266319363126577, -0.7208513907166025, -0.646353698083542, -0.6027264370066268], [0.5095781248348796, -0.15761622274759546, -0.5733851946109076, -0.8514860138427915, 0.43544393884467025, 0.4969560517874825, -0.18426248421883407, 0.10318002435768547, 0.8641585239008935, 0.6627641544453602, 0.09158328282997563, -0.4389815216893085], [0.8504460865731809, -0.0008924303783817145, 0.7065682139862914, 0.4724609181336312, 0.36849023360944444, 0.9406797806020744, 0.6900327570208633, 0.9859170240951345, 0.2837772049129712, 0.14257315664725878, -0.18290616324324294, 0.07958597390833866], [0.38682517156625074, 0.9671634574240664, 0.904737056278446, -0.7972265121768045, 0.5077061233029048, 0.19223734350892396, 0.7654815242608266, -0.7403488941150211, 0.1447037295227298, 0.2602557185370795, -0.3734750662735207, -0.7735068820917412]], "output_weights": [[0.11004336700708084, -0.29373745102860815, 0.6332644896541251, -0.7547120388848021], [-0.13275440054420273, 0.9535657324269127, -0.0952479023021473, -0.9324775900785378], [0.031728981810623225, 0.8917931386416935, -0.27828395318052324, -0.8298531354361203], [0.4171166166762217, 0.6417134641539186, -0.35581585000763893, 0.11981573653298838], [-0.6954202237036009, 0.1293686307191919, 0.8908798688142563, 0.2598444860576714], [0.49556957904523746, -0.7595550744124606, 0.6021881019363922, -0.8885486513458192], [-0.5868759594352024, 0.26784713003035976, 0.8268400502190156, -0.6047997327234438], [-0.4178591071728093, -0.2615076474447011, -0.7414470650669565, -0.4575748532632229], [0.9750851875893751, -0.29476760298538274, -0.9419279330378143, 0.4820159239851496], [-0.5739161616618849, -0.49231958107910123, 0.5379781265706864, 0.7581834456058507], [0.6772369315507074, -0.5739708966733208, -0.42621047003155477, 0.7391903045459667], [-0.8444468202090021, -0.019686332835957776, -0.2604528989385515, 0.5495067279559422]]}