{"hidden_weights": [[-0.6730221580453151, -0.23682501586166693, -0.7889696783077962, 0.9679373531032134, -0.8133899574983884, 0.46874977454664224, -0.34512902773049564, 0.9662548749926352, -0.22709465668071838, 0.7710481458072802, -0.9557240622211076, 0.10768121009761566], [0.04586172475135042, 0.1470440371450763, 0.00848143808414327, -0.8094926202368855, 0.35343144905182755, 0.5410448857187219, 0.8370683561863128, -1.0428984198184508, -0.5958853614071469, -1.040945563773019, 0.9817498053572971, -0.6926787454200247], [-0.10059912985838881, 0.5990775469088704, 0.22605673143345098, -0.2314579617741736, -0.7378779149757138, 0.697244946086397, 0.16986928018583214, 0.37138762133862335, 0.8231399416084902, -0.1934472710788322, 0.8362648214618886, 0.49959449018028607], [-0.17677496224946745, -0.3173040746582042, 0.9196712928536982, 0.7187690753483584, 0.38929217703008906, 0.7398668736873732, 0.5792514582359107, 0.1481878770467968, -0.9143049243479033, 0.14360349481195642, -0.7017135747548173, -1.084554619737584], [-0.2404962905108896, 0.6277605122353416, 0.9130802995492113, -0.6939956901719495, 0.4894005533072092, -0.5738261433394372, -1.006781436136556, -0.9011865453567889, 0.5494652278248806, -0.9870375719311986, 0.6206022617548725, 0.3048999315078844], [0.04221688157916903, 0.061460474292681644, -0.08080490434617182, -0.4725686126023587, -0.9779700419364905, -0.2690018292178957, 0.5181035848124955, -0.880522528001576, -0.9307202690797669, 0.15026994775894242, -0.013019781729008084, -0.2298697351371802], [-0.20394135997877072, -0.5619489500232366, -0.014255048481793958, 0.08423870849076398, 0.7254066067572991, -0.6393352022974227, -0.3685590417121678, 0.004966665151293428, -0.321759333051171, -0.24300851524647493, -0.6279523805683559, 0.3883350389202358], [0.8034760759999082, 0.6725814303843003, 0.19468220586986648, 0.24800281123502912, 0.7614725698641147, -0.4480004229911548, -0.08235114282415301, 0.5881277066283823, -0.5399479095953318, 0.7761927199912468, 0.40445325624652484, -0.6694749216633993]], "output_weights": [[0.02359523220981896, 0.8353268810007046, 0.03673481760720221, 0.979136593563886], [0.2831434850296099, -0.8195039929088196, 0.14852273048159792, -1.0421635458275187], [0.47041218617510794, -0.42442885935550545, 0.6863914638127888, 0.9023432985096265], [0.6534300585054648, -0.13950148894320025, -0.9892332156297785, 0.013557905392344123], [-0.5533530189576847, 0.8632052201865836, -0.5044962424054718, 0.4698718434376412], [-0.44758169458439695, -0.33560402548346513, 0.938078128157275, -0.4730799268950219], [-0.4359238067943192, -0.49293613553780213, 0.6151040431678585, -0.6369276304086833], [-0.28648089810903765, -0.6955021365114926, 0.7166300537146845, -0.3154636317275237], [0.8426079454789785, -0.6528684791744925, 0.2715019242866393, -0.5673541259193987], [0.002083215556531466, -0.3382541915437144, -0.10098283720594696, -0.603139233068557], [-0.8195048303487483, 0.38228390725322337, 0.65791054214303, -0.7413961792200836], [0.3838526849601154, -0.1037582572755646, 0.709190356072014, -0.48146187674083674]]}