{"hidden_weights": [[-0.5859828774615083, 0.009284767250427053, -0.8943167459861431, 0.9679373531032134, -1.0555426930840646, 0.12332757893283895, -0.06631185190424846, 0.8114422377059725, 0.011470660643056671, 0.7743886471905885, -0.8884970104551033, 0.2120519469816936], [0.0832120254335574, 0.036131629595770556, 0.00848143808414327, -0.7490200588434316, 0.09829232025372298, 0.19694824703172503, 1.1055175976278897, -1.073771358477913, -0.5809544102151822, -1.1231740870085858, 0.9817498053572971, -0.6589393354169687], [-0.10059912985838881, 0.6460219187544998, 0.03051062962818596, -0.18955286555541023, -0.6640653379982057, 0.5572683317118241, 0.16986928018583214, 0.4786599810348132, 1.0006683218511705, -0.06068259589239533, 1.007363663133383, 0.49959449018028607], [0.43251227798356084, -0.2051924333655371, 0.5751837753642698, 0.7100030107640884, 0.313094043315077, 0.11779647757001865, -0.004003511214988605, 0.9203161634862864, -1.057328292275359, 0.045981330458504666, -0.7017135747548173, -1.0880247138114556], [0.0042576102834922525, 0.7835692910829675, 0.9117553910664394, -0.8243830415050417, 0.5378792988815327, -0.5643689585771298, -1.0825896119449905, -0.971500271915833, -0.7604338437360326, 0.8164453900030658, 0.5718237938734541, 0.14515355688845358], [0.040919182676439445, 0.11307945328147329, -0.05467173193340846, -0.531181145600944, -0.9081470524622945, -0.2690018292178957, 0.6439246662323159, -1.205601870424908, -1.1381722121456674, 0.45560646298612106, -0.008355985710074093, -0.4375494029248775], [-0.453062429329223, -0.6302055816709208, -0.08817225940076345, 0.09116048982572789, 0.500895620645715, -0.5627429525830352, -0.38457432287469273, -0.0023098012905466182, -0.29434755977734267, -0.07466926130370742, -0.7467730080460089, 0.019727690964107876], [0.6656977125410897, 0.5526988299738975, 0.08436937534461508, 0.24800281123502912, 0.7614725698641147, -0.5109576229982553, -0.08235114282415301, 0.3531297304036244, -0.4881497100260359, 0.7761927199912468, 0.2998652145598228, -0.467660562353735]], "output_weights": [[-0.122812801492406, 0.7210605867052117, 0.27278926297888034, 1.2778307967886462], [0.15400023949088526, -0.843912137312723, 0.17139312375524873, -0.8275985786735855], [0.3594579699978634, -0.20147041521234518, 0.6863914638127888, 1.0344319633003047], [0.5007226163839227, -0.234677632597424, -0.9495408905921721, -0.07417983736312075], [-0.26839218754595234, 0.8691126960882741, -0.5645992160619343, 0.579442393225621], [-0.45645704438342877, -0.41559953698036206, 0.8311128874113641, -0.3643506562792407], [-0.3067266974324084, -0.49293613553780213, 0.42137535091582873, -0.6283541723383677], [-0.24014533568319796, -0.7412008385504789, 0.6169260765570326, -0.245656632871608], [0.8145250271478697, -0.7497120224398323, 0.2715621192391455, -0.8060860658660901], [-0.006620472730753413, -0.2033209105483686, -0.17385723424446764, -0.5597960794996912], [-0.6882769439976273, 0.3382125392664532, 0.6517244174459402, -0.6844921911512799], [0.5100213328065157, 0.08005400752626483, 0.6007328087239023, -0.5074651220565435]]}