{"hidden_weights": [[-0.6658009023552109, -0.15711070853838954, -0.9371944389892206, 0.9974993326257131, -0.9267830976693314, 0.46874977454664224, -0.25053609541980193, 1.0338473739486134, -0.18162744864422953, 0.733498591326203, -0.9557240622211076, 0.00676985130307696], [0.0732780706677941, 0.036131629595770556, 0.23033596745884705, -0.778908635404028, 0.331146009335503, 0.07097462463989766, 1.094994316901214, -1.082135661028066, -0.6124323069477441, -0.9627259592976203, 1.119114314612816, -0.818271846194077], [-0.20598465612194072, 0.5486691606689419, 0.1654851998039346, -0.27593537522528094, -0.7378779149757138, 0.7163405213816467, 0.16986928018583214, 0.37138762133862335, 1.0006683218511705, -0.24052210720961475, 0.8362648214618886, 0.49959449018028607], [-0.13377393687881434, -0.293242975265143, 0.791005051184489, 0.6665800897894673, 0.42121342671471784, -0.2025158771986708, -0.009145482702140228, 0.27919562460103475, -0.9143049243479033, 0.2642614977161145, -0.7232449918354262, -1.084554619737584], [-0.21738582831061823, 0.6277605122353416, 0.9130802995492113, -0.7317249424957346, 0.5547918385346642, -0.5738261433394372, -1.1132625982595357, -0.9830982338466685, -0.780312400084133, 0.730253268705468, 0.6206022617548725, 0.25569158913332235], [0.03320823426954851, 0.061460474292681644, -0.10108413195951668, -0.42923473464196715, -0.9779700419364905, -0.5165278583212902, 0.5181035848124955, -0.6464608847968376, -0.9307202690797669, 0.15026994775894242, -0.013019781729008084, -0.3033443260366431], [-0.33755080361279066, -0.7666503673593847, -0.2822604966153296, 0.24988645145142496, 0.7233128531267776, -0.6053455753704169, -0.28798870484458783, 0.01138211781292292, -0.321759333051171, -0.13802776472211753, -0.8032637245211509, 0.24787363177190702], [0.7753157168464561, 0.5478609174999339, 0.06359889237780192, 0.24800281123502912, 0.7080376248895343, -0.32744598588478646, 0.014769593964852792, 0.5881277066283823, -0.5399479095953318, 0.6824772806918376, 0.47692126560189374, -0.7137709123151845]], "output_weights": [[0.02359523220981896, 0.43591673081430693, 0.1536440191349711, 0.910437166007827], [0.20458031148188427, -0.7919598294679683, 0.13799127062904623, -0.8275985786735855], [0.47041218617510794, -0.2883417310086226, 0.5686085490956723, 0.9716478616990886], [0.49146779931146317, -0.3097606236702154, -0.88754726913226, -0.007335785025423022], [-0.5533530189576847, 0.842137402683877, -0.5044962424054718, 0.4698718434376412], [-0.46985952714866414, -0.33560402548346513, 0.9517447310786509, -0.48728608347335245], [-0.4615720540841884, -0.49293613553780213, 0.4661605697147176, -0.6369276304086833], [-0.0690595308939349, -0.6955021365114926, 0.7491664731929345, -0.245656632871608], [0.6274602460663646, -0.5035766369925523, 0.23178300186330772, -1.0189430595321132], [0.0603727687390595, -0.20999598990476076, 0.05435346029910987, -0.603139233068557], [-0.6369978595519993, 0.38228390725322337, 0.6830537873166398, -0.7413961792200836], [0.3838526849601154, -0.11207473827253651, 0.41923358758333196, -0.5458146870442008]]}