{"hidden_weights": [[-0.5093120112776472, 0.009930902501941272, -0.9371944389892206, 0.9040988888215753, -0.8930412785867127, 0.6173941791941432, -0.36805980276884764, 0.7518065965845695, -0.22709465668071838, 0.8227709935303483, -0.8117148291956836, 0.17214209681852827], [0.009203759960046284, 0.036131629595770556, -0.0928531611691234, -0.8094926202368855, 0.27594876488982845, 0.25465869467853564, 1.17072114461594, -1.16746224841998, -0.5694275440752872, -0.8227711540313585, 0.7957388644326904, -0.6021725190805906], [-0.020844873333286884, 0.8115809916047282, 0.1654851998039346, -0.2314579617741736, -0.5854759823068025, 0.5796432861974683, 0.4010296562849489, -0.34650504884513694, -0.5783781620351877, 1.1246688785908847, 1.1066090219331608, 0.49959449018028607], [0.5415832480903631, 0.00957593499725605, 0.5751837753642698, 0.7100030107640884, 0.42121342671471784, -0.10431138933433526, 0.0490324560720168, 0.30839898644571506, -0.7173878729977071, 0.14360349481195642, -0.6321649966388945, -0.982724780258796], [-0.23116213376233577, 0.7835692910829675, 0.9130802995492113, -0.8607845780208604, 0.5570988882171617, -0.5738261433394372, -1.006781436136556, -0.9164070067455682, -0.780312400084133, 0.8837759615110071, 0.6206022617548725, 0.18237517055817554], [0.03320823426954851, -0.13450354935491896, -0.25053966797391836, -0.4207668953204089, -0.8081798415171677, -0.2690018292178957, 0.7354946808770737, -0.880522528001576, -0.9307202690797669, 0.1413637062227964, -0.05533823366729841, -0.3033443260366431], [-0.47685071907112986, -0.7883146104110863, -0.2573892976912753, 0.15517036757415903, 0.7860286211562264, -0.5627429525830352, -0.38457432287469273, 0.0049005444446489615, -0.2516027073569138, -0.19719506164373343, -0.785434939038949, 0.04584987286257344], [0.8034760759999082, 0.576246639838113, 0.06359889237780192, 0.24800281123502912, 0.7080376248895343, -0.22741407369370056, -0.2294662463149506, 0.5881277066283823, -0.5399479095953318, 0.8469975409041759, 0.44669439973681196, -0.6694749216633993]], "output_weights": [[-0.04855686768005871, 0.7260879250913983, 0.3716798548696999, 1.087378878624057], [0.20458031148188427, -0.843912137312723, 0.004264081192177166, -0.8275985786735855], [0.3594579699978634, -0.20147041521234518, 0.6863914638127888, 1.0344319633003047], [0.5007226163839227, -0.234677632597424, -0.9495408905921721, 0.03882555423254812], [-0.6383636147935452, 0.7882726326406675, -0.5319217802335253, 0.4588909837561174], [-0.5546989567244809, -0.33560402548346513, 0.7272663703813508, -0.4730799268950219], [-0.4193358227152453, -0.6429626951090652, 0.5686514600377928, -0.6480996676015405], [-0.017402066462959873, -0.8338588043155313, 0.7688272204066742, -0.31687254372988716], [0.9062848064460038, -0.6528684791744925, -0.1561914326832784, -0.4209404798380453], [0.026995551366702893, -0.3382541915437144, 0.026043630484515343, -0.603139233068557], [-0.7154614945937972, 0.16809100753706951, 0.8139778229875347, -0.6362622344839135], [0.3838526849601154, -0.1037582572755646, 0.5624635423156205, -0.5423200037821991]]}