{"hidden_weights": [[-0.6730221580453151, -0.15711070853838954, -0.9371944389892206, 0.9679373531032134, -0.9541306910138608, 0.46874977454664224, -0.4110955784935566, 0.9662548749926352, -0.22709465668071838, 0.7710481458072802, -0.9557240622211076, 0.10768121009761566], [0.0732780706677941, 0.036131629595770556, 0.00848143808414327, -0.8040447745667152, 0.35343144905182755, 0.25465869467853564, 0.9890368355886898, -1.0428984198184508, -0.5958853614071469, -0.9627259592976203, 0.9817498053572971, -0.8673252401687611], [-0.10059912985838881, 0.5990775469088704, 0.1654851998039346, -0.2314579617741736, -0.7378779149757138, 0.697244946086397, 0.16986928018583214, 0.37138762133862335, 1.093639062343698, -0.22214974115973649, 0.8362648214618886, 0.49959449018028607], [-0.21264861487025438, -0.2747221898879866, 0.7785361000422947, 0.7187690753483584, 0.38769145819312256, 0.7398668736873732, 0.5792514582359107, 0.1481878770467968, -0.9143049243479033, 0.14360349481195642, -0.7017135747548173, -1.022312344639754], [-0.2404962905108896, 0.6277605122353416, 0.9130802995492113, -0.6939956901719495, 0.4894005533072092, -0.5738261433394372, -1.006781436136556, -0.9011865453567889, -0.7063342674228261, 0.6694464943818325, 0.6206022617548725, 0.10363993214007411], [0.04221688157916903, 0.061460474292681644, -0.10108413195951668, -0.42923473464196715, -0.9779700419364905, -0.2690018292178957, 0.5181035848124955, -0.880522528001576, -0.9307202690797669, 0.15026994775894242, -0.013019781729008084, -0.3033443260366431], [-0.20394135997877072, -0.745675729674074, -0.2822604966153296, 0.24988645145142496, 0.7254066067572991, -0.6393352022974227, -0.38457432287469273, 0.01138211781292292, -0.321759333051171, -0.2538090964044324, -0.785434939038949, 0.10283115118629774], [0.6702162337253803, 0.593504022120427, 0.06359889237780192, 0.24800281123502912, 0.7614725698641147, -0.32744598588478646, -0.08235114282415301, 0.5881277066283823, -0.5399479095953318, 0.7761927199912468, 0.47692126560189374, -0.6694749216633993]], "output_weights": [[0.02359523220981896, 0.6998112102703584, 0.2399520059569664, 0.979136593563886], [0.20458031148188427, -0.843912137312723, 0.14852273048159792, -0.8275985786735855], [0.47041218617510794, -0.3656332117770713, 0.6863914638127888, 0.8164560241192949], [0.4566181007539043, -0.13950148894320025, -0.9892332156297785, 0.00940482894758854], [-0.5533530189576847, 0.8632052201865836, -0.5044962424054718, 0.4698718434376412], [-0.44758169458439695, -0.33560402548346513, 0.938078128157275, -0.4060347246936242], [0.2905226180727001, 0.03415188915040668, -0.5886190488303154, 0.45976831160205167], [-0.28648089810903765, -0.6955021365114926, 0.7241995626820753, -0.31687254372988716], [0.8426079454789785, -0.6528684791744925, 0.05550031236999686, -0.8109985744247186], [0.03942538882390023, -0.20999598990476076, -0.1008937983377951, -0.5439000594969021], [-0.675638424479132, 0.47067756383314463, 0.65791054214303, -0.7413961792200836], [0.3838526849601154, 0.007575420105239136, 0.6087533293394805, -0.48146187674083674]]}