{"hidden_weights": [[-0.8271659903186274, -0.23682501586166693, -0.9462941720989018, 0.9679373531032134, -1.192370921322996, 0.46874977454664224, -0.21337069126774044, 0.9721388541255843, -0.3129886382809038, 0.7710481458072802, -0.9887355251665666, 0.24456454913127745], [-0.06363601893895286, 0.17852749823038358, 0.027454175948113172, -1.012450479046102, 0.395702210856801, 0.3578183694729671, 0.9890368355886898, -0.8186854981173063, -0.6543547636107201, -1.1550015652531105, 0.918887819373348, -0.6120164330854022], [-0.10059912985838881, 0.6460219187544998, 0.1654851998039346, -0.24206294496089392, -0.7295938230660037, 0.8751752593566633, 0.16986928018583214, -0.5161242738172824, -0.6146436448852028, -0.1934472710788322, 1.0581252706126438, -1.033835329862629], [0.7285442558461578, -0.2051924333655371, 0.833161442542484, 0.671839099102615, 0.45893139847649034, -0.06336533351227591, -0.03864786174944168, 0.15879853691175283, -0.9143049243479033, 0.14360349481195642, -0.7103250894735383, -1.4285652527264792], [-0.2404962905108896, 0.5819534672475888, 0.9130802995492113, -0.7044993389993868, 0.8979199493873578, -0.5804708082070247, -1.0092163650974089, -0.757627169884552, -0.780312400084133, 0.8612077275587251, 0.7023368115790246, 0.18237517055817554], [0.01444646675850467, 0.18602741899843772, -0.08080490434617182, -0.4207778862106109, -1.2253263287856984, -0.2690018292178957, 0.4689228155540496, -0.6121090189717507, -1.0889194010832175, 0.01800684649384819, -0.013019781729008084, -0.4393268534372057], [-0.3207718128388869, -0.8302768483791227, -0.32397889928687296, 0.275113414338776, 0.5893756065066416, -0.7060552903505977, -0.6129870562190478, -0.011398157899010351, -0.313122135495705, -0.1851734161983089, -0.785434939038949, 0.2975628021947811], [0.2890449023028647, 0.4441326960004365, -0.09515633420652511, 0.23988652503399382, 0.6598081405850261, -0.3434665247338749, -0.2294662463149506, 0.5881277066283823, -0.5399479095953318, 0.8469975409041759, 0.5506484904172071, -0.6603110342732867]], "output_weights": [[0.02359523220981896, 0.6746443485902268, 0.06750107721107898, 0.979136593563886], [0.20458031148188427, -0.7631529124633393, 0.14852273048159792, -0.8275985786735855], [0.413094636803461, -0.28397351856622716, 0.6863914638127888, 0.9716478616990886], [0.49146779931146317, -0.24174019731694305, -0.88754726913226, -0.007335785025423022], [-0.5533530189576847, 0.7681634363935469, -0.5044962424054718, 0.4698718434376412], [-0.46985952714866414, -0.33560402548346513, 0.8311128874113641, -0.4730799268950219], [-0.3067266974324084, -0.49293613553780213, 0.5896053459417505, -0.6369276304086833], [-0.28369296103007685, -0.7412008385504789, 0.7092565473139123, -0.245656632871608], [0.8426079454789785, -0.7497120224398323, 0.05550031236999686, -0.7818736268673969], [-0.006620472730753413, -0.20999598990476076, 0.02398465665433966, -0.605794942085992], [-0.6378286510679735, 0.3382125392664532, 0.65791054214303, -0.6362622344839135], [0.43975044329986857, -0.1037582572755646, 0.5624635423156205, -0.5423200037821991]]}