{"hidden_weights": [[-0.8271659903186274, -0.23682501586166693, -1.1045208551156898, 0.9679373531032134, -1.192370921322996, 0.4385374722784574, -0.13646755596411952, 0.899961520444514, -0.2225859885023232, 0.6180712504524946, -0.9557240622211076, 0.16515852274138776], [0.08902619590386285, 0.08850657050687237, 0.00848143808414327, -0.7385523392877515, 0.43186250581756713, 0.25465869467853564, 0.9890368355886898, -0.8985923552252543, -0.6347429190778422, -0.9627259592976203, 0.79628815086073, -0.5402406460301952], [-0.26416630914092115, 0.7744060911632075, 0.1654851998039346, -0.19057689140496337, -0.7634046342712075, 0.6738375270650485, -0.12246315681676032, 0.37138762133862335, 0.8231399416084902, -0.04960618892917794, 0.7501198943016536, 0.46231206386228124], [-0.21264861487025438, -0.293242975265143, 0.6781695204610274, 0.8360670569595396, 0.42121342671471784, -0.2025158771986708, -0.009145482702140228, 0.17403828014643596, -0.9723855817382554, 0.2642614977161145, -0.605878323588374, -1.084554619737584], [-0.25074854832224097, 0.6277605122353416, 0.6629002282489755, -0.6939956901719495, 0.4894005533072092, -0.5512031103166434, -0.9836170998245932, -0.8249823534231375, -0.7966647087619658, 0.6694464943818325, 0.6330524710714569, 0.08432528696948063], [0.1693108444812735, 0.03352102289293362, -0.10108413195951668, -0.42923473464196715, -0.9611089645990822, -0.2574631863852171, 0.5378044339610976, -0.9800494948579115, -0.9307202690797669, 0.15026994775894242, -0.10379300880403239, -0.4164512549651647], [-0.20394135997877072, -0.693085690706256, -0.08836384739612921, 0.2984988744405883, 0.7254066067572991, -0.6393352022974227, -0.38457432287469273, 0.01138211781292292, -0.09629615164321007, -0.258558060652513, -0.785434939038949, 0.10283115118629774], [0.6702162337253803, 0.593504022120427, -0.08654961792310628, 0.24800281123502912, 0.7614725698641147, -0.4480004229911548, -0.20231050617204438, 0.638728325050296, -0.4777934007960272, 0.7943321106606609, 0.47692126560189374, -0.7787041859059965]], "output_weights": [[0.10423650142912173, 0.739692956054931, 0.2399520059569664, 1.2541437667594906], [0.2744674370235297, -0.8600341863157355, 0.25691731756954095, -1.0108801239835041], [0.4737686966834521, -0.42442885935550545, 0.6019616914465838, 0.9023432985096265], [0.3649762349341233, -0.13950148894320025, -0.9892332156297785, -0.07417983736312075], [-0.4600786227943055, 0.7887475854171697, -0.5645992160619343, 0.4698718434376412], [-0.44758169458439695, -0.33560402548346513, 0.938078128157275, -0.3706079131748602], [-0.4359238067943192, -0.49293613553780213, 0.47330773045201435, -0.49232611367172263], [-0.28648089810903765, -0.7193840584298307, 0.8362632079403871, -0.31687254372988716], [0.9397760394920254, -0.7502580906904978, 0.05550031236999686, -0.6437524761951643], [0.002083215556531466, -0.3382541915437144, -0.1008937983377951, -0.603139233068557], [-0.7527096049718431, 0.38228390725322337, 0.8061259839681169, -0.8021850399695623], [0.4825179287870741, -0.1037582572755646, 0.6087533293394805, -0.48146187674083674]]}