{"hidden_weights": [[-0.6730221580453151, -0.23682501586166693, -0.9371944389892206, 0.9679373531032134, -0.8133899574983884, 0.46874977454664224, -0.4110955784935566, 0.8731244798092971, -0.22709465668071838, 0.7710481458072802, -0.9557240622211076, 0.10768121009761566], [0.04586172475135042, 0.1414445765238186, 0.00848143808414327, -0.8094926202368855, 0.35343144905182755, 0.5962923569003802, 0.8370683561863128, -0.9509984964838558, -0.5958853614071469, -1.1232500547143354, 0.9817498053572971, -0.7587156793027472], [-0.10059912985838881, 0.5990775469088704, 0.1654851998039346, -0.2314579617741736, -0.7378779149757138, 0.7403363111612126, 0.16986928018583214, 0.37138762133862335, 1.0006683218511705, -0.1934472710788322, 0.8362648214618886, 0.49959449018028607], [-0.21264861487025438, -0.21169101609185353, 0.791005051184489, 0.7187690753483584, 0.38769145819312256, 0.7398668736873732, 0.5792514582359107, 0.1481878770467968, -0.9143049243479033, 0.18604378884313288, -0.7017135747548173, -1.084554619737584], [-0.2404962905108896, 0.6277605122353416, 0.9130802995492113, -0.6939956901719495, 0.4894005533072092, -0.6111463747593486, -1.223548347559996, -0.9011865453567889, -0.7063342674228261, 0.6842154225929356, 0.5217647237559699, 0.18237517055817554], [0.04221688157916903, 0.061460474292681644, -0.10108413195951668, -0.3814258757957701, -0.8712161010717204, -0.2690018292178957, 0.5181035848124955, -0.880522528001576, -0.9307202690797669, 0.15026994775894242, -0.013019781729008084, -0.3856171873214109], [-0.20394135997877072, -0.667141904200039, -0.08817225940076345, 0.24988645145142496, 0.7679883101712043, -0.6393352022974227, -0.38457432287469273, 0.01138211781292292, -0.321759333051171, -0.24300851524647493, -0.785434939038949, 0.24787363177190702], [0.8034760759999082, 0.5478609174999339, 0.06359889237780192, 0.24800281123502912, 0.7614725698641147, -0.32744598588478646, -0.08235114282415301, 0.5881277066283823, -0.5683030255661218, 0.7761927199912468, 0.47692126560189374, -0.6694749216633993]], "output_weights": [[0.02359523220981896, 0.6998112102703584, 0.03673481760720221, 0.979136593563886], [0.20458031148188427, -0.8600341863157355, 0.25691731756954095, -1.0421635458275187], [0.47041218617510794, -0.42442885935550545, 0.6863914638127888, 0.9023432985096265], [0.6421174163464878, -0.04968656644778045, -0.9703561289033726, 0.00940482894758854], [-0.5533530189576847, 0.8632052201865836, -0.5044962424054718, 0.4698718434376412], [-0.44758169458439695, -0.33560402548346513, 0.938078128157275, -0.4669821746210059], [-0.6629961671776908, -0.4765414520944028, 0.6151040431678585, -0.6369276304086833], [-0.28648089810903765, -0.6955021365114926, 0.7160951339396538, -0.31687254372988716], [0.8426079454789785, -0.6528684791744925, 0.05550031236999686, -0.8109985744247186], [0.002083215556531466, -0.20999598990476076, -0.1008937983377951, -0.603139233068557], [-0.6369978595519993, 0.47067756383314463, 0.65791054214303, -0.7413961792200836], [0.3838526849601154, -0.1037582572755646, 0.6087533293394805, -0.48146187674083674]]}