{"hidden_weights": [[-0.4776566101921323, 0.24637209590131787, -0.704546915675698, 0.8598869774206875, -1.262214040519675, 0.19713572471840357, 0.2537901124263551, 0.8114422377059725, -0.10680547109843187, 0.7002783119518547, -0.9361582344665275, 0.2999924469246348], [-0.00037250370994290627, -0.06844552597634537, 0.024270003150734895, -1.2488961298907861, 0.345307198367646, 0.26297475913219803, 1.0321865977044804, -0.8770394877879906, -0.5809544102151822, -0.6112143894648585, 0.8670468708731598, -0.8053886290758796], [-0.295862620169315, 0.6513715428280442, 0.1948760458505106, -0.6121226597522891, -0.6190480229184963, 0.9845615384841404, 0.038941856059341765, -0.49217428598814156, -0.4470653741249463, -0.1934472710788322, 0.8362648214618886, 0.6138535074340172], [0.6046019044975233, -0.4878063437768367, 0.8409882612304368, 0.6888654896205714, 0.5647667410732814, -0.019930977940794216, -0.08322344463109385, 0.5101394191660086, -0.9143049243479033, 0.16285855369071978, -0.9359670373811133, -1.2786262630957506], [-0.24557264802546558, 0.6213844144929666, 0.8212169564718654, -0.5905308133355117, 0.5238346735682734, -0.5670344665880156, -1.2657555337891473, -0.7657967890037071, -0.6452602747497971, 0.9801691626065694, 0.5537783826433027, 0.14515355688845358], [0.1465872911571928, 0.06173314568604009, -0.24118939460696923, -0.49452039465665387, -0.9826625796629798, -0.05144541257350657, 0.49162041819301927, -1.0026680340186456, -1.1278939743178453, 0.11116700415474871, -0.09847301666730476, -0.22964195883256122], [-0.5353223021053092, -0.9319828349642524, -0.3116637806640027, 0.19660886280988354, 0.8594938649072162, -0.4221992174762643, -0.43188710293764887, -0.325089631403024, -0.29434755977734267, -0.07466926130370742, -0.7539717828153666, 0.2802192076870257], [0.28837052573531313, 0.576246639838113, -0.3424333125191262, 0.24800281123502912, 0.609713247335693, -0.3443587842589942, -0.03155778199466768, 0.6017159287492947, -0.5399479095953318, 0.8469975409041759, 0.6834974581503576, -0.6758558989211548]], "output_weights": [[0.07299625016958045, 0.7428823894625918, 0.179055357356689, 1.3523620012456965], [0.15400023949088526, -0.843912137312723, 0.004264081192177166, -1.1234946299116786], [0.3584655872618639, -0.20147041521234518, 0.6863914638127888, 1.0344319633003047], [0.6430820887912436, -0.3248708603960838, -0.7768719178080591, -0.14863614847822915], [-0.26839218754595234, 0.8570938480186076, -0.49108668743561645, 0.42354115593818986], [-0.45645704438342877, -0.3905931539090613, 0.9234042726475804, -0.44982972297943935], [-0.35246419213715036, -0.33259273870209777, 0.20418137141577575, -0.7721876021172912], [-0.044286910585508245, -0.5896041214271963, 0.5606115491717207, -0.3139116653623704], [0.6837204964822764, -0.6990811246432325, -0.09813880018137114, -0.7290659934769187], [-0.006620472730753413, -0.20999598990476076, 0.02398465665433966, -0.7358660395296089], [-0.5340003977934444, 0.39946874551236383, 0.7296353687619744, -0.5694280826410487], [0.1409533596454171, -0.14354352131563253, 0.5156770903387228, -0.47158317758305285]]}