{"hidden_weights": [[-0.7375131479974986, -0.24795714804451613, -1.156466932649842, 0.9423681087845933, -0.8894271700674662, 0.5126048030820426, 0.03773844644552893, 0.899961520444514, -0.23350590257919351, 0.7743886471905885, -0.7605424459194904, -0.022478866278691098], [0.12587969165814603, -0.04114456791848031, -0.12422198084552036, -0.7096327931720319, 0.6252076970169839, 0.23860673962379053, 0.7684706954853613, -0.6404966621774136, -0.6543547636107201, -1.1231740870085858, 0.9984551654728758, -0.6589393354169687], [-0.14055101108979562, 0.6460219187544998, 0.03051062962818596, -0.2449784522311081, -0.6447977580388436, 0.6607559017193347, 0.16986928018583214, 0.4449704410903025, 1.0006683218511705, -0.06068259589239533, 0.6241026102965129, 0.49959449018028607], [0.7883067660174985, -0.16823515338032247, 0.8951432443285036, 0.5041904786674407, 0.4807351129468615, -0.04076798951577888, 0.02591953467673902, 0.7118891330744395, -1.1168746157157263, 0.071999418023142, -0.9786476165126465, -1.068470117005942], [-0.13210017337621566, 0.851273758419089, 0.8212169564718654, -0.5905308133355117, 0.4510877589621312, -0.37124122773157375, -1.006781436136556, -0.5432307169284645, -0.7063342674228261, 0.7268317945799464, 0.6067142692265998, 0.16868931458063668], [-0.06007879414886609, 0.22526348196032958, -0.3072037916070864, -0.4975483341957491, -0.6154391908777824, -0.192858129025831, 0.628516328813101, -0.9402312368219727, -0.8946205545109767, 0.07905659315820818, -0.26389909426205305, -0.2881043517050796], [-0.47685071907112986, -0.3890773614466817, -0.2573892976912753, 0.1139132650324978, 0.7860286211562264, -0.5627429525830352, -0.3462813382711796, 0.01661851726014124, -0.38488089819144455, -0.07466926130370742, -0.6729906792820097, 0.05215951818897785], [0.5678865858067751, 0.576246639838113, -0.06483184345601156, 0.24800281123502912, 0.7614725698641147, -0.5109576229982553, -0.08235114282415301, 0.4614608254190097, -0.4881497100260359, 0.6564990349536626, 0.2998652145598228, -0.46633234674805174]], "output_weights": [[-0.14813710474912065, 0.8985699639210725, -0.07812921341680054, 0.979136593563886], [0.09301291498713116, -0.8527704801743897, 0.0016790514305741466, -0.9397441931893823], [0.4008773683194109, -0.4116477781556781, 0.6776409190383549, 0.9716478616990886], [0.5967510380677759, -0.387247030245277, -0.911953349079606, 0.3069715753483203], [-0.7005893573096197, 0.8632052201865836, -0.6468331820491637, 0.4698718434376412], [-0.5369549798105547, -0.29449907012100635, 0.9405824319522749, -0.3643506562792407], [-0.2465483259660828, -0.49293613553780213, 0.39375491836781507, -0.6283541723383677], [-0.28369296103007685, -0.5896041214271963, 0.7688272204066742, -0.22443710792150784], [0.6837204964822764, -0.7497120224398323, -0.0005692828070317374, -0.7002734033124569], [0.1433052707739328, -0.22324061308425258, 0.06898024784856252, -0.6570356767298157], [-0.6491865350390816, 0.2924484920290485, 0.65791054214303, -0.6362622344839135], [0.2787115185671282, -0.11882208174265342, 0.7365100303802286, -0.5074651220565435]]}