{"hidden_weights": [[-0.8271659903186274, -0.23682501586166693, -0.9462941720989018, 0.9679373531032134, -1.192370921322996, 0.46874977454664224, -0.21337069126774044, 0.899961520444514, -0.3129886382809038, 0.7710481458072802, -0.9887355251665666, 0.3075477398808401], [-0.06363601893895286, 0.026932698127420617, 0.027454175948113172, -1.012450479046102, 0.395702210856801, 0.3037716780461717, 0.9890368355886898, -0.8186854981173063, -0.6543547636107201, -1.1550015652531105, 0.9817498053572971, -0.6589393354169687], [-0.10059912985838881, 0.6460219187544998, 0.1654851998039346, -0.24206294496089392, -0.7295938230660037, 0.697244946086397, 0.16986928018583214, -0.5282344657533308, -0.5498580149392194, -0.1934472710788322, 1.0581252706126438, -1.033835329862629], [0.7285442558461578, -0.2051924333655371, 0.833161442542484, 0.671839099102615, 0.45893139847649034, -0.06336533351227591, -0.03864786174944168, 0.7118891330744395, -0.9143049243479033, 0.023585810984819024, -0.9251573005292647, -1.1226426528370517], [-0.25368285106778055, 0.6277605122353416, 0.7795140551693865, -0.6939956901719495, 0.5378792988815327, -0.39084217846241587, -1.006781436136556, -0.8752915873162878, -0.7419499357648032, 0.7946086649978171, 0.5718237938734541, 0.16868931458063668], [-0.06007879414886609, 0.11307945328147329, -0.055563787861943825, -0.4963573812551774, -0.6781544501358435, -0.2690018292178957, 0.5814835023144356, -0.7520768567515679, -0.9307202690797669, 0.15026994775894242, -0.06015858493310339, -0.38308090862572464], [-0.1912635240528728, -0.667141904200039, -0.08817225940076345, 0.15517036757415903, 0.8552905208310848, -0.474356397995806, -0.38457432287469273, 0.0049005444446489615, -0.321759333051171, -0.19719506164373343, -0.785434939038949, 0.3037900161114628], [0.9759749240756249, 0.7272894096448357, 0.0535401631981824, 0.3511853202622797, 0.6609424991857504, -0.40994874276643184, -0.08235114282415301, 0.5881277066283823, -0.7586378854011926, 0.7761927199912468, 0.4191831863589216, -0.6694749216633993]], "output_weights": [[0.02359523220981896, 0.7574052410526034, 0.06750107721107898, 0.979136593563886], [0.20458031148188427, -0.7419371421567755, 0.14852273048159792, -0.8275985786735855], [0.413094636803461, -0.42442885935550545, 0.6863914638127888, 0.9716478616990886], [0.4566181007539043, -0.1384230593351952, -0.9892332156297785, 0.00940482894758854], [-0.49410898118844115, 0.8632052201865836, -0.6013774904872026, 0.40542201787198795], [-0.4651217648063746, -0.2450547948964462, 0.8993207329662973, -0.4216941150810969], [-0.4359238067943192, -0.5142054967693739, 0.700448795842, -0.3184168772272812], [-0.28648089810903765, -0.5596000482866701, 0.8475268829296261, -0.31687254372988716], [0.8426079454789785, -0.35422835734345, -0.1561914326832784, -0.5673541259193987], [0.026995551366702893, -0.4234369732946987, -0.01899830598731085, -0.603139233068557], [-0.6369978595519993, 0.47067756383314463, 0.7905613202115055, -0.7467993875583411], [0.49186345410227694, 0.007575420105239136, 0.41098577578212664, -0.5346646475568232]]}