{"hidden_weights": [[-0.4805706499981278, -0.021980158457737542, -1.096577010647813, 1.1179949397029678, -0.9541306910138608, 0.46874977454664224, -0.4110955784935566, 0.9662548749926352, -0.22709465668071838, 0.8430877805713718, -0.8995633077108932, 0.10781381648244229], [0.15989016980338788, 0.1984627273268249, -0.0928531611691234, -0.8094926202368855, 0.19779955012218828, 0.25465869467853564, 1.1585819185051793, -1.16746224841998, -0.5694275440752872, -0.8227711540313585, 0.7957388644326904, -0.6021725190805906], [-0.16395607152367903, 0.7744060911632075, 0.1654851998039346, -0.2314579617741736, -0.5854759823068025, 0.6737401014434367, 0.4010296562849489, -0.34650504884513694, -0.5783781620351877, 1.1246688785908847, 1.2753880026875088, 0.49959449018028607], [0.6757829272463298, 0.00957593499725605, 0.5751837753642698, 0.7100030107640884, 0.42121342671471784, -0.06336533351227591, -0.03864786174944168, 0.7118891330744395, -0.8739332738771227, 0.16285855369071978, -0.7856731934891134, -1.084554619737584], [0.09047344978008878, 0.592367765776004, 0.7795140551693865, -0.7168428754939788, 0.6044759251654608, -0.6763581934659627, -1.006781436136556, -0.6536819518168491, -0.7063342674228261, 0.8165861124378553, 0.5718237938734541, 0.35094746148794176], [-0.03615596813196853, 0.20574473455193903, -0.055563787861943825, -0.19481948609884725, -0.8218090178582605, -0.2690018292178957, 0.5075554715523762, -1.0341830871054947, -1.1230310189001311, 0.15026994775894242, -0.09847301666730476, -0.37140663311837385], [-0.20394135997877072, -0.667141904200039, -0.08817225940076345, 0.19660886280988354, 0.7254066067572991, -0.5627429525830352, -0.38457432287469273, -0.011398157899010351, -0.313122135495705, -0.1851734161983089, -0.785434939038949, 0.2975628021947811], [0.33914046818202387, 0.4441326960004365, -0.09515633420652511, 0.23988652503399382, 0.6598081405850261, -0.35270711856717807, -0.46540172939155605, 0.5881277066283823, -0.5399479095953318, 0.8469975409041759, 0.4456635129035554, -0.6603110342732867]], "output_weights": [[0.13118109888574084, 0.6840188663150931, 0.1709797177099303, 0.979136593563886], [0.26046481888348993, -0.7419371421567755, 0.14852273048159792, -0.8275985786735855], [0.5227088045155667, -0.13697812027766415, 0.8285565166245616, 0.8272900119348444], [0.5903969756886188, -0.387247030245277, -1.1468977631987298, -0.07417983736312075], [-0.3524009183630101, 0.8691126960882741, -0.5645992160619343, 0.4698718434376412], [-0.45645704438342877, -0.33560402548346513, 0.938078128157275, -0.3706079131748602], [-0.4359238067943192, -0.5850697376873096, 0.47330773045201435, -0.4007677680748035], [-0.28648089810903765, -0.5596000482866701, 0.8475268829296261, -0.31687254372988716], [0.7523559858596065, -0.6170049770109802, -0.31366413105568325, -0.6755832036213337], [-0.009810435786949658, -0.4234369732946987, -0.08750894879987899, -0.47523396629347253], [-0.5362566127707806, 0.4505285769937945, 0.65791054214303, -0.7413961792200836], [0.4825179287870741, -0.1037582572755646, 0.5624635423156205, -0.4377787802954155]]}