{"hidden_weights": [[-0.7502345549176768, -0.23682501586166693, -0.9371944389892206, 0.9679373531032134, -0.8899867797230624, 0.2901543244310347, -0.4110955784935566, 0.9662548749926352, -0.22709465668071838, 0.7710481458072802, -0.9557240622211076, 0.10768121009761566], [-0.09634932174810334, 0.051805731833828916, -0.050981188254831535, -0.7486147537289052, 0.35343144905182755, 0.24650233900092028, 0.6900400985773409, -1.0297445044496027, -0.5958853614071469, -0.9627259592976203, 0.9817498053572971, -0.7587156793027472], [-0.2926609005290712, 0.7744060911632075, 0.1654851998039346, -0.2314579617741736, -0.7378779149757138, 0.697244946086397, 0.03666962494966039, -0.531110031319467, -0.5498580149392194, 0.9867666632789177, 0.9902996385793625, -0.6671073506633678], [0.5983070425582704, -0.033317480290620226, 0.6950993769928788, 0.7100030107640884, 0.42121342671471784, -0.06336533351227591, -0.03864786174944168, 0.7118891330744395, -0.9143049243479033, 0.14360349481195642, -0.4438364368161529, -1.0823971695779322], [-0.2404962905108896, 0.6277605122353416, 0.9130802995492113, -0.6939956901719495, 0.5244155509913391, -0.5738261433394372, -0.8626919616356815, -0.9175812791257975, -0.7063342674228261, 0.8630939726055493, 0.6495142484144972, 0.15435673738030997], [0.01444646675850467, 0.061460474292681644, -0.08080490434617182, -0.42923473464196715, -0.9866924460927463, -0.2581427318768934, 0.5181035848124955, -0.880522528001576, -1.0112945678790533, 0.1772112725399988, -0.12114026452195491, -0.3033443260366431], [-0.20394135997877072, -0.745675729674074, -0.2822604966153296, 0.24988645145142496, 0.6832946000528218, -0.6393352022974227, -0.38457432287469273, 0.01138211781292292, -0.321759333051171, -0.2538090964044324, -0.878674571601006, 0.10283115118629774], [0.6702162337253803, 0.593504022120427, 0.06359889237780192, 0.24727244279713917, 0.7899045454100737, -0.40994874276643184, -0.08235114282415301, 0.5881277066283823, -0.5399479095953318, 0.7684457816114569, 0.47692126560189374, -0.6694749216633993]], "output_weights": [[0.02359523220981896, 0.6998112102703584, -0.08589744014887259, 0.979136593563886], [0.20458031148188427, -0.843912137312723, 0.14852273048159792, -0.8275985786735855], [0.6839665663932485, -0.25532315693241475, 0.6863914638127888, 0.9023432985096265], [0.4566181007539043, -0.047573197445566595, -0.9892332156297785, 0.00940482894758854], [-0.5533530189576847, 0.8632052201865836, -0.5645992160619343, 0.4698718434376412], [-0.5546989567244809, -0.33560402548346513, 0.938078128157275, -0.4730799268950219], [-0.4359238067943192, -0.49293613553780213, 0.6151040431678585, -0.5008419840154944], [-0.2990111754030362, -0.4623613736273665, 0.8362632079403871, -0.31687254372988716], [0.9419326067573451, -0.6528684791744925, -0.1561914326832784, -0.5673541259193987], [0.026995551366702893, -0.3382541915437144, -0.01899830598731085, -0.603139233068557], [-0.6369978595519993, 0.38228390725322337, 0.65791054214303, -0.8021850399695623], [0.32909986136389807, -0.1037582572755646, 0.6087533293394805, -0.48146187674083674]]}