{"hidden_weights": [[-0.4805706499981278, 0.007356952018330115, -0.9371944389892206, 1.0193938906402233, -0.9541306910138608, 0.5958060086918178, -0.41598996723620957, 0.9662548749926352, -0.402319321865599, 0.7710481458072802, -0.9557240622211076, 0.10768121009761566], [-0.03330323873235644, 0.036131629595770556, -0.0928531611691234, -0.8094926202368855, 0.34220795181211294, 0.3825128204029098, 0.9552000532324691, -1.0428984198184508, -0.5191587513944154, -0.7657139295284363, 0.9817498053572971, -0.7584855200860241], [-0.2885549077813862, 0.7744060911632075, 0.1654851998039346, -0.3268127342439975, -0.7378779149757138, 0.6280823376465798, 0.37537842100273644, -0.5282344657533308, -0.5498580149392194, -0.1934472710788322, 1.048915335834505, -0.8186469501343172], [0.7285442558461578, 0.12071699388833473, 0.5751837753642698, 0.678883056901036, 0.42121342671471784, 0.2216337779632065, 0.5792514582359107, 0.24044571824110642, -1.0170098835648274, 0.13923722481709297, -0.7017135747548173, -1.084554619737584], [-0.2404962905108896, 0.7120432503261411, 1.1328697118986732, -0.7411006290119148, 0.40482590375181554, -0.7399015346195635, -1.1233475630897314, -0.971500271915833, -0.7235872886061517, 0.8348582782072773, 0.7054185065247351, 0.18237517055817554], [0.03821004978846156, 0.24369794669910358, -0.10108413195951668, -0.42923473464196715, -0.9779700419364905, -0.6937933929869731, 0.5181035848124955, -0.5467725860950936, -0.9307202690797669, 0.19744259465294006, -0.05200192977456534, -0.2325790100992831], [-0.33755080361279066, -0.6753435003416074, -0.2855556446632546, 0.24988645145142496, 0.6650771565361528, -0.6053455753704169, -0.28798870484458783, 0.01138211781292292, -0.321759333051171, -0.13802776472211753, -0.8032637245211509, 0.24787363177190702], [0.7753157168464561, 0.5117074811488799, 0.06359889237780192, 0.24800281123502912, 0.7080376248895343, -0.32744598588478646, 0.014769593964852792, 0.5881277066283823, -0.5399479095953318, 0.7401991963238509, 0.47692126560189374, -0.7137709123151845]], "output_weights": [[0.046829586394513206, 0.6840188663150931, 0.1709797177099303, 0.979136593563886], [0.20458031148188427, -0.8600341863157355, 0.12877622322572033, -1.2705574475864112], [0.47041218617510794, -0.35466642256032466, 0.5686085490956723, 0.9716478616990886], [0.49146779931146317, -0.11809374368413589, -0.9413290538124918, 0.12251302550960434], [-0.5533530189576847, 0.715908898991733, -0.5044962424054718, 0.49627051379251125], [-0.5546989567244809, -0.5095887386427487, 0.938078128157275, -0.4730799268950219], [-0.4359238067943192, -0.40103864837073655, 0.6151040431678585, -0.6480996676015405], [-0.28648089810903765, -0.4623613736273665, 0.8362632079403871, -0.30517721465288294], [0.8426079454789785, -0.6528684791744925, -0.1561914326832784, -0.5673541259193987], [0.057552785950682014, -0.3382541915437144, -0.08750894879987899, -0.5216759987055296], [-0.6226796435794241, 0.38228390725322337, 0.5532559991745071, -0.7413961792200836], [0.3838526849601154, -0.11207473827253651, 0.41923358758333196, -0.5458146870442008]]}