{"hidden_weights": [[0.3023128126714578, -0.952263027020793, 0.23334523379621305, 0.7518076738992241, -0.2618391766507209, -0.35933553424474196, -0.5199507231575315, -0.7341018238890595, 0.355153458399907, -0.2787789512175247, 0.21393063989197447, -0.9023487314476057], [-0.16429884088424784, -0.2320287392854652, -0.521964279033531, -0.20242207989101013, -0.8191209008354887, -0.700074046448822, 0.2481740924937994, -0.09525806138732373, 0.9553943560894065, 0.25451327487715303, -0.24982855730735132, 0.22963077209202276], [0.7449756416970301, 0.16817551414285425, 0.8163398220730027, 0.9975501050741107, 0.16585470537543245, -0.21836231172600074, 0.48587993770168736, 0.8869023071479503, 0.024694769575154707, -0.29110327691070936, 0.123871486363204, -0.9300648120209843], [0.03286393645349084, 0.40673800129592563, -0.19219390897057576, 0.9856545725808805, 0.26881976430410104, 0.7398668736873732, 0.5792514582359107, 0.1481878770467968, -0.9143049243479033, 0.07767732908239178, -0.7017135747548173, -0.9955997387029212], [-0.2404962905108896, 0.6277605122353416, 0.9130802995492113, -0.3835325876496143, -0.6991149504015506, 0.2855351157461963, -0.9004046172267108, 0.5094688950999995, -0.7288834263061947, -0.56866449460324, -0.6477611864515307, -0.7443120962419314], [-0.38701046233185177, 0.7270896162041496, 0.9492887193419117, 0.4179218167419907, 0.7466755060356942, -0.14505443077040692, 0.4783609691662958, -0.9123346407122841, -0.44347175409840345, 0.9934274705192594, -0.9318716723735876, -0.2869882280762488], [-0.9140112314493343, 0.811809274673805, 0.9706752199838522, 0.2195144213932949, -0.994261419924616, -0.5813152540485917, -0.4861622788664812, 0.9065417836581167, 0.03403856573694064, -0.21614744549437703, -0.32011824521628185, 0.6637097407105228], [-0.9600252076416511, -0.698123840029043, -0.22753270221998667, 0.261459254337403, -0.9571475091965587, -0.07804897194745308, 0.02855288949300501, 0.2574662638570149, 0.6654247045750561, 0.9481424495582973, 0.2953272624406249, 0.26993168868205]], "output_weights": [[0.10910877557192666, 0.810142374072673, 0.6811717453308821, -0.4196368450948798], [0.27278953079094825, -0.828379747975751, 0.14852273048159792, 0.3909929549003843], [-0.008915981078097435, -0.08392933560409732, 0.4269803663406724, -0.9131421217489892], [-0.3698341998908894, -0.9751152184639609, 0.23393740499587445, 0.6015592700929175], [0.9719663374965409, -0.0724946715418604, 0.09058214555085864, 0.7358348072969132], [-0.8055845027703601, 0.9929036642895173, -0.2288251483346304, 0.42069153484837374], [0.0715694485470979, -0.6060315270900927, 0.5619828395276278, 0.17497061576122785], [-0.6619001733905463, 0.26479411800696506, -0.7139382030969093, 0.2951902132840105], [-0.3062855795382675, 0.9014565775725716, 0.10309770051363709, -0.568623483723582], [0.8373017659455542, 0.4319643522799159, 0.48157111413672804, -0.4109404355914521], [-0.718155954574426, -0.927196199938439, -0.6798564329392305, -0.34430972829135875], [-0.8413823424060543, 0.977301852403055, 0.023387608265436066, -0.7409839718674038]]}