{"hidden_weights": [[0.8977041438189899, -0.3664857702672053, -0.9685880932935114, -0.5642596224445735, -0.12020980078025276, 0.3665812377305955, -0.7228260273960585, 0.005375217774061802, 0.7061307582850085, 0.4793890942078297, -0.9562763561984569, -0.06436848233706494], [-0.34615554493418177, 0.2033392844917711, 0.037327012080737854, -0.8094926202368855, 0.35343144905182755, 0.20030240960906798, 0.8370683561863128, -0.9509984964838558, -0.5958853614071469, -0.9627259592976203, 0.9817498053572971, -0.6162466444148117], [-0.10059912985838881, 0.6460219187544998, 0.1654851998039346, -0.20006285826655446, -0.7378779149757138, 0.697244946086397, 0.16986928018583214, -0.531110031319467, -0.5498580149392194, 0.9287306981738075, 0.9902996385793625, -0.8186469501343172], [0.5983070425582704, -0.11664687786683592, 0.6950993769928788, 0.7100030107640884, 0.42121342671471784, -0.06336533351227591, -0.03864786174944168, 0.7118891330744395, -0.0573248264983911, -0.9979475056033613, -0.7611546105984779, 0.5753512473408644], [-0.40893162770557745, -0.29533122890334784, 0.19275779315378938, -0.4863230329973287, -0.038283341901053536, 0.6929645546140188, -0.3880807173650329, 0.17720857201746232, 0.5494652278248806, -0.9870375719311986, -0.5598115675507365, 0.7971577285684042], [-0.8315573309012321, 0.8928527605482233, -0.6822748415289173, -0.06167036216772215, -0.10079515158904796, -0.23330056037422442, -0.1160291713015682, -0.6657416475487272, 0.3424303098529784, 0.3154779378923189, -0.14344324739034686, -0.1250600069961707], [0.7111591999033016, -0.2195247479881317, 0.6744289069387537, 0.9381120118477109, 0.2406374443704804, -0.7695899033933367, 0.5171681881059014, -0.2102798018047003, 0.5440225785779833, 0.7310747759988256, -0.800109396480275, -0.2142334493330047], [0.8737266868735309, -0.20323479016829094, 0.3478334504894822, 0.9368567423357803, 0.5503361334869215, 0.6925837037384419, -0.10596816072170712, 0.4474216471236384, -0.8536780441613205, -0.04110785568759843, 0.5155142499130818, 0.8010610328889587]], "output_weights": [[0.572873452965573, 0.6347283740404247, 0.9521895569213763, 0.4941173998913445], [-0.6531144922837144, 0.503732333866481, -0.23646121051182845, 0.512524630402883], [0.3496691239619327, 0.6361649115797117, 0.9100628924780401, 0.592264674779361], [0.4140615684804687, -0.5409725028432371, 0.9247222592035522, 0.32838310030285944], [0.6879816436586108, -0.26703606390305223, -0.749262353558368, 0.913376526196068], [0.5848690802434475, 0.5884542696889374, 0.9955900142234535, -0.4060347246936242], [0.2861928311225747, 0.03415188915040668, -0.743574941044286, 0.8561130987784491], [0.22732683145784982, 0.022044270333133165, 0.7024712338548063, -0.31687254372988716], [0.8426079454789785, -0.6528684791744925, 0.05550031236999686, -0.8109985744247186], [0.03942538882390023, -0.20999598990476076, -0.1008937983377951, -0.8167889891894646], [-0.6467041134962115, 0.47067756383314463, 0.65791054214303, -0.7413961792200836], [0.3838526849601154, -0.18346457449409503, 0.6087533293394805, 0.9925134127810711]]}