{"hidden_weights": [[-0.5093120112776472, 0.099711457690461, -0.9587494194540392, 0.7182224342181043, -0.8930412785867127, 0.5722979461595366, 0.03773844644552893, 0.8185096720145391, -0.10680547109843187, 0.8332553161468976, -0.8884970104551033, 0.2120519469816936], [0.0832120254335574, 0.036131629595770556, 0.00848143808414327, -0.7941374407231209, 0.09829232025372298, 0.2095234905925188, 1.0996132399139997, -0.9799976399703373, -0.6748946055017825, -0.6112143894648585, 0.8670468708731598, -0.5827940419673785], [-0.34703899757308837, 0.6258434205904556, 0.1948760458505106, -0.5009216082870271, -0.6190480229184963, 0.7312661529967219, 0.2037735625915481, -0.49217428598814156, -0.533880248373661, -0.1934472710788322, 0.9977851099886463, -0.8331881369894214], [0.7070301769029366, -0.16823515338032247, 0.8951432443285036, 0.8293715719337466, 0.5563237530020592, -0.08737005467958735, 0.02591953467673902, 0.7118891330744395, -0.9143049243479033, 0.035170907118503625, -0.8243308292816176, -1.167625560296417], [0.04100991776165397, 0.6277605122353416, 0.7795140551693865, -0.7980277169179969, 0.5856567716079187, -0.6584446163343948, -1.006781436136556, -0.9639446811309615, -0.8232902206492663, 1.2966795818060501, 0.5718237938734541, 0.14515355688845358], [0.022177269068300434, 0.11307945328147329, 0.14111169408466878, -0.4963573812551774, -0.909781359449712, -0.2690018292178957, 0.4873815753030475, -1.0026680340186456, -1.1278939743178453, -0.11559045156722138, -0.06015858493310339, -0.5633871375539063], [-0.20394135997877072, -0.667141904200039, -0.20529110310954582, 0.10260631811887644, 0.7254066067572991, -0.4221992174762643, -0.38457432287469273, -0.12367999796165877, -0.29434755977734267, -0.07466926130370742, -0.785434939038949, 0.24787363177190702], [0.2890449023028647, 0.4441326960004365, 0.04659068591382978, 0.327521989950147, 0.6614037999436221, -0.32989201861002215, 0.14496030998801282, 0.579985499181731, -0.847200322421159, 0.9029627376385561, 0.5506484904172071, -0.6694749216633993]], "output_weights": [[-0.11140825858827748, 0.7085026654006539, 0.2084928499509202, 0.979136593563886], [0.45344811446085886, -0.924040721003662, 0.15693153599641366, -0.7675748274398305], [0.23920619348318478, -0.15240185829031447, 0.6863914638127888, 0.9988620947679006], [0.49146779931146317, -0.3151881139892526, -0.9919061424484411, -0.19182738149099854], [-0.4422047116457587, 0.8691126960882741, -0.6468331820491637, 0.4698718434376412], [-0.5369549798105547, -0.48538208579856273, 1.0000912455068176, -0.24248258273122558], [-0.3067266974324084, -0.4381191366631162, 0.4405728077308552, -0.6369276304086833], [-0.3440807999536205, -0.6955961816305981, 0.7688272204066742, -0.3516553042615319], [0.5893950267354368, -0.6039592292126639, -0.05376572948864422, -0.4209404798380453], [0.05528857437020272, -0.3069440253094165, -0.05245835458641816, -0.605794942085992], [-0.6378286510679735, 0.5274597076176673, 0.6985579867865002, -0.7929446652861089], [0.4917032323630792, -0.1037582572755646, 0.5244372929714005, -0.6911499455545974]]}