{"hidden_weights": [[-0.4805706499981278, 0.007356952018330115, -0.9371944389892206, 1.0193938906402233, -0.9541306910138608, 0.5958060086918178, -0.41598996723620957, 0.9662548749926352, -0.22709465668071838, 0.7710481458072802, -0.9557240622211076, 0.10768121009761566], [-0.03330323873235644, 0.036131629595770556, -0.0928531611691234, -0.8094926202368855, 0.34220795181211294, 0.3825128204029098, 0.9552000532324691, -1.0428984198184508, -0.5191587513944154, -0.7657139295284363, 0.9817498053572971, -0.7584855200860241], [-0.2885549077813862, 0.6632504787686029, 0.1654851998039346, -0.3268127342439975, -0.7378779149757138, 0.6280823376465798, 0.37537842100273644, -0.5282344657533308, -0.5498580149392194, -0.1934472710788322, 1.048915335834505, -0.8186469501343172], [0.7285442558461578, 0.12071699388833473, 0.5751837753642698, 0.614194737252955, 0.42121342671471784, -0.06336533351227591, -0.03864786174944168, 0.7118891330744395, -0.9143049243479033, 0.16285855369071978, -0.7017135747548173, -1.084554619737584], [-0.2404962905108896, 0.7801782658715595, 0.7695477391593901, -0.6939956901719495, 0.6808904530691402, -0.5738261433394372, -0.9666116847019034, -0.9164070067455682, -0.772486229759788, 0.780350419781782, 0.6206022617548725, -0.06180715922215896], [0.03320823426954851, 0.061460474292681644, -0.156719984518485, -0.4109920400731437, -0.8575999253704141, -0.2581427318768934, 0.7462716096066659, -0.7551694773668447, -0.9307202690797669, 0.38844959307925697, -0.013019781729008084, -0.3033443260366431], [-0.20394135997877072, -0.667141904200039, -0.08817225940076345, 0.18717524657251272, 0.8552905208310848, -0.474356397995806, -0.38457432287469273, 0.0049005444446489615, -0.321759333051171, -0.19719506164373343, -0.785434939038949, 0.3037900161114628], [0.9759749240756249, 0.7272894096448357, 0.0535401631981824, 0.4245820035228296, 0.6609424991857504, -0.40994874276643184, -0.08235114282415301, 0.7130482086418206, -0.7586378854011926, 0.7761927199912468, 0.4191831863589216, -0.6694749216633993]], "output_weights": [[0.046829586394513206, 0.6840188663150931, 0.1709797177099303, 1.0598475332602053], [0.20458031148188427, -0.8600341863157355, 0.12877622322572033, -0.8275985786735855], [0.47041218617510794, -0.2883417310086226, 0.6776409190383549, 0.9716478616990886], [0.49146779931146317, -0.3097606236702154, -0.88754726913226, -0.007335785025423022], [-0.5533530189576847, 0.7681634363935469, -0.5044962424054718, 0.5263425296920294], [-0.4651217648063746, -0.33560402548346513, 0.9937179938078231, -0.6592731338944748], [-0.4359238067943192, -0.5142054967693739, 0.6151040431678585, -0.4007677680748035], [-0.28648089810903765, -0.5596000482866701, 0.8475268829296261, -0.31687254372988716], [0.7523559858596065, -0.6170049770109802, -0.31366413105568325, -0.6755832036213337], [-0.024410566452551047, -0.4234369732946987, -0.08750894879987899, -0.47523396629347253], [-0.6369978595519993, 0.47067756383314463, 0.65791054214303, -0.7413961792200836], [0.4825179287870741, -0.1037582572755646, 0.6087533293394805, -0.48098638155539886]]}