{"hidden_weights": [[-0.7375131479974986, 0.02429158090638145, -1.1191234295663577, 0.8025373019949109, -1.1799800954928128, 0.6578861133375515, -0.143704671781407, 0.899961520444514, -0.5108264565522284, 0.7710481458072802, -0.8064440972739209, 0.27991874127053384], [0.08184656728115053, 0.08850657050687237, 0.17870340754853853, -0.7799612134610736, 0.41166926184067304, 0.17045200539425648, 0.9890368355886898, -0.9848185742523157, -0.6347429190778422, -0.8578702290068041, 0.4378102142465719, -0.6021725190805906], [0.02178261972219156, 0.6460219187544998, 0.03051062962818596, -0.19587187259290412, -0.6447977580388436, 0.6607559017193347, 0.16986928018583214, 0.44283090311403106, 1.0006683218511705, -0.06068259589239533, 0.8362648214618886, -0.5901723583746791], [0.7149061346740839, 0.20014209790862292, 0.546752754590448, 0.897557313685134, 0.51314256169541, 0.013068165442225207, 0.046330299656242795, 0.9756985076283508, -0.7493895517727254, 0.03211157343144582, -0.7017135747548173, -1.0880247138114556], [0.05533208146195634, 0.6196324771931303, 0.8825898008987518, -0.8607845780208604, 0.665774948868495, -0.38483723670948566, -1.006781436136556, -0.5432307169284645, -0.7063342674228261, 0.5394560545606649, 0.5610488842472259, 0.018681633246675072], [0.07072338345170977, 0.22526348196032958, -0.3072037916070864, -0.4207668953204089, -0.8081798415171677, -0.192858129025831, 0.7354946808770737, -0.880522528001576, -0.8946205545109767, 0.07905659315820818, -0.21070338891130863, -0.2881043517050796], [-0.47685071907112986, -0.5257217498343183, -0.2573892976912753, 0.1139132650324978, 0.7860286211562264, -0.5627429525830352, -0.3462813382711796, 0.01661851726014124, -0.32061319808657096, -0.07466926130370742, -0.6486962003784227, 0.08228094869859931], [0.6214838991209309, 0.576246639838113, -0.06483184345601156, 0.24800281123502912, 0.7614725698641147, -0.5109576229982553, -0.08235114282415301, 0.3531297304036244, -0.4881497100260359, 0.7761927199912468, 0.2998652145598228, -0.467660562353735]], "output_weights": [[-0.03876343041439438, 0.8574072487146854, 0.06074369502776483, 0.9616903435150994], [0.07786174922365466, -0.9015350877987632, 0.16226384110554823, -0.7245919725499601], [0.2938349401063258, -0.24118424224071938, 0.6776409190383549, 0.8353354800730954], [0.4018869352197542, -0.427206788611401, -0.88754726913226, -0.018998416058159242], [-0.6005255958240441, 0.7651396799669605, -0.6299140356887184, 0.4698718434376412], [-0.45645704438342877, -0.33560402548346513, 0.8311128874113641, -0.3643506562792407], [-0.5307055135161635, -0.43453526412660304, 0.39763689300973115, -0.6283541723383677], [-0.20644039258787505, -0.5896041214271963, 0.8079890687901901, -0.31687254372988716], [0.6837204964822764, -0.6528684791744925, -0.09813880018137114, -0.4209404798380453], [0.026995551366702893, -0.4175654170583254, -0.08750894879987899, -0.6483572340567674], [-0.6226796435794241, 0.39946874551236383, 0.6233269824055478, -0.6362622344839135], [0.2787115185671282, -0.14362228863025833, 0.7365100303802286, -0.5720488120764127]]}