{"hidden_weights": [[-0.7195956845640703, -0.0660931737011334, -0.9407894998280454, 0.9679373531032134, -1.2226098839493462, 0.17797546178805393, -0.06631185190424846, 0.818673506351999, -0.10680547109843187, 0.7743886471905885, -0.9210075160254725, 0.2120519469816936], [0.0315810130285458, 0.036131629595770556, 0.00848143808414327, -0.7941374407231209, 0.08581557710164939, 0.2095234905925188, 1.1084174109735472, -0.9799976399703373, -0.5809544102151822, -0.6112143894648585, 0.9605852520672893, -0.6866100934726125], [-0.34703899757308837, 0.6258434205904556, 0.23547510128868526, -0.362985165876226, -0.670354205941422, 0.5445263614481859, 0.16986928018583214, 0.5010853529695066, 0.8876958436539929, -0.10596024934440616, 0.8646528805312877, -0.8273974539627292], [0.7070301769029366, -0.2051924333655371, 0.8072399475820895, 0.671839099102615, 0.5267042884050351, -0.04076798951577888, -0.13628787977033535, 0.4271847305620923, -0.9783024184599239, 0.047359776807105805, -0.9780832777267299, -1.1226426528370517], [-0.18295315454491945, 0.8437557525810588, 0.7795140551693865, -0.5905308133355117, 0.601295639255885, -0.5643689585771298, -1.006781436136556, -0.9164070067455682, -0.780312400084133, 1.1340249705706305, 0.6206022617548725, 0.03993484082673916], [0.03320823426954851, -0.13450354935491896, -0.10108413195951668, -0.4207668953204089, -0.8081798415171677, -0.2690018292178957, 0.7354946808770737, -0.961077273472414, -0.7072939051570469, 0.07905659315820818, -0.21070338891130863, -0.2881043517050796], [-0.39603609744937934, -0.7883146104110863, -0.18390494736459753, -0.0904719008544941, 0.7860286211562264, -0.5627429525830352, -0.38457432287469273, 0.0049005444446489615, -0.321759333051171, -0.27616450695975203, -1.102048569000246, 0.3948947818779924], [0.7135935460574402, 0.6034114348556794, 0.1982319050827881, 0.4240508240681714, 0.6138168608007556, -0.32744598588478646, -0.03155778199466768, 0.6017159287492947, -0.5399479095953318, 0.8469975409041759, 0.6229818582894291, -0.6603110342732867]], "output_weights": [[-0.15043960593125233, 0.4849434971027597, 0.13642151949323567, 0.979136593563886], [0.2700741722033006, -0.9611686108497088, 0.15693153599641366, -0.7675748274398305], [0.23920619348318478, -0.15240185829031447, 0.6863914638127888, 0.9988620947679006], [0.49146779931146317, -0.3544949821597239, -0.9349517981158887, -0.19182738149099854], [-0.4422047116457587, 0.8691126960882741, -0.6468331820491637, 0.4698718434376412], [-0.5369549798105547, -0.48538208579856273, 1.0000912455068176, -0.2855863400826978], [-0.3067266974324084, -0.4381191366631162, 0.46515236983268454, -0.6369276304086833], [-0.05718132839206094, -0.44859833005635735, 0.7231478452285751, -0.31687254372988716], [0.7523559858596065, -0.6170049770109802, -0.31366413105568325, -0.5260473915573308], [-0.009810435786949658, -0.20999598990476076, -0.26981637816318155, -0.5056578378935157], [-0.7542912177754008, 0.38582745689159065, 0.9041285677575273, -0.7413961792200836], [0.6076000279041869, -0.14354352131563253, 0.43313330094217334, -0.5423200037821991]]}