{"hidden_weights": [[-0.8271659903186274, -0.23682501586166693, -0.954679760423385, 1.0193938906402233, -0.8832489007330427, 0.47017564032555953, -0.1478700005871425, 0.899961520444514, -0.24174707124900371, 0.7710481458072802, -0.8615912829097659, 0.3075477398808401], [-0.07124820000991527, 0.04218857706397465, -0.10229373493500957, -0.6515292217603678, 0.3775820003535031, 0.09863211372109976, 1.17072114461594, -1.16746224841998, -0.5694275440752872, -0.8227711540313585, 0.7957388644326904, -0.6021725190805906], [-0.16395607152367903, 0.7744060911632075, 0.1654851998039346, -0.2314579617741736, -0.5854759823068025, 0.5796432861974683, 0.4010296562849489, -0.34650504884513694, -0.5783781620351877, 1.1246688785908847, 1.1066090219331608, 0.49959449018028607], [0.5415832480903631, 0.00957593499725605, 0.5751837753642698, 0.6623452536709981, 0.42121342671471784, -0.10431138933433526, 0.0490324560720168, 0.30839898644571506, -0.7173878729977071, 0.14360349481195642, -0.6321649966388945, -1.084554619737584], [-0.23116213376233577, 0.7835692910829675, 0.9130802995492113, -0.8607845780208604, 0.5570988882171617, -0.5738261433394372, -1.006781436136556, -0.9164070067455682, -0.780312400084133, 0.8837759615110071, 0.6206022617548725, 0.18237517055817554], [-0.032711771259728434, -0.13450354935491896, -0.10108413195951668, -0.4207668953204089, -0.909781359449712, -0.2690018292178957, 0.7354946808770737, -0.880522528001576, -0.9307202690797669, 0.1413637062227964, -0.05533823366729841, -0.3033443260366431], [-0.47685071907112986, -0.7883146104110863, -0.2573892976912753, 0.15517036757415903, 0.7860286211562264, -0.5627429525830352, -0.38457432287469273, 0.0049005444446489615, -0.2516027073569138, -0.19719506164373343, -0.785434939038949, 0.04584987286257344], [0.8034760759999082, 0.576246639838113, 0.0535401631981824, 0.24800281123502912, 0.7614725698641147, -0.40994874276643184, -0.08235114282415301, 0.46703976703360717, -0.49212221630234215, 0.7761927199912468, 0.31426910945014797, -0.6100494737715089]], "output_weights": [[0.02359523220981896, 0.7574052410526034, 0.0414580641948004, 0.979136593563886], [0.20458031148188427, -0.7419371421567755, 0.14852273048159792, -0.8031503451524583], [0.23920619348318478, -0.20147041521234518, 0.8833167016366841, 0.8711599499653819], [0.6273812655088602, -0.387247030245277, -1.1135989164366675, -0.0746685192193351], [-0.3524009183630101, 0.8691126960882741, -0.5645992160619343, 0.4698718434376412], [-0.45645704438342877, -0.33560402548346513, 0.938078128157275, -0.3706079131748602], [-0.4359238067943192, -0.5850697376873096, 0.47330773045201435, -0.6480996676015405], [-0.43290229848042605, -0.5914158549669104, 0.7092565473139123, -0.31687254372988716], [0.8582228337793761, -0.806316227263352, -0.04824070388968396, -0.7274569334411336], [0.002083215556531466, -0.3426038561553453, -0.1008937983377951, -0.603139233068557], [-0.6008184555621433, 0.29237155437741125, 0.65791054214303, -0.7413961792200836], [0.3838526849601154, 0.013067528002136938, 0.5567388517985066, -0.4423668970753864]]}