{"hidden_weights": [[-0.8271659903186274, -0.23682501586166693, -0.9462941720989018, 0.8891134946369852, -1.192370921322996, 0.47017564032555953, -0.1478700005871425, 0.899961520444514, -0.24174707124900371, 0.7710481458072802, -0.8615912829097659, 0.3075477398808401], [-0.07124820000991527, 0.04218857706397465, 0.027454175948113172, -1.012450479046102, 0.395702210856801, 0.25465869467853564, 1.1558423687396437, -0.8186854981173063, -0.6543547636107201, -1.1232500547143354, 0.9817498053572971, -0.6375065568204749], [-0.09885660327316736, 0.537069258954451, 0.16145694436707622, -0.3268127342439975, -0.7378779149757138, 0.697244946086397, -0.09571669487824894, -0.4970425841554622, -0.4826609539087219, 0.9141412389488612, 1.23067496100796, -0.8186469501343172], [0.7285442558461578, -0.2051924333655371, 0.530692956466923, 0.671839099102615, 0.45893139847649034, -0.24918331668330762, -0.08715143145857898, 0.7373469841623302, -0.9143049243479033, 0.14360349481195642, -0.7103250894735383, -1.1291984694017867], [-0.2404962905108896, 0.7285009785789829, 0.9130802995492113, -0.59135097836221, 0.6057671594609488, -0.5738261433394372, -0.9701207022812897, -0.8844010602939563, -0.7233134647402168, 0.807070693947483, 0.7025544379407591, -0.06180715922215896], [0.03320823426954851, 0.061460474292681644, -0.10108413195951668, -0.4109920400731437, -0.9739187572639197, -0.2690018292178957, 0.5075554715523762, -1.0026680340186456, -1.1381722121456674, 0.17211163555088158, -0.09847301666730476, -0.37140663311837385], [-0.20394135997877072, -0.8046548404174312, -0.08817225940076345, 0.19660886280988354, 0.7254066067572991, -0.4126977945396253, -0.3462813382711796, 0.01138211781292292, -0.321759333051171, -0.27278680056922916, -0.7891792546908213, 0.10283115118629774], [0.6233018419645229, 0.674760763688706, 0.1952370511688659, 0.23988652503399382, 0.7492226967045901, -0.4839031721464758, -0.1486331834850127, 0.46703976703360717, -0.49212221630234215, 0.7761927199912468, 0.31426910945014797, -0.6100494737715089]], "output_weights": [[0.026603741234406245, 0.7574052410526034, 0.06750107721107898, 1.0194634669039297], [0.20458031148188427, -0.7419371421567755, 0.14852273048159792, -0.8965131594394526], [0.2780569070529021, -0.42442885935550545, 0.6863914638127888, 0.9716478616990886], [0.49146779931146317, -0.24174019731694305, -0.88754726913226, 0.006728056014181576], [-0.5533530189576847, 0.7681634363935469, -0.5044962424054718, 0.5263425296920294], [-0.4445085756152765, -0.448998625200024, 0.9937179938078231, -0.6592731338944748], [-0.4359238067943192, -0.5142054967693739, 0.6151040431678585, -0.4007677680748035], [-0.28648089810903765, -0.5596000482866701, 0.8475268829296261, -0.31687254372988716], [0.7523559858596065, -0.6170049770109802, -0.31366413105568325, -0.6755832036213337], [-0.009810435786949658, -0.2629708609807921, -0.08750894879987899, -0.47523396629347253], [-0.6369978595519993, 0.4505285769937945, 0.65791054214303, -0.7413961792200836], [0.4825179287870741, -0.1037582572755646, 0.6087533293394805, -0.4770599160398067]]}