{"hidden_weights": [[-0.5859828774615083, -0.1810484091142117, -1.3051299636644642, 0.9606120981776619, -1.244392223624386, 0.21967736043713162, -0.14050583359994495, 0.8185096720145391, -0.25352628838145486, 0.7002783119518547, -0.7243460337109396, 0.18088951460340674], [-0.00037250370994290627, -0.013691461915199061, 0.08221487341319753, -1.1194984899373686, 0.3703304151383068, 0.3372531208565496, 1.0321865977044804, -0.8770394877879906, -0.5369531892217944, -0.6688443671034104, 0.8606812464152789, -0.6954167742144327], [-0.7078502519641896, 0.7065424204472073, 0.3029790304127967, -0.5595308990673488, -0.9110055021306653, 0.5483080857458966, 0.2037735625915481, -0.5499891547555432, -0.4386648116890375, -0.06068259589239533, 0.8501143639938058, 0.5835490663923066], [0.9142907483384349, -0.16823515338032247, 0.7106480845853766, 0.5763926393976785, 0.8230226724255022, -0.3624676252268962, -0.03360142323616799, 0.7118891330744395, -0.8646522439176811, 0.035170907118503625, -0.9251495489845761, -1.167625560296417], [0.01845442841469142, 0.762324487442731, 0.7795140551693865, -0.7980277169179969, 0.5856567716079187, -0.6584446163343948, -0.9009532933191912, -0.757172147996964, -0.7681216389505101, 0.9108728875846583, 0.5315413708620935, 0.16858310262315054], [0.0376079852832477, -0.2382732112214939, -0.11907112511458878, -0.5307792460887257, -0.909781359449712, -0.34746296257597664, 0.4873815753030475, -1.0026680340186456, -1.1278939743178453, 0.33107712300299047, -0.09847301666730476, -0.22964195883256122], [-0.5353223021053092, -0.9319828349642524, -0.3116637806640027, 0.22090119387107848, 0.7637141207568242, -0.24869132135976968, -0.47560856954723624, -0.12367999796165877, -0.29434755977734267, -0.023359744947453992, -0.696032126035227, 0.1432899341879141], [0.24912454982226537, 0.576246639838113, -0.3424333125191262, 0.3235613653128556, 0.4010338484789798, -0.41906093293543767, -0.03155778199466768, 0.6017159287492947, -0.8113700408077416, 1.08894233322631, 0.5561466668326995, -0.4550222755263802]], "output_weights": [[0.018630366373255575, 1.0765310020985353, 0.19447358997110256, 1.047268588509685], [0.21216857758623622, -0.7419371421567755, 0.14852273048159792, -0.6506487465064288], [0.5462983080059538, -0.20191840877077974, 0.6683818938909574, 1.0344319633003047], [0.6688668990781574, -0.3507953194930994, -0.9495408905921721, -0.02228343228438034], [-0.26862436433374454, 0.775608511850891, -0.4448154472893987, 0.609435708879192], [-0.27676276678940404, -0.41559953698036206, 0.8311128874113641, -0.31167756319672435], [-0.44020408349231327, -0.49293613553780213, 0.42137535091582873, -0.6283541723383677], [-0.28369296103007685, -0.4635554156760876, 0.7688272204066742, -0.31687254372988716], [0.6835320403498863, -0.6379298665370913, -0.0005692828070317374, -0.6028988210328106], [-0.006620472730753413, -0.20999598990476076, -0.059817161293576004, -0.5208515978669377], [-0.6378286510679735, 0.38582745689159065, 0.6891207045248589, -0.6362622344839135], [0.1409533596454171, -0.14354352131563253, 0.43313330094217334, -0.4572125070902012]]}