{"hidden_weights": [[-0.5093120112776472, 0.099711457690461, -0.9587494194540392, 0.7182224342181043, -0.8930412785867127, 0.5722979461595366, 0.03773844644552893, 0.8185096720145391, -0.10680547109843187, 0.8332553161468976, -0.8884970104551033, 0.2120519469816936], [0.0832120254335574, 0.036131629595770556, 0.00848143808414327, -0.7541925234274347, 0.09829232025372298, 0.2095234905925188, 1.1055175976278897, -1.0425181718108198, -0.6748946055017825, -0.6112143894648585, 0.8670468708731598, -0.6463375908957247], [-0.3223645513974365, 0.6258434205904556, 0.23547510128868526, -0.3722796589428999, -0.6190480229184963, 0.5483080857458966, 0.3312396256324135, -0.49217428598814156, -0.4470653741249463, -0.1934472710788322, 0.9558724982987095, -0.8331881369894214], [0.7273393324517784, -0.16823515338032247, 0.8951432443285036, 0.7599059585506545, 0.5563237530020592, -0.08737005467958735, 0.02591953467673902, 0.8374266056936299, -0.9143049243479033, 0.07867993676179752, -0.9251573005292647, -1.2205039082454157], [0.04100991776165397, 0.6277605122353416, 0.7795140551693865, -0.8607845780208604, 0.665774948868495, -0.3366891045905863, -1.006781436136556, -0.5432307169284645, -0.7769371340559645, 0.7056135255241565, 0.3703877463401982, -0.04557090804139148], [0.07072338345170977, 0.22526348196032958, -0.21082843119584363, -0.4207668953204089, -0.9357739558289444, -0.20889779848737655, 0.8036218999834601, -0.9402312368219727, -0.8946205545109767, 0.18751728532221418, -0.26389909426205305, -0.2472712748098348], [-0.4092721366331823, -0.6801625871274106, -0.08817225940076345, 0.19660886280988354, 0.9983792575345268, -0.4447151626457304, -0.10081668584840683, 0.1760906105070925, -0.313122135495705, -0.014273674777631001, -0.9319104123866296, 0.30175912056066595], [0.3775051906712997, 0.576246639838113, -0.04327359283363813, 0.24800281123502912, 0.6600016156060724, -0.5157373793169062, -0.08235114282415301, 0.46703976703360717, -0.4816658242837477, 0.872870947594761, 0.47692126560189374, -0.47765318557895076]], "output_weights": [[-0.11140825858827748, 0.7646257966423904, 0.3716798548696999, 0.979136593563886], [0.15400023949088526, -1.0560065517924035, 0.15693153599641366, -0.8272339360824313], [0.07014950736227693, -0.24118424224071938, 0.610599781917534, 0.9023432985096265], [0.37206257688836064, -0.387247030245277, -1.2897688123625854, -0.46735531961074783], [-0.30141990534474333, 0.7582965211797665, -0.5645992160619343, 0.656238170716961], [-0.5909030601857077, -0.41559953698036206, 0.8311128874113641, -0.3643506562792407], [-0.3067266974324084, -0.49293613553780213, 0.42137535091582873, -0.6283541723383677], [-0.28369296103007685, -0.5896041214271963, 0.7688272204066742, -0.31687254372988716], [0.5893950267354368, -0.6528684791744925, -0.05376572948864422, -0.5650867572997685], [0.026995551366702893, -0.3382541915437144, 0.17749893421016383, -0.6040207867183202], [-0.7220605804291385, 0.39946874551236383, 0.6555899291128117, -0.6695568005873093], [0.4974595760776975, -0.044878314223299, 0.6087533293394805, -0.48146187674083674]]}