{"hidden_weights": [[-0.4805706499981278, 0.007356952018330115, -0.9371944389892206, 1.017475705393555, -0.990705926737772, 0.23053145564161162, -0.13646755596411952, 0.8051199387620033, -0.23469370666520023, 0.6520662649418675, -0.9904980950960253, 0.16515852274138776], [0.16715631291968458, 0.10314804965555631, 0.17870340754853853, -0.7799612134610736, 0.41166926184067304, 0.17045200539425648, 0.9890368355886898, -1.0296667380039186, -0.6347429190778422, -0.8578702290068041, 0.4378102142465719, -0.6021725190805906], [-0.16395607152367903, 0.7744060911632075, 0.1654851998039346, -0.2314579617741736, -0.5854759823068025, 0.6117352721038694, 0.495505486596232, -0.34650504884513694, -0.6521544658539551, 1.1246688785908847, 1.026782326830791, 0.49959449018028607], [0.7492534718767218, -0.2051924333655371, 0.8023525942315366, 0.5876549017296935, 0.3082401458707868, -0.06336533351227591, 0.10957919514939023, 0.6210189766995755, -1.1254484116116776, -0.07697794056214996, -0.9824753779600094, -1.200989970154587], [-0.05606457726695627, 0.8794945785069004, 0.9130802995492113, -0.6939956901719495, 0.6227046245666719, -0.5099559749248587, -0.8355048613110853, -0.9303967757271229, -0.7063342674228261, 0.8607492432148675, 0.5315413708620935, 0.16858310262315054], [0.0376079852832477, -0.23354471938518606, -0.10108413195951668, -0.4207668953204089, -0.909781359449712, -0.2690018292178957, 0.4873815753030475, -1.050005443559972, -1.1381722121456674, 0.2458297689028065, -0.09847301666730476, -0.4305166503175919], [-0.5397110143155257, -0.7724876483492672, -0.3116637806640027, 0.19660886280988354, 0.9981013497155188, -0.5582139822284914, -0.15424767103273535, 0.14165753923437335, -0.1472153013436521, -0.014273674777631001, -0.5907842024548755, 0.24787363177190702], [0.2890449023028647, 0.4441326960004365, 0.04659068591382978, 0.2955996416736346, 0.6614037999436221, -0.32757866483257436, -0.10805307136503886, 0.672977825056341, -0.5399479095953318, 0.8437161010679157, 0.5506484904172071, -0.6694749216633993]], "output_weights": [[-0.0560517716170092, 0.7901752207589853, 0.1709797177099303, 1.2778307967886462], [0.20458031148188427, -0.9015350877987632, 0.331579074007262, -1.02231129524752], [0.5086783752285888, 0.11905450374120508, 0.6776409190383549, 1.0653073834186966], [0.6273812655088602, -0.387247030245277, -0.88754726913226, -0.15987777102297362], [-0.5533530189576847, 0.7702074939303171, -0.5044962424054718, 0.47861472049447495], [-0.5335217354281023, -0.33560402548346513, 0.9195241693406236, -0.3706079131748602], [-0.4359238067943192, -0.49293613553780213, 0.5545799704790048, -0.6480996676015405], [-0.08453654535026209, -0.8338588043155313, 0.6769572234582217, -0.31687254372988716], [0.9062848064460038, -0.6695561881268278, -0.1561914326832784, -0.28285961196559384], [0.026995551366702893, -0.369786330077524, -0.17385723424446764, -0.5597960794996912], [-0.6882769439976273, 0.3382125392664532, 0.807101320342518, -0.748893204747365], [0.5100213328065157, -0.1037582572755646, 0.5244372929714005, -0.5423200037821991]]}