{"hidden_weights": [[-0.6683613479892301, -0.23682501586166693, -0.9371944389892206, 0.9679373531032134, -0.8899867797230624, 0.46874977454664224, -0.4110955784935566, 0.9662548749926352, -0.22709465668071838, 0.7710481458072802, -0.9557240622211076, 0.10768121009761566], [-0.06363601893895286, 0.051805731833828916, -0.050981188254831535, -0.7486147537289052, 0.331146009335503, 0.25465869467853564, 0.9890368355886898, -1.0428984198184508, -0.5958853614071469, -0.9627259592976203, 0.9817498053572971, -0.7587156793027472], [-0.3436414407682527, 0.7744060911632075, 0.1654851998039346, -0.2314579617741736, -0.6326811727091638, 0.697244946086397, 0.03666962494966039, -0.5113993840020478, -0.5498580149392194, 0.9287306981738075, 0.9902996385793625, -0.8186469501343172], [0.5983070425582704, -0.03695886369451551, 0.6950993769928788, 0.7100030107640884, 0.42121342671471784, -0.06336533351227591, -0.03864786174944168, 0.7118891330744395, -0.9143049243479033, 0.14360349481195642, -0.4438364368161529, -1.0823971695779322], [-0.1919888681520376, 0.6277605122353416, 0.9130802995492113, -0.6939956901719495, 0.4894005533072092, -0.5738261433394372, -1.006781436136556, -0.9175812791257975, -0.7063342674228261, 0.8630939726055493, 0.6495142484144972, 0.18237517055817554], [0.01444646675850467, 0.20946467593988186, -0.08080490434617182, -0.42923473464196715, -0.9866924460927463, -0.2581427318768934, 0.5181035848124955, -0.880522528001576, -0.9307202690797669, 0.15026994775894242, -0.12114026452195491, -0.3033443260366431], [-0.20394135997877072, -0.667141904200039, -0.08817225940076345, 0.24988645145142496, 0.7254066067572991, -0.6393352022974227, -0.38457432287469273, -0.029559026360382476, -0.24106702351134357, -0.24300851524647493, -0.785434939038949, 0.11267168743833295], [0.8034760759999082, 0.5478609174999339, 0.0535401631981824, 0.24800281123502912, 0.7614725698641147, -0.40994874276643184, -0.08235114282415301, 0.5881277066283823, -0.5742557734584098, 0.7761927199912468, 0.47692126560189374, -0.6694749216633993]], "output_weights": [[0.02359523220981896, 0.6998112102703584, 0.11984900116557347, 0.979136593563886], [0.20458031148188427, -0.8600341863157355, 0.12877622322572033, -1.0421635458275187], [0.4007248065454049, -0.4219941407204735, 0.6863914638127888, 0.9461839626262935], [0.4566181007539043, -0.13950148894320025, -0.9703561289033726, -0.07325098167163144], [-0.5533530189576847, 0.8632052201865836, -0.5044962424054718, 0.4698718434376412], [-0.5503719975768645, -0.32211143542563836, 0.8756427761154721, -0.4730799268950219], [-0.4179047910111466, -0.49293613553780213, 0.6151040431678585, -0.6369276304086833], [-0.3460956556287961, -0.6955021365114926, 0.8393782656201937, -0.09804711321829232], [0.6475801328215717, -0.43022087365584105, 0.05550031236999686, -0.7818736268673969], [0.002083215556531466, -0.20999598990476076, -0.1008937983377951, -0.6102313104877073], [-0.8195048303487483, 0.2507581945338914, 0.5933960247425988, -0.7413961792200836], [0.32909986136389807, -0.1037582572755646, 0.6087533293394805, -0.48146187674083674]]}