{"hidden_weights": [[-0.4770378154789617, -0.04058955050708826, -0.660661508664101, 0.8092325479553677, -0.9770696719419197, 0.869533539635351, -0.5811336364920902, 0.8051199387620033, -0.4613027934036863, 0.6312258313057536, -0.9093374341414987, 0.246435424131562], [-0.06869784578701398, 0.0037754060190635444, 0.00848143808414327, -0.7941374407231209, 0.345307198367646, 0.3372531208565496, 1.0321865977044804, -0.8770394877879906, -0.5809544102151822, -0.6112143894648585, 0.8670468708731598, -0.5029821531466352], [-0.7078502519641896, 0.7746366582107748, 0.23547510128868526, -0.6220369193957423, -0.9110055021306653, 0.5483080857458966, 0.2037735625915481, -0.49217428598814156, -0.42203393261491196, -0.21262310680735663, 1.025422061404102, -0.8339960575190086], [0.5415832480903631, -0.46599889484249274, 0.8951432443285036, 0.6888654896205714, 0.45893139847649034, -0.019930977940794216, 0.0700694258230302, 0.5848865094145157, -0.9143049243479033, 0.10556822998087545, -1.1674077506615512, -0.9173935242493699], [0.08043744102397607, 0.6435892864224302, 0.5364760338398192, -0.8607845780208604, 0.5829140316699601, -0.42136526237521843, -0.9009532933191912, -0.9164070067455682, -0.780312400084133, 0.9159428339656541, 0.5315413708620935, 0.16858310262315054], [0.0376079852832477, -0.2382732112214939, -0.11907112511458878, -0.5307792460887257, -0.8957118329630585, -0.34746296257597664, 0.4873815753030475, -1.0026680340186456, -1.1278939743178453, 0.15026994775894242, -0.09847301666730476, -0.22964195883256122], [-0.5353223021053092, -0.9319828349642524, -0.3741557557934494, 0.22090119387107848, 0.7958957181498552, -0.4221992174762643, -0.4350076053990012, -0.12367999796165877, -0.29434755977734267, -0.023359744947453992, -0.785434939038949, 0.1432899341879141], [0.24912454982226537, 0.576246639838113, -0.3424333125191262, 0.24800281123502912, 0.609713247335693, -0.41906093293543767, 0.09595395125036041, 0.6017159287492947, -0.5399479095953318, 0.8469975409041759, 0.5996289567936108, -0.6603110342732867]], "output_weights": [[-0.09305600065170051, 0.6351881621939417, 0.25974589512036333, 1.0110945056406853], [0.20458031148188427, -0.6938493947233022, 0.15693153599641366, -0.8790623739525671], [0.18470009411290184, -0.24118424224071938, 0.758377094710665, 0.8612345172041165], [0.37206257688836064, -0.16901170513148125, -1.0680453779575094, -0.28014867926759957], [-0.30141990534474333, 0.819953010132805, -0.4256023088615477, 0.6721849956450006], [-0.5369549798105547, -0.03154034964867228, 0.9348219774082154, -0.3501880015638784], [-0.5089547323431993, -0.3938873787416481, 0.42137535091582873, -0.6283541723383677], [-0.3548398090132268, -0.619010828302162, 0.7688272204066742, -0.3073856974966544], [0.664932265230295, -0.45167512229423634, -0.03169890066533325, -0.5650867572997685], [-0.006620472730753413, -0.20999598990476076, 0.02398465665433966, -0.5208515978669377], [-0.7542912177754008, 0.38582745689159065, 0.6891207045248589, -0.6362622344839135], [0.1409533596454171, -0.14354352131563253, 0.43313330094217334, -0.5664077747281848]]}