{"hidden_weights": [[-0.4776566101921323, -0.10521991789683373, -0.8943167459861431, 0.9679373531032134, -1.0555426930840646, 0.12332757893283895, -0.06631185190424846, 0.6229889571352553, -0.09167563708314863, 0.7743886471905885, -0.8884970104551033, 0.2120519469816936], [-0.03824541796142966, 0.036131629595770556, 0.00848143808414327, -0.7941374407231209, 0.09829232025372298, 0.2426533989073611, 1.1055175976278897, -0.9799976399703373, -0.5809544102151822, -0.6112143894648585, 0.9605852520672893, -0.6866100934726125], [-0.34703899757308837, 0.6258434205904556, 0.23547510128868526, -0.362985165876226, -0.670354205941422, 0.6090765650291756, 0.16986928018583214, 0.5010853529695066, 0.8876958436539929, -0.10596024934440616, 0.8646528805312877, -0.7666556940407718], [0.7070301769029366, -0.2051924333655371, 0.8072399475820895, 0.671839099102615, 0.5267042884050351, -0.04076798951577888, -0.13628787977033535, 0.4271847305620923, -0.9783024184599239, 0.047359776807105805, -0.9780832777267299, -1.1226426528370517], [-0.18295315454491945, 0.8437557525810588, 0.7795140551693865, -0.5905308133355117, 0.601295639255885, -0.5643689585771298, -1.0207862700529464, -0.9164070067455682, -0.780312400084133, 1.1340249705706305, 0.6206022617548725, 0.03993484082673916], [0.03320823426954851, -0.13450354935491896, -0.10108413195951668, -0.4207668953204089, -0.8081798415171677, -0.2690018292178957, 0.7354946808770737, -0.961077273472414, -0.7901623927240549, 0.07905659315820818, -0.21070338891130863, -0.2881043517050796], [-0.39603609744937934, -0.7883146104110863, -0.18390494736459753, -0.0904719008544941, 0.7860286211562264, -0.5627429525830352, -0.38457432287469273, -0.16463212143053607, -0.321759333051171, -0.19719506164373343, -1.102048569000246, 0.3948947818779924], [0.7135935460574402, 0.5579423088396156, 0.1982319050827881, 0.4240508240681714, 0.6138168608007556, -0.32744598588478646, -0.03155778199466768, 0.6017159287492947, -0.5970334542933908, 0.8469975409041759, 0.6229818582894291, -0.6603110342732867]], "output_weights": [[0.1148706674910784, 0.647995928532134, 0.2815796167995649, 1.2778307967886462], [0.31171655880227855, -0.9015350877987632, 0.24299583237190728, -0.8750680150511984], [0.595756413826086, -0.4834217780152905, 0.6776370730852137, 0.8293236441823228], [0.7480889213682921, -0.439444222946926, -0.88754726913226, -0.19182738149099854], [-0.3524009183630101, 0.8691126960882741, -0.6468331820491637, 0.4698718434376412], [-0.5369549798105547, -0.3162087526785411, 1.0000912455068176, -0.3643506562792407], [-0.3067266974324084, -0.5779978996543452, 0.46515236983268454, -0.6369276304086833], [-0.05718132839206094, -0.6955961816305981, 0.7092565473139123, -0.31687254372988716], [0.7523559858596065, -0.6170049770109802, -0.05376572948864422, -0.4209404798380453], [0.026995551366702893, -0.3382541915437144, -0.08750894879987899, -0.476776975882713], [-0.7542912177754008, 0.38582745689159065, 0.7193221667022832, -0.7413961792200836], [0.6076000279041869, -0.188368778554827, 0.43313330094217334, -0.5423200037821991]]}