{"hidden_weights": [[-0.29579442266749306, 0.08391405651655894, -0.7925037131987704, 1.1317776884899478, -1.441327734720521, 0.2511949338677787, -0.3337435409003186, 0.6645757052341297, 0.021693598010588476, 0.7499362563693704, -0.9904980950960253, 0.16515852274138776], [0.3173740680368933, -0.010952468933045148, -0.05607081074634686, -1.012450479046102, 0.345307198367646, 0.3372531208565496, 1.0321865977044804, -0.8770394877879906, -0.5426245508221724, -0.6112143894648585, 0.8670468708731598, -0.6954167742144327], [-0.7078502519641896, 0.7107765695862643, 0.23547510128868526, -0.5595308990673488, -0.9110055021306653, 0.5483080857458966, 0.2037735625915481, -0.44521129718415375, -0.43099522939006985, -0.21262310680735663, 1.025422061404102, -0.8339960575190086], [0.5415832480903631, -0.46599889484249274, 0.8951432443285036, 0.6888654896205714, 0.45893139847649034, -0.019930977940794216, -0.06520038150309054, 0.6757516280537696, -0.9429262713390851, 0.23871739016851, -0.7704539710539293, -1.1427542555971095], [-0.18192603181669048, 0.6520343539447047, 0.5600607710349039, -0.8116175255932279, 0.4931172920914199, -0.5753135767872187, -1.006781436136556, -0.873976986598551, -0.9161340824750351, 0.5784531969537481, 0.3703877463401982, -0.04557090804139148], [0.020027028397569792, 0.22526348196032958, 0.23276736491683458, -0.4207668953204089, -0.9357739558289444, -0.20889779848737655, 0.6321369176723844, -0.9402312368219727, -0.8946205545109767, 0.18751728532221418, -0.18693543498868903, -0.2472712748098348], [-0.4092721366331823, -0.5953167581177946, -0.2573892976912753, 0.015799023477240368, 0.5757296762392253, -0.5627429525830352, -0.424259188495694, -0.03755805319096807, -0.469400335015708, -0.1397480888386876, -0.7539717828153666, 0.2802192076870257], [0.24912454982226537, 0.10808136051856482, 0.10884343830696902, 0.3517435698843486, 0.6125325855150107, -0.32989201861002215, 0.14496030998801282, 0.579985499181731, -0.847200322421159, 0.9168303533990148, 0.5506484904172071, -0.6315640604280784]], "output_weights": [[0.18180550851319935, 0.7428823894625918, 0.23180767723489393, 1.2778307967886462], [0.21216857758623622, -0.7419371421567755, 0.14852273048159792, -0.7245919725499601], [0.3594579699978634, -0.47583684005492577, 0.8840539559660252, 1.215011209615695], [0.37206257688836064, -0.15836372476419244, -1.091585942037612, -0.28014867926759957], [-0.07970016629177563, 0.8691126960882741, -0.469603164346497, 0.609435708879192], [-0.48092873894477206, -0.19182621495839094, 0.9348219774082154, -0.31167756319672435], [-0.5089547323431993, -0.43497857342592705, 0.10554381338116975, -0.7047710607763267], [-0.10498170868021865, -0.5558303580444857, 0.8277532418575748, -0.22597362803228044], [0.4696425916379804, -0.6990811246432325, -0.13042303260347152, -0.7290659934769187], [-0.10523817746759345, -0.3382541915437144, -0.02640846938994313, -0.722758914742508], [-0.6813572618690771, 0.5274597076176673, 0.6985579867865002, -0.6999856107259126], [0.3833224343570756, -0.028789858539556984, 0.4593895579272105, -0.6911499455545974]]}