{"hidden_weights": [[-0.5093120112776472, 0.009930902501941272, -1.0227843567276504, 0.763852458265667, -0.8930412785867127, 0.4370283457175731, 0.03773844644552893, 0.899961520444514, -0.09961111737243908, 0.5256424511412301, -0.9557240622211076, 0.16515852274138776], [0.08902619590386285, 0.16035884584036394, 0.07756851778224898, -0.7799612134610736, 0.27603554706577815, 0.25465869467853564, 0.8720195380156728, -0.8985923552252543, -0.7201656178071238, -0.9627259592976203, 0.5904820498463235, -0.574081137478215], [-0.2998236636213346, 0.5990775469088704, 0.16050019703541116, -0.4622799571864396, -0.670354205941422, 0.6905143400918043, 0.12188531172927401, 0.37138762133862335, 1.2254402191663392, -0.24052210720961475, 0.8362648214618886, 0.7498271481974496], [0.7285442558461578, -0.2051924333655371, 0.8951432443285036, 0.6888654896205714, 0.34399861310314755, -0.3685996024562823, -0.06307957854796656, 0.7118891330744395, -1.1254484116116776, 0.071999418023142, -0.8105905781307517, -1.2119557077365348], [-0.2404962905108896, 0.6277605122353416, 0.676139884391566, -0.6939956901719495, 0.5695702732548734, -0.5281078118223208, -1.006781436136556, -0.6176486859143474, -0.7063342674228261, 0.7968087174825834, 0.5718237938734541, 0.14515355688845358], [-0.03615596813196853, 0.16634919527055092, 0.01587217286906746, -0.30552176255498126, -0.8218090178582605, -0.2690018292178957, 0.596374822948235, -1.1767143731889058, -1.1707416232170287, 0.03460073539111812, -0.09222735186983136, -0.2881043517050796], [-0.42396839588197976, -0.7883146104110863, -0.2573892976912753, -0.08597691032514695, 0.7860286211562264, -0.5627429525830352, -0.3462813382711796, 0.02886149817368909, -0.321759333051171, -0.2538090964044324, -0.785434939038949, 0.10283115118629774], [0.781402363435407, 0.7485121172075215, 0.26190360558460457, 0.14287252631197567, 0.7622505782550161, -0.2429813851570204, -0.08235114282415301, 0.6709193729378936, -0.5389803567287148, 0.7532880137359635, 0.47692126560189374, -0.6536953220557192]], "output_weights": [[-0.11140825858827748, 0.7394010949944192, 0.3716798548696999, 1.1488678673385486], [0.15900705590932573, -0.843912137312723, -0.16846854779416767, -0.8246788277130759], [0.3786672105809924, -0.20147041521234518, 0.6863914638127888, 0.7373490424725258], [0.42642050643800594, -0.3097606236702154, -0.7543901818568954, 0.19235698917862487], [-0.7005893573096197, 0.8632052201865836, -0.6468331820491637, 0.4698718434376412], [-0.46985952714866414, -0.41559953698036206, 0.8311128874113641, -0.3643506562792407], [-0.3067266974324084, -0.49293613553780213, 0.42137535091582873, -0.6283541723383677], [-0.28369296103007685, -0.5896041214271963, 0.7688272204066742, -0.31687254372988716], [0.8426079454789785, -0.7497120224398323, -0.0005692828070317374, -0.7818736268673969], [-0.006620472730753413, -0.20999598990476076, 0.02398465665433966, -0.605794942085992], [-0.6491865350390816, 0.2924484920290485, 0.65791054214303, -0.8021850399695623], [0.32909986136389807, -0.09616848885544821, 0.6978417803956852, -0.45899716087583003]]}