{"hidden_weights": [[-0.8984573301446115, 0.9297552382177128, -0.7917418777383125, -0.8085233099816964, 0.5062205316521191, 0.4925225624790732, 0.3450883553799813, -0.8990944104717737, 0.5457723191869528, 0.6173509791950758, -0.0767843554312253, -0.06436848233706494], [-0.34615554493418177, 0.1414445765238186, 0.037327012080737854, -0.8094926202368855, 0.35343144905182755, 0.20030240960906798, 0.8370683561863128, -0.9509984964838558, -0.5819351650315256, -1.2916695715743116, 0.9817498053572971, -0.7587156793027472], [-0.10059912985838881, 0.6460219187544998, 0.1654851998039346, -0.20006285826655446, -0.7378779149757138, 0.697244946086397, 0.16986928018583214, -0.531110031319467, -0.5498580149392194, 0.9287306981738075, 0.9902996385793625, -0.8186469501343172], [0.5983070425582704, -0.11664687786683592, 0.6950993769928788, 0.7100030107640884, 0.42121342671471784, -0.06336533351227591, -0.03864786174944168, 0.7118891330744395, 0.06472803842923813, -0.9979475056033613, -0.7611546105984779, 0.5753512473408644], [-0.45855210574098626, -0.29533122890334784, 0.19275779315378938, -0.4863230329973287, -0.038283341901053536, 0.07034726826217752, 0.7407467553152548, 0.806809664500516, -0.45013287126529056, 0.3351854902019282, 0.8375395500330152, 0.3738721468754116], [0.4922769311493054, -0.6558324094723273, 0.4453142062489852, 0.7751568595177134, 0.3816323851450851, -0.24251993097266866, 0.38712994320449723, 0.7932109827101826, 0.8261447447494936, -0.5087230446992235, 0.08728383547851992, -0.3033443260366431], [-0.20394135997877072, -0.667141904200039, -0.08817225940076345, 0.24988645145142496, 0.7254066067572991, -0.6393352022974227, -0.3734779869642263, 0.01138211781292292, -0.321759333051171, -0.24300851524647493, -0.785434939038949, 0.24787363177190702], [0.7418085283649443, 0.46874668244132045, 0.06359889237780192, 0.2877400916077457, 0.7614725698641147, -0.32744598588478646, -0.08235114282415301, 0.5887424578582745, -0.5883657853044071, 0.7761927199912468, 0.47692126560189374, -0.6694749216633993]], "output_weights": [[-0.14160103486393272, -0.48056246889285514, -0.41019574179912, 0.14369692357023278], [0.6619068518376316, -0.9726466153349163, 0.877953630444188, -0.8275985786735855], [0.4366528240688563, -0.42442885935550545, 0.6863914638127888, 0.9023432985096265], [0.4566181007539043, -0.13950148894320025, -0.9892332156297785, 0.00940482894758854], [-0.5533530189576847, -0.26703606390305223, -0.749262353558368, 0.913376526196068], [0.5848690802434475, 0.5884542696889374, 0.9955900142234535, -0.4060347246936242], [0.2905226180727001, 0.03415188915040668, -0.743574941044286, 0.45976831160205167], [-0.28648089810903765, -0.6955021365114926, 0.7024712338548063, -0.31687254372988716], [0.8426079454789785, -0.6528684791744925, 0.05550031236999686, -0.8109985744247186], [0.002083215556531466, -0.20999598990476076, -0.1008937983377951, -0.603139233068557], [-0.675638424479132, 0.47067756383314463, 0.65791054214303, -0.7413961792200836], [0.3838526849601154, -0.18346457449409503, 0.6087533293394805, -0.48146187674083674]]}