{"hidden_weights": [[-0.41750069915796345, -0.12733254149213769, -1.2007183347989774, 1.017475705393555, -1.1429908722233943, 0.4385374722784574, -0.13646755596411952, 0.899961520444514, -0.30167578947601753, 0.6180712504524946, -0.9557240622211076, 0.19113892284952413], [0.1495428379036555, 0.08850657050687237, 0.00848143808414327, -0.9465913902060373, 0.32954222146930157, 0.17045200539425648, 0.9890368355886898, -1.0247970039545058, -0.6217631335447942, -0.9627259592976203, 0.4378102142465719, -0.5493508561376289], [-0.2998236636213346, 0.8451245849111556, 0.1654851998039346, -0.18676041139665245, -0.7378779149757138, 0.6458990330765265, 0.14814766524192963, -0.4935790632149939, -0.5498580149392194, 0.9287306981738075, 1.1066090219331608, 0.49959449018028607], [0.5415832480903631, 0.00957593499725605, 0.5751837753642698, 0.7936118573626475, 0.42121342671471784, 0.08650916404360787, 0.0490324560720168, 0.43666198759488123, -0.6905342948183073, 0.21460987339045123, -0.6321649966388945, -1.0180780063395098], [-0.16636027791724328, 0.5263965779136639, 0.88608205388425, -0.7411006290119148, 0.48928817538656494, -0.7438750520931606, -1.1728261204289423, -1.1493212841147145, -0.7063342674228261, 0.6787442025847801, 0.550955849571761, 0.08432528696948063], [0.1693108444812735, 0.03352102289293362, -0.20744710662989116, -0.42923473464196715, -0.9611089645990822, -0.3436448131715033, 0.5378044339610976, -0.9800494948579115, -0.7754035273419306, 0.15026994775894242, -0.06015858493310339, -0.5633871375539063], [-0.1912635240528728, -0.750242858166252, -0.12911169339951964, 0.0027354131574164123, 0.9981013497155188, -0.5367232317686652, -0.15424767103273535, 0.02534694082030605, -0.231819252308807, -0.014273674777631001, -0.7332588235326006, 0.24787363177190702], [0.8389701452261437, 0.576246639838113, -0.04802792232029214, 0.24800281123502912, 0.7614725698641147, -0.40994874276643184, -0.18762162059027587, 0.46703976703360717, -0.47092662087897846, 0.7761927199912468, 0.31426910945014797, -0.6100494737715089]], "output_weights": [[0.02735324833785311, 0.7210605867052117, 0.1709797177099303, 1.2778307967886462], [0.20458031148188427, -0.9015350877987632, 0.16226384110554823, -0.896178321590642], [0.5183377291102212, -0.24118424224071938, 0.6776409190383549, 0.9716478616990886], [0.48142088707705427, -0.3097606236702154, -1.0727658526443737, 0.4119110321142386], [-0.6762042358369554, 1.1543153799748456, -0.7544384994172744, 0.4698718434376412], [-0.5546989567244809, -0.43277057393540574, 0.9937179938078231, -0.6592731338944748], [-0.4359238067943192, -0.5142054967693739, 0.6151040431678585, -0.4007677680748035], [-0.28648089810903765, -0.573285474813868, 0.8475268829296261, -0.31687254372988716], [0.7523559858596065, -0.6170049770109802, -0.31366413105568325, -0.6755832036213337], [0.026995551366702893, -0.5896241649757901, 0.17851002617668515, -0.603139233068557], [-0.6369978595519993, 0.38228390725322337, 0.65791054214303, -0.7413961792200836], [0.42499651967003804, 0.013067528002136938, 0.6087533293394805, -0.4770599160398067]]}